tree
version=v4
num_class=1
num_tree_per_iteration=1
label_index=0
max_feature_idx=14
objective=tweedie
feature_names=recent_h1 recent_h2 recent_h3 recent_h4 same_hour_d1 same_hour_d2 same_hour_d3 same_hour_d4 same_hour_wd_w1 same_hour_wd_w2 same_hour_wd_w3 hour weekday is_weekend horizon
feature_infos=[0:19] [0:29] [0:50] [0:76] [0:17] [0:29] [0:44] [0:146] [0:32] [0:60] [0:77] [0:23] [0:6] [0:1] [0:168]
tree_sizes=1731 1771 1774 1773 1778 1773 1780 1773 1782 1773 1770 1775 1777 1761 1771 1776 1783 1774 1764 1772 1757 1764 1760 1760 1747 1752 1742 1748 1761 1751 1744 1747 1746 1754 1748 1757 1755 1748 1764 1747 1760 1754 1750 1751 1753 1755 1758 1756 1762 1763 1754 1772 1749 1748 1757 1781 1771 1756 1761 1758 1754 1801 1772 1768 1756 1809 1804 1772 1782 1813 1763 1806 1768 1769 1811 1811 1760 1808 1781 1768 1811 1770 1809 1767 1815 1770 1800 1771 1817 1765 1769 1808 1801 1762 1773 1803 1775 1806 1792 1767 1785 1808 1788 1796 1778 1783 1810 1787 1775 1778 1793 1784 1799 1777 1807 1789 1781 1777 1787 1809 1787 1809 1787 1785 1789 1776 1816 1778 1781 1122 1821 1778 1131 1772 1818 1026 1142 1818 1781 1786 1806 1556 1776 1138 1779 1805 1814 1782 1767 1569 1133 1784 1149 1778 1793 1814 1780 1816 1566 1798 1754 1770 1773 1793 1353 1550 1783 1785 1318 1428 1350 1796 1770 1765 1804 1314 1319 1216 1808 1756 1437 1779 1814 1810 1789 1756 1430 1745 1793 1795 1798 1295 1793 1780 1809 1787 1807 1211 1566 1441 1813 1777 1795 1817 1749 1816 1816 1420 1656 1567 1812 1782 1772 1649 1813 1574 1785 1813 1818 1811 1799 1213 1803 1645 1573 1812 1805 1581 1782 1809 1795 1623 1789 1807 1575 1808 1795 1788 1522 1819 1779 1650 1571 1803 1821 1795 1795 1783 1776 1404 1578 1793 1799 1794 1822 1804 1623 1447 1432 1814 1802 1632 1803 1818 1756 1445 1444 1824 1522 1796 1800 1305 1791 1800 1803 1825 1527 1800 1411 1799 1799 1573 1806 1819 1779 1796 1784 1763 1823 1774 1734 1414 1802 1515 1340 1789 1096 1787 1779 1627

Tree=0
num_leaves=15
num_cat=0
split_feature=11 11 11 1 9 0 3 0 11 4 5 1 0 9
split_gain=68740.5 123452 35666.9 7747.41 5739.9 5138.86 3992.17 3903.72 3435.49 1604.16 8.79652 8.31772 6.5224 5.69382
threshold=6.5000000000000009 18.500000000000004 8.5000000000000018 1.0000000180025095e-35 1.0000000180025095e-35 1.0000000180025095e-35 1.0000000180025095e-35 1.0000000180025095e-35 20.500000000000004 1.0000000180025095e-35 1.0000000180025095e-35 1.5000000000000002 1.5000000000000002 1.0000000180025095e-35
decision_type=2 2 2 2 2 2 2 2 2 2 2 2 2 2
left_child=3 2 9 4 6 8 -1 -4 -3 -2 -6 13 -7 -5
right_child=1 5 7 11 10 12 -8 -9 -10 -11 -12 -13 -14 -15
leaf_value=-2.2940403007070556 -2.3280837539571588 -2.3111915230492106 -2.4036330271937705 -2.2301612734387786 -2.2284578146123524 -2.2293345354101874 -2.2286123510919658 -2.2609795996220874 -2.2880245755827318 -2.2343630763694304 -2.222933784064002 -2.2238174992714623 -2.2241106799459165 -2.2235851254316343
leaf_weight=104604.32895362377 20140.561352342367 23812.821495085955 58004.938927829266 1131.4527723789215 2389.3792941868305 882.17589023709297 2384.5783968567848 483.57044944167137 48790.866804778576 467.17168945074081 1031.9150900244713 3151.101650595665 1851.9389627575874 464.19643223285675
leaf_count=256387 71205 71375 344658 471 865 344 875 676 110238 257 192 675 414 96
internal_value=-2.31709 -2.33889 -2.38252 -2.28785 -2.29054 -2.29309 -2.29258 -2.40245 -2.29562 -2.32596 -2.22679 -2.22531 -2.2258 -2.22825
internal_weight=269591 154434 79096.2 115157 110410 75337.8 106989 58488.5 72603.7 20607.7 3421.29 4746.75 2734.11 1595.65
internal_count=858728 599167 416796 259561 258319 182371 257262 345334 181613 71462 1057 1242 758 567
is_linear=0
shrinkage=1


Tree=1
num_leaves=15
num_cat=0
split_feature=11 11 11 1 9 0 3 0 2 8 5 1 0 9
split_gain=62779.8 114644 34647.9 7544.59 5564.46 4968.37 3854.01 3678.91 3483.44 1551.38 9.79259 9.24371 7.24019 6.30294
threshold=6.5000000000000009 18.500000000000004 8.5000000000000018 1.0000000180025095e-35 1.0000000180025095e-35 1.0000000180025095e-35 1.0000000180025095e-35 1.0000000180025095e-35 1.0000000180025095e-35 1.0000000180025095e-35 1.0000000180025095e-35 1.5000000000000002 1.5000000000000002 1.0000000180025095e-35
decision_type=2 2 2 2 2 2 2 2 2 2 2 2 2 2
left_child=3 2 9 4 6 8 -1 -4 -3 -2 -6 13 -7 -5
right_child=1 5 7 11 10 12 -8 -9 -10 -11 -12 -13 -14 -15
leaf_value=0.021957997017543487 -0.010498310469886699 0.018714704539476226 -0.085412573294260163 0.085828419617973814 0.087646415759007001 0.086709713513830194 0.087481146664259379 0.0541604484214585 0.089539222017829226 0.082819126484251035 0.093600454868508765 0.092641747802602814 0.092324220770521367 0.092893608032879826
leaf_weight=104333.33455359936 20124.816710829735 70618.779436871409 55886.499005109072 1089.756112575531 2297.8391919583082 849.04414881765842 2293.5406228303909 476.14679452776909 1779.8832420557737 455.46275727450848 987.29789063334465 3017.4029610157013 1773.8560461103916 444.40265709161758
leaf_count=256387 71213 181026 344658 471 865 344 875 676 587 249 192 675 414 96
internal_value=-1.14646e-05 -0.021076 -0.0639588 0.0279543 0.0253421 0.022905 0.0233674 -0.0842335 0.0204559 -0.0084331 0.0894358 0.0910351 0.0905068 0.087875
internal_weight=266428 151964 76942.9 114464 109912 75021.6 106627 56362.6 72398.7 20580.3 3285.14 4551.56 2622.9 1534.16
internal_count=858728 599167 416796 259561 258319 182371 257262 345334 181613 71462 1057 1242 758 567
is_linear=0
shrinkage=0.05


Tree=2
num_leaves=15
num_cat=0
split_feature=11 11 11 1 9 0 3 2 11 6 5 1 0 9
split_gain=57302.2 106368 34323.8 7327.79 5380.27 4792.26 3710.79 3348.48 3178.2 2866.76 10.8619 10.2344 8.00625 6.94949
threshold=6.5000000000000009 18.500000000000004 9.5000000000000018 1.0000000180025095e-35 1.0000000180025095e-35 1.0000000180025095e-35 1.0000000180025095e-35 1.0000000180025095e-35 8.5000000000000018 1.0000000180025095e-35 1.0000000180025095e-35 1.5000000000000002 1.5000000000000002 1.0000000180025095e-35
decision_type=2 2 2 2 2 2 2 2 2 2 2 2 2 2
left_child=3 2 8 4 6 7 -1 -3 -2 -4 -6 13 -7 -5
right_child=1 5 9 11 10 12 -8 -9 -10 -11 -12 -13 -14 -15
leaf_value=0.020910550006216944 -0.0080201857374741781 0.017810184754249805 -0.089202780090952172 0.084655812653507009 0.086590672451629699 0.085592598950864837 0.086414393529751152 0.088615135993887373 -0.047470192312631776 0.050341446672062709 0.09299452179035525 0.09195622142283795 0.091612948857532656 0.092228716915150472
leaf_weight=104088.09413897991 20554.231706604362 70498.201004490256 47204.167708143592 1050.6088660955429 2211.7589729428291 817.91421712934971 2207.9452812671661 1710.2943835556507 6792.529445245862 370.94280982017517 945.11470413208008 2891.1100865602493 1700.1199046373367 425.70095962285995
leaf_count=256387 71462 181026 309944 471 865 344 875 587 34758 632 192 675 414 96
internal_value=-2.1456e-05 -0.0203574 -0.0624565 0.0267158 0.0241816 0.0218517 0.0222712 0.0194872 -0.017819 -0.0881148 0.0885079 0.0902266 0.0896574 0.0868395
internal_weight=263469 149648 74921.9 113820 109453 74726.5 106296 72208.5 27346.8 47575.1 3156.87 4367.42 2518.03 1476.31
internal_count=858728 599167 416796 259561 258319 182371 257262 181613 106220 310576 1057 1242 758 567
is_linear=0
shrinkage=0.05


Tree=3
num_leaves=15
num_cat=0
split_feature=11 11 11 2 5 0 4 6 0 1 9 0 1 7
split_gain=52376.2 117818 14991 7894.81 6027.36 4611.93 4225.15 3266.51 2842.14 1408.13 11.6005 8.81742 7.36764 5.19654
threshold=7.5000000000000009 18.500000000000004 9.5000000000000018 1.0000000180025095e-35 1.0000000180025095e-35 1.0000000180025095e-35 1.0000000180025095e-35 1.0000000180025095e-35 1.0000000180025095e-35 1.0000000180025095e-35 1.0000000180025095e-35 1.5000000000000002 1.0000000180025095e-35 1.0000000180025095e-35
decision_type=2 2 2 2 2 2 2 2 2 2 2 2 2 2
left_child=3 2 9 4 6 7 -1 -3 -4 -2 -6 -7 13 -5
right_child=1 5 8 12 10 11 -8 -9 -10 -11 -12 -13 -14 -15
leaf_value=0.017768707002655024 -0.032774218978377574 0.016934995165075777 -0.08829191936993111 0.086264791577553734 0.08601972992091006 0.084405506242618278 0.086526063475645079 0.088305997921770338 0.050039605699266444 0.078895407240678131 0.092372081385746527 0.090845124788120332 0.09150442334298213 0.091973530633466721
leaf_weight=114685.3085859865 15574.977147296071 70393.446781024337 45364.435301423073 2078.7989019751549 2180.4075091928244 788.69362370669842 2278.7076054215431 1640.537624552846 374.38055939972401 287.51179645955563 1072.0679109990597 1630.5339120328426 1838.4222581386566 493.21296076476574
leaf_count=292113 69973 181023 309990 861 930 344 924 590 586 199 228 414 438 115
internal_value=-3.14465e-05 -0.0214816 -0.0726341 0.0233856 0.0209752 0.020841 0.0191082 0.0185604 -0.0871597 -0.0307502 0.0881136 0.0887457 0.0890873 0.0873595
internal_weight=260681 136055 61601.3 124627 120216 74453.2 116964 72034 45738.8 15862.5 3252.48 2419.23 4410.43 2572.01
internal_count=858728 563119 380748 295609 294195 182371 293037 181613 310576 70172 1158 758 1414 976
is_linear=0
shrinkage=0.05


Tree=4
num_leaves=15
num_cat=0
split_feature=11 11 11 1 9 0 8 2 6 11 6 1 0 9
split_gain=48061.6 91789.1 32478.9 6990.02 5118.26 4428.44 3552.84 3224.37 2772.45 2727.14 11.8669 11.7526 9.66904 7.63904
threshold=6.5000000000000009 18.500000000000004 9.5000000000000018 1.0000000180025095e-35 1.0000000180025095e-35 1.0000000180025095e-35 1.0000000180025095e-35 1.0000000180025095e-35 1.0000000180025095e-35 8.5000000000000018 1.0000000180025095e-35 1.5000000000000002 1.5000000000000002 1.0000000180025095e-35
decision_type=2 2 2 2 2 2 2 2 2 2 2 2 2 2
left_child=3 2 9 4 6 7 -1 -3 -4 -2 -6 13 -7 -5
right_child=1 5 8 11 10 12 -8 -9 -10 -11 -12 -13 -14 -15
leaf_value=0.018980181966813881 -0.0075702453062105567 0.016064038075291821 -0.087294121157950599 0.082664391249227781 0.084871029005571405 0.083147823853649841 0.087041530840717085 0.087321006446743871 0.050552769212842921 -0.044388438559681512 0.091826292551886499 0.090675152697577754 0.090017952434063631 0.090895100895357892
leaf_weight=103700.64148597419 20490.231057465076 70248.911531925201 43641.861487045884 990.73105554282665 2091.5193113088608 761.29333971440792 1953.5259922593832 1624.2673953771591 367.83590757846832 6665.5943798720837 867.68337258696556 2691.3196633458138 1564.9104983210564 394.02235528826714
leaf_count=256502 71462 181026 309944 471 866 344 760 587 632 34758 191 675 414 96
internal_value=-4.01515e-05 -0.0190389 -0.0596086 0.0244675 0.0220551 0.0198719 0.0202386 0.0176744 -0.086142 -0.0166075 0.0869104 0.0887493 0.0877696 0.0850064
internal_weight=258054 145365 71165.5 112689 108613 74199.4 105654 71873.2 44009.7 27155.8 2959.2 4076.07 2326.2 1384.75
internal_count=858728 599167 416796 259561 258319 182371 257262 181613 310576 106220 1057 1242 758 567
is_linear=0
shrinkage=0.05


Tree=5
num_leaves=15
num_cat=0
split_feature=11 11 11 1 9 1 3 9 0 11 6 1 9 1
split_gain=43808.4 84972.2 31688.7 6740.47 4913.98 4288.88 3567.79 3400.97 2744.61 2501.91 13.0254 12.87 8.32473 7.70782
threshold=6.5000000000000009 18.500000000000004 9.5000000000000018 1.0000000180025095e-35 1.0000000180025095e-35 1.0000000180025095e-35 1.0000000180025095e-35 1.0000000180025095e-35 1.0000000180025095e-35 8.5000000000000018 1.0000000180025095e-35 1.5000000000000002 1.0000000180025095e-35 21.500000000000004
decision_type=2 2 2 2 2 2 2 2 2 2 2 2 2 2
left_child=3 2 9 4 6 7 -1 -3 -4 -2 -6 12 -5 -13
right_child=1 5 8 11 10 -7 -8 -9 -10 -11 -12 13 -14 -15
leaf_value=0.017975145569725931 -0.0071937942714076749 0.015162799767209226 -0.086255531686078135 0.081310064137612215 0.083640569332125464 0.087722606450490348 0.084358311405290695 0.087652579213046589 0.050258859745978449 -0.042588886170322554 0.091075269204687614 0.08904111328173922 0.09007174177943994 0.099229605889493117
leaf_weight=103335.37181162834 20484.505999416113 70107.655940622091 42011.911895796657 957.71748794615269 2018.0531392842531 2199.1858083307743 2064.4971252530813 1656.2637646645308 371.43833875656128 6601.5638048797846 832.00340810418129 2382.0881887674332 378.14683265984058 201.32011839747429
leaf_count=256387 71462 181004 309990 471 866 764 875 603 586 34758 191 671 96 4
internal_value=-4.8039e-05 -0.0183535 -0.058063 0.0233594 0.0210272 0.0189435 0.0192754 0.0168358 -0.0850591 -0.0158205 0.0858109 0.0877747 0.0837903 0.0898351
internal_weight=255602 143433 69469.4 112169 108250 73963.1 105400 71763.9 42383.4 27086.1 2850.06 3919.27 1335.86 2583.41
internal_count=858728 599167 416796 259561 258319 182371 257262 181607 310576 106220 1057 1242 567 675
is_linear=0
shrinkage=0.05


Tree=6
num_leaves=15
num_cat=0
split_feature=11 11 11 5 2 0 4 11 4 7 10 0 0 7
split_gain=40067.8 95325.6 14461.5 7376.67 5631.99 4182.88 3973.03 3227.35 2806.2 1360.78 11.2374 10.8133 7.27281 6.72476
threshold=7.5000000000000009 18.500000000000004 9.5000000000000018 1.0000000180025095e-35 1.0000000180025095e-35 1.0000000180025095e-35 1.0000000180025095e-35 20.500000000000004 1.0000000180025095e-35 1.0000000180025095e-35 1.0000000180025095e-35 1.5000000000000002 1.0000000180025095e-35 1.0000000180025095e-35
decision_type=2 2 2 2 2 2 2 2 2 2 2 2 2 2
left_child=3 2 9 4 6 7 -1 -3 -4 -2 12 -7 -5 -6
right_child=1 5 8 10 13 11 -8 -9 -10 -11 -12 -13 -14 -15
leaf_value=0.015143175960339691 -0.029428909296782158 0.00086776309059738389 -0.08513255154931236 0.083684921168541038 0.084668300119209505 0.081118700931857995 0.084318064130930889 0.023437993036592594 0.056669415865119567 0.078283916326951308 0.09086354885318057 0.088595219514462531 0.089596268192067452 0.091024808279748487
leaf_weight=113934.47816370428 15338.735939770937 23666.741896808147 40502.597403407097 2002.1166759282351 2507.1589864045382 721.14736875891685 2114.2219431102276 47883.80508685112 351.92650619149208 298.93419893085957 1309.662220492959 1468.2508752793074 703.02327333390713 498.87437444925308
leaf_count=292113 69951 71375 309969 912 1049 344 924 110238 607 221 308 414 188 115
internal_value=-5.49186e-05 -0.0193864 -0.0682598 0.0204016 0.0181537 0.0180556 0.0164034 0.0159724 -0.083911 -0.0273698 0.0870618 0.0861326 0.0852212 0.0857232
internal_weight=253302 130232 56492.2 123070 119055 73739.9 116049 71550.5 40854.5 15637.7 4014.8 2189.4 2705.14 3006.03
internal_count=858728 563119 380748 295609 294201 182371 293037 181613 310576 70172 1408 758 1100 1164
is_linear=0
shrinkage=0.05


Tree=7
num_leaves=15
num_cat=0
split_feature=11 11 11 1 7 1 3 6 11 11 1 1 9 10
split_gain=36648.9 72953.3 29570.5 6357.11 4812.42 4068.19 3489.51 3269.74 2955.81 2136.95 14.5208 9.65807 8.9487 8.77315
threshold=6.5000000000000009 18.500000000000004 9.5000000000000018 1.0000000180025095e-35 1.0000000180025095e-35 1.0000000180025095e-35 1.0000000180025095e-35 1.0000000180025095e-35 17.500000000000004 8.5000000000000018 1.5000000000000002 21.500000000000004 1.0000000180025095e-35 1.0000000180025095e-35
decision_type=2 2 2 2 2 2 2 2 2 2 2 2 2 2
left_child=3 2 9 4 6 7 -1 -3 -4 -2 12 -12 -5 -6
right_child=1 5 8 10 13 -7 -8 -9 -10 -11 11 -13 -14 -15
leaf_value=0.016218883172494765 -0.0067793579428510158 0.013586106492208925 -0.088149219564936002 0.079052405249068702 0.084670374808417451 0.086164313641608647 0.082896655413573161 0.086131957240696472 -0.048301065599981041 -0.039692569130624578 0.087374037987375974 0.099119903513505275 0.088447872703813948 0.09106158395282038
leaf_weight=102986.74654023349 20429.321309670806 69865.50506092608 34026.507137134671 907.78461697697639 1823.4249670952559 2078.2584605664015 2000.3088467717171 1588.5160562843084 5391.0373826250434 6501.0403758883476 2225.1951424777508 189.94813051819801 351.58885586261749 761.05206698179245
leaf_count=256489 71462 180993 276104 471 784 764 872 614 34472 34758 671 4 96 174
internal_value=-6.09108e-05 -0.017095 -0.0551087 0.0213576 0.0191486 0.0172046 0.0174893 0.0151989 -0.0826993 -0.0147247 0.0860281 0.0882978 0.0816754 0.0865524
internal_weight=251126 139880 66347.9 111246 107572 73532.3 104987 71454 39417.5 26930.4 3674.52 2415.14 1259.37 2584.48
internal_count=858728 599167 416796 259561 258319 182371 257361 181607 310576 106220 1242 675 567 958
is_linear=0
shrinkage=0.05


Tree=8
num_leaves=15
num_cat=0
split_feature=11 11 11 5 2 9 8 2 11 1 9 10 0 7
split_gain=33399 82339.6 13940.1 6958.58 5270.89 3987.25 3829.26 3295.48 3036.94 1248.49 14.7966 11.8208 7.40144 6.88799
threshold=7.5000000000000009 18.500000000000004 9.5000000000000018 1.0000000180025095e-35 1.0000000180025095e-35 1.0000000180025095e-35 1.0000000180025095e-35 1.0000000180025095e-35 17.500000000000004 1.0000000180025095e-35 2.5000000000000004 1.0000000180025095e-35 1.0000000180025095e-35 1.0000000180025095e-35
decision_type=2 2 2 2 2 2 2 2 2 2 2 2 2 2
left_child=3 2 9 4 6 7 -1 -3 -4 -2 -7 12 -5 -6
right_child=1 5 8 11 13 10 -8 -9 -10 -11 -12 -13 -14 -15
leaf_value=0.013600100217142145 -0.027130634034787195 0.012798950631808435 -0.087127445303277457 0.081847340252466316 0.08274509685683408 0.081875025339345653 0.083365054019735194 0.084466094627719271 -0.046427957737843917 0.078630615588359487 0.090513393510175608 0.089406241256013291 0.087999662775379545 0.089422635639535508
leaf_weight=113568.72517828643 15224.801760643721 69710.674297809601 32737.154955372214 1905.0792998969555 2372.3753782659769 966.58967764675617 2001.5552745163441 1641.8294505625963 5329.7173153236508 284.25252981483936 1017.6063287109137 1219.5940078794956 657.59467275440693 461.27816267311573
leaf_count=292125 69973 180989 276104 912 1049 474 912 654 34472 199 254 308 188 115
internal_value=-6.63236e-05 -0.0180306 -0.0651498 0.0185929 0.0164602 0.0163922 0.0148084 0.014448 -0.0814291 -0.0251922 0.0863053 0.0853544 0.0834261 0.0838321
internal_weight=249099 126913 53575.9 122186 118404 73336.7 115570 71352.5 38066.9 15509.1 1984.2 3782.27 2562.67 2833.65
internal_count=858728 563119 380748 295609 294201 182371 293037 181643 310576 70172 728 1408 1100 1164
is_linear=0
shrinkage=0.05


Tree=9
num_leaves=15
num_cat=0
split_feature=11 11 11 0 7 7 3 3 11 11 10 10 10 6
split_gain=30618.4 62434.9 27344 6093.84 4453.89 3886.53 3562.04 3217.33 3104.9 1820 9.6356 9.10279 6.94002 4.37714
threshold=6.5000000000000009 18.500000000000004 9.5000000000000018 1.0000000180025095e-35 1.0000000180025095e-35 1.0000000180025095e-35 1.0000000180025095e-35 1.0000000180025095e-35 17.500000000000004 8.5000000000000018 1.0000000180025095e-35 1.0000000180025095e-35 5.5000000000000009 1.0000000180025095e-35
decision_type=2 2 2 2 2 2 2 2 2 2 2 2 2 2
left_child=3 2 9 4 6 7 -1 -3 -4 -2 -6 13 -7 -5
right_child=1 5 8 11 10 12 -8 -9 -10 -11 -12 -13 -14 -15
leaf_value=0.0145688756484963 -0.006387009025143631 0.012147043635920902 -0.08603739456029974 0.082220371355023747 0.082812248715541464 0.085062513147310462 0.081445403863359495 0.085074671490070086 -0.044587443582014441 -0.036923553597201793 0.089779975668198522 0.088992925627763342 0.095492497848433666 0.087276756388287982
leaf_weight=102584.48781713843 20380.125545859337 69696.806589648128 31525.261965610087 1803.2717093974352 1690.6096610575914 1733.3048101216555 2030.5004137456417 1545.8910620957613 5273.7057159468532 6415.4644452929497 702.29282706975937 1062.0512191653252 175.65257483720779 561.20863811671734
leaf_count=256458 71462 181022 276104 833 764 702 901 628 34472 34758 167 269 19 169
internal_value=-7.06826e-05 -0.0158849 -0.0521199 0.0195114 0.0174097 0.015616 0.0158669 0.0137295 -0.0800972 -0.0136981 0.0848572 0.0851477 0.0860222 0.0834205
internal_weight=247181 136746 63594.6 110434 107008 73151.7 104615 71242.7 36799 26795.6 2392.9 3426.53 1908.96 2364.48
internal_count=858728 599167 416796 259561 258290 182371 257359 181650 310576 106220 931 1271 721 1002
is_linear=0
shrinkage=0.05


Tree=10
num_leaves=15
num_cat=0
split_feature=11 11 11 9 2 0 11 8 11 8 10 0 4 2
split_gain=27851.8 57548.2 26346.9 5958.13 4381.05 3819.13 3158.71 3150.67 2974.67 1777.32 15.3112 12.4699 11.5631 8.34497
threshold=6.5000000000000009 18.500000000000004 9.5000000000000018 1.0000000180025095e-35 1.0000000180025095e-35 1.0000000180025095e-35 17.500000000000004 1.0000000180025095e-35 20.500000000000004 1.0000000180025095e-35 1.0000000180025095e-35 1.5000000000000002 2.5000000000000004 2.5000000000000004
decision_type=2 2 2 2 2 2 2 2 2 2 2 2 2 2
left_child=3 2 9 4 7 8 -4 -1 -3 -2 12 -7 -5 -6
right_child=1 5 6 10 13 11 -8 -9 -10 -11 -12 -13 -14 -15
leaf_value=0.013824848203151342 -0.014851009247341588 -0.001555815215665537 -0.084877749337632036 0.07921511429479694 0.079652815296508223 0.077537087954642453 -0.042783647642896716 0.082617277246522458 0.020176185067923399 0.078557358599046501 0.087689620648282965 0.08593365151376875 0.089263082467503987 0.085521494206285298
leaf_weight=102419.59021186829 26229.558037742972 23577.507315337658 30387.258410297334 1909.39191660285 1437.9283009171486 662.31736573576927 5222.5902444124222 1691.9076694101095 47407.789014682174 519.3371774405241 1214.8476440757513 1330.3766607642174 336.83410070836544 1046.6420348882675
leaf_count=256433 105862 71375 276104 925 703 344 34472 758 110238 358 321 414 77 344
internal_value=-7.44365e-05 -0.0152647 -0.0505363 0.018605 0.0165087 0.0148744 -0.0787042 0.0149428 0.012958 -0.0130375 0.0831676 0.0831429 0.0807219 0.082125
internal_weight=245394 135337 62358.7 110057 106596 72978 35609.8 104111 70985.3 26748.9 3461.07 1992.69 2246.23 2484.57
internal_count=858728 599167 416796 259561 258238 182371 310576 257191 181613 106220 1323 758 1002 1047
is_linear=0
shrinkage=0.05


Tree=11
num_leaves=15
num_cat=0
split_feature=11 11 11 5 2 9 4 11 2 7 9 10 4 7
split_gain=25484.4 65806 12726.2 6367.34 4677.91 3746.85 3649.57 3197.63 3068.63 1200.99 17.2296 11.2163 7.70003 7.3079
threshold=7.5000000000000009 18.500000000000004 9.5000000000000018 1.0000000180025095e-35 1.0000000180025095e-35 1.0000000180025095e-35 1.0000000180025095e-35 17.500000000000004 1.0000000180025095e-35 1.0000000180025095e-35 2.5000000000000004 1.0000000180025095e-35 2.5000000000000004 1.0000000180025095e-35
decision_type=2 2 2 2 2 2 2 2 2 2 2 2 2 2
left_child=3 2 9 4 6 8 -1 -4 -3 -2 -7 12 -5 -6
right_child=1 5 7 11 13 10 -8 -9 -10 -11 -12 -13 -14 -15
leaf_value=0.011559800372816943 -0.024493307299542962 0.010781331547365073 -0.083647687581085123 0.079683721677376598 0.079389992722943128 0.079336663916596745 0.080999128005357579 -0.0410201590512181 0.082172162726673187 0.077598088214897887 0.088968258187890809 0.086906550062553711 0.087965300905399932 0.086640041078632601
leaf_weight=113031.54180954397 15069.672945290804 69419.605588451028 29319.714837707579 2065.4121459722519 2186.8317632824183 909.41374304890633 1924.4333936274052 5175.98341280967 1538.5810038596392 293.68557848036289 948.70427277684212 1101.9220737367868 324.81714181602001 413.260593354702
leaf_count=292113 69951 180989 276104 1014 1049 474 924 34472 654 221 254 308 86 115
internal_value=-7.75895e-05 -0.0161381 -0.0603935 0.0161988 0.0142223 0.0141647 0.0127223 -0.0772515 0.0123293 -0.0225417 0.0842543 0.0827331 0.0808091 0.0805423
internal_weight=243724 122675 49859.1 121048 117556 72816.3 114956 34495.7 70958.2 15363.4 1858.12 3492.15 2390.23 2600.09
internal_count=858728 563119 380748 295609 294201 182371 293037 310576 181643 70172 728 1408 1100 1164
is_linear=0
shrinkage=0.05


Tree=12
num_leaves=15
num_cat=0
split_feature=11 11 11 0 7 4 3 11 1 10 10 10 10 6
split_gain=23214 48990 24017.5 5552.17 4095.38 3660.61 3294.66 3281.86 3064.41 1616.82 12.9892 9.19664 8.90527 4.19389
threshold=6.5000000000000009 18.500000000000004 9.5000000000000018 1.0000000180025095e-35 1.0000000180025095e-35 1.0000000180025095e-35 1.0000000180025095e-35 16.500000000000004 1.0000000180025095e-35 1.0000000180025095e-35 5.5000000000000009 1.0000000180025095e-35 1.0000000180025095e-35 1.0000000180025095e-35
decision_type=2 2 2 2 2 2 2 2 2 2 2 2 2 2
left_child=3 2 9 4 6 8 -1 -4 -3 -2 -7 -6 13 -5
right_child=1 5 7 12 11 10 -8 -9 -10 -11 -12 -13 -14 -15
leaf_value=0.012383832742103588 -0.013759666514164187 0.010174469304454575 -0.085280160884822348 0.079372304352682152 0.080227111949511681 0.082574087604887991 0.078709849704024726 -0.050029853456797335 0.082193545257782191 0.079800986576726476 0.095267966474907873 0.087352803406702054 0.086352520260835577 0.084536407655243062
leaf_weight=102107.79747462273 26166.082664102316 69368.373748108745 24400.250096768141 1682.5050430297852 1583.7567089796066 1552.6403923630714 1907.302680388093 9052.5946217402816 1509.1738723665476 470.0544106066227 231.58640226721764 634.10528329014778 959.90289059281349 513.04263757169247
leaf_count=256458 105909 181004 241731 833 764 695 901 68845 647 311 25 167 269 169
internal_value=-7.97724e-05 -0.0141331 -0.0475342 0.016975 0.0150336 0.0134885 0.0136 -0.0757412 0.0117079 -0.0121086 0.0842217 0.0822644 0.0823353 0.080579
internal_weight=242139 132751 60089 109388 106233 72661.8 104015 33452.8 70877.5 26636.1 1784.23 2217.86 3155.45 2195.55
internal_count=858728 599167 416796 259561 258290 182371 257359 310576 181651 106220 720 931 1271 1002
is_linear=0
shrinkage=0.05


Tree=13
num_leaves=15
num_cat=0
split_feature=11 11 11 1 6 7 8 11 3 3 1 1 6 10
split_gain=21244.8 56407.4 11787.7 5968.8 4506.18 3586.5 3559.53 3348.62 2968.3 1158.21 24.2224 13.87 10.5614 8.10327
threshold=7.5000000000000009 18.500000000000004 9.5000000000000018 1.0000000180025095e-35 1.0000000180025095e-35 1.0000000180025095e-35 1.0000000180025095e-35 16.500000000000004 1.0000000180025095e-35 1.0000000180025095e-35 21.500000000000004 1.5000000000000002 1.5000000000000002 8.5000000000000018
decision_type=2 2 2 2 2 2 2 2 2 2 2 2 2 2
left_child=3 2 9 4 6 8 -1 -4 -3 -2 11 -5 -6 -7
right_child=1 5 7 10 12 13 -8 -9 -10 -11 -12 -13 -14 -15
leaf_value=0.010333157394873815 -0.022781691853036676 0.0096195362735886566 -0.084074114559205479 0.07525724870025996 0.076569448887061353 0.082523844174513583 0.079926070842257266 -0.048131112766061294 0.082393713581208686 0.080999447899560054 0.098734012882087357 0.082117335564981755 0.083411459503645646 0.096864654669997163
leaf_weight=112788.00269761682 15005.189463853836 69326.581034377217 23534.886540621519 1163.4391415864229 910.89594742655754 1653.7669345289469 1867.8211863338947 8942.1223611906171 1430.0825261920691 273.74283075332642 174.53528465330601 2009.343758970499 1481.0970930308104 104.74258072674274
leaf_count=292186 69986 181022 241731 629 550 714 903 68845 628 186 5 734 602 7
internal_value=-8.13425e-05 -0.0149446 -0.0571393 0.0147666 0.0128839 0.0128434 0.0114669 -0.0741777 0.0110904 -0.0209223 0.0805994 0.0796018 0.080806 0.083378
internal_weight=240666 120271 47755.9 120395 117048 72515.2 114656 32477 70756.7 15278.9 3347.32 3172.78 2391.99 1758.51
internal_count=858728 563119 380748 295609 294241 182371 293089 310576 181650 70172 1368 1363 1152 721
is_linear=0
shrinkage=0.05


Tree=14
num_leaves=15
num_cat=0
split_feature=11 11 11 9 1 6 6 1 8 8 1 10 4 10
split_gain=19320 41561.5 21691.5 5251.12 3814.12 3501.18 3406.24 2847.54 2795.66 1529.94 30.8464 13.7289 11.2246 8.94211
threshold=6.5000000000000009 18.500000000000004 9.5000000000000018 1.0000000180025095e-35 1.0000000180025095e-35 1.0000000180025095e-35 1.0000000180025095e-35 1.0000000180025095e-35 1.0000000180025095e-35 1.0000000180025095e-35 21.500000000000004 1.0000000180025095e-35 2.5000000000000004 9.5000000000000018
decision_type=2 2 2 2 2 2 2 2 2 2 2 2 2 2
left_child=3 2 9 4 8 7 -4 -3 -1 -2 -6 12 -5 -7
right_child=1 5 6 11 10 13 -8 -9 -10 -11 -12 -13 -14 -15
leaf_value=0.011177409009408182 -0.012884065534091821 0.0090546305504923472 -0.07447298018048315 0.075386343130271039 0.076634238434903995 0.081212682330471297 0.068735858298777319 0.08043745979909829 0.078825545861691382 0.07600964062825398 0.099109052932281852 0.083879928162706147 0.085895291511937213 0.097214958339984503
leaf_weight=101879.93132743239 26043.112238541245 69199.228291302919 31143.960258819163 1765.7484970539808 2064.2190301567316 1659.5959243029356 420.82763823121786 1425.8716920167208 1550.5041045248508 493.1968124806881 164.86289575695992 1069.2832390367985 296.80158805847168 92.147691339254379
leaf_count=256502 105862 180993 309944 925 973 737 632 636 760 358 3 321 77 5
internal_value=-8.23544e-05 -0.0130559 -0.0445518 0.0154773 0.0135861 0.0122277 -0.0725637 0.0104958 0.0121915 -0.0112319 0.0782965 0.0792822 0.0768986 0.0820545
internal_weight=239269 130478 58101.1 108791 105660 72376.8 31564.8 70625.1 103430 26536.3 2229.08 3131.83 2062.55 1751.74
internal_count=858728 599167 416796 259561 258238 182371 310576 181629 257262 106220 976 1323 1002 742
is_linear=0
shrinkage=0.05


Tree=15
num_leaves=15
num_cat=0
split_feature=11 11 11 5 2 11 9 4 11 3 9 10 11 11
split_gain=17685.1 48160.7 10786.6 5600.08 4134.73 3589.61 3391.52 3278.52 2775.14 1058.27 19.9051 9.045 8.19292 7.43741
threshold=7.5000000000000009 18.500000000000004 9.5000000000000018 1.0000000180025095e-35 1.0000000180025095e-35 16.500000000000004 1.0000000180025095e-35 1.0000000180025095e-35 20.500000000000004 1.0000000180025095e-35 2.5000000000000004 1.0000000180025095e-35 2.5000000000000004 1.5000000000000002
decision_type=2 2 2 2 2 2 2 2 2 2 2 2 2 2
left_child=3 2 9 4 7 -4 8 -1 -3 -2 -8 12 -5 -6
right_child=1 6 5 11 13 -7 10 -9 -10 -11 -12 -13 -14 -15
leaf_value=0.0092403920029810183 -0.021161811276772066 -0.0040817417042095221 -0.081622848531363104 0.072374436621944538 0.070655232070037308 -0.04365261274715862 0.075770544719183361 0.077617041237201576 0.016961552862251969 0.07962576727399448 0.086561818304260088 0.082935345891800516 0.079095656708619747 0.077994624580089919
leaf_weight=112462.53033705056 14939.148065090179 23489.947674274445 22038.418626025319 637.99539016187191 418.28427284955978 8674.4116145595908 845.02297803759575 1780.8412674367428 47047.106363132596 265.0703337341547 864.49729645252228 974.50572535395622 1567.0445731580257 1974.9306664019823
leaf_count=292113 69986 71383 241731 380 253 68845 474 924 110260 186 254 308 720 911
internal_value=-8.23955e-05 -0.0138076 -0.0538478 0.0134535 0.0116688 -0.0708987 0.0116403 0.0103063 0.00995381 -0.0194047 0.0812276 0.0789238 0.077151 0.0767119
internal_weight=237980 118164 45917 119816 116637 30712.8 72246.6 114243 70537.1 15204.2 1709.52 3179.55 2205.04 2393.21
internal_count=858728 563119 380748 295609 294201 310576 182371 293037 181643 70172 728 1408 1100 1164
is_linear=0
shrinkage=0.05


Tree=16
num_leaves=15
num_cat=0
split_feature=11 11 11 0 7 11 0 3 10 1 0 10 10 0
split_gain=16064.3 44348.6 10352.9 5382.18 4011.09 3627.67 3324.51 3297.8 2682.42 1039.08 14.2331 8.15314 7.74027 4.81201
threshold=7.5000000000000009 18.500000000000004 9.5000000000000018 1.0000000180025095e-35 1.0000000180025095e-35 17.500000000000004 1.0000000180025095e-35 1.0000000180025095e-35 1.0000000180025095e-35 1.0000000180025095e-35 5.5000000000000009 1.0000000180025095e-35 1.0000000180025095e-35 14.500000000000002
decision_type=2 2 2 2 2 2 2 2 2 2 2 2 2 2
left_child=3 2 9 4 7 -4 8 -1 -3 -2 -8 13 -6 -5
right_child=1 6 5 11 12 -7 10 -9 -10 -11 -12 -13 -14 -15
leaf_value=0.0087103854251833045 -0.020265868498670847 0.0080620848496520819 -0.076939568930091198 0.07625592439457704 0.076668846812531943 -0.030033501610917168 0.076175089704245497 0.075008237798104754 0.082210549628970189 0.077664978375841714 0.086989690812069351 0.082281558813219594 0.083389910728219024 0.092073730625759465
leaf_weight=112418.65707041323 14887.526539742947 69100.579225689173 24979.627660512924 2109.8831263631582 1578.4987454712391 4936.6345228254795 1391.8658642321825 1907.5340292751789 1241.6440714299679 275.88179591298103 389.34853321313858 899.759590908885 587.91961318254471 49.202253848314285
leaf_count=292193 69973 181040 276104 1083 845 34472 664 1010 573 199 94 289 180 9
internal_value=-8.28239e-05 -0.0132369 -0.0521403 0.0128128 0.0110937 -0.0691994 0.0110791 0.00981657 0.00937091 -0.0184841 0.078539 0.0782828 0.0784928 0.0766164
internal_weight=236755 117203 45079.7 119551 116493 29916.3 72123.4 114326 70342.2 15163.4 1781.21 3058.84 2166.42 2159.09
internal_count=858728 563119 380748 295609 294228 310576 182371 293203 181613 70172 758 1381 1025 1092
is_linear=0
shrinkage=0.05


Tree=17
num_leaves=15
num_cat=0
split_feature=11 11 11 9 11 1 7 3 7 10 1 10 4 10
split_gain=14699.6 32354.4 18207.3 4675.66 3652.68 3409.65 3253.35 2736.4 2569.44 1402.36 38.7636 12.0472 10.7448 9.17961
threshold=6.5000000000000009 18.500000000000004 9.5000000000000018 1.0000000180025095e-35 16.500000000000004 1.0000000180025095e-35 1.0000000180025095e-35 1.0000000180025095e-35 1.0000000180025095e-35 1.0000000180025095e-35 21.500000000000004 1.0000000180025095e-35 2.5000000000000004 8.5000000000000018
decision_type=2 2 2 2 2 2 2 2 2 2 2 2 2 2
left_child=3 2 9 5 -4 8 7 -3 -1 -2 -7 12 -5 -8
right_child=1 6 4 11 -6 10 13 -9 -10 -11 -12 -13 -14 -15
leaf_value=0.0095284690485768903 -0.011664423226847258 0.0075546734573797326 -0.078799907016097487 0.072116370503870278 -0.039854810547706947 0.07303343642244596 0.07948382696507611 0.079712509099544041 0.076520827255171897 0.077529995329200518 0.098986351978747625 0.080420129071296365 0.082839706182403383 0.095826369817772941
leaf_weight=101566.53350116313 25948.060608491302 69038.299841046333 20680.081742115319 1671.0213003456593 8493.4176030531526 1935.7638094872236 1538.2003011852503 1339.3606141358614 1451.7483773231506 448.29376965761185 155.42957124114037 977.86601713299751 271.56685781478882 91.010062545537949
leaf_count=256502 105909 181022 241731 925 68845 973 714 628 760 311 3 321 77 7
internal_value=-8.246e-05 -0.011575 -0.0402377 0.0134895 -0.0674616 0.0117556 0.0105449 0.00892791 0.0104725 -0.0101496 0.0749624 0.0758939 0.0736155 0.0803967
internal_weight=235607 127577 55569.9 108030 29173.5 105109 72006.9 70377.7 103018 26396.4 2091.19 2920.45 1942.59 1629.21
internal_count=858728 599167 416796 259561 310576 258238 182371 181650 257262 106220 976 1323 1002 721
is_linear=0
shrinkage=0.05


Tree=18
num_leaves=15
num_cat=0
split_feature=11 11 11 6 2 4 4 8 2 7 11 10 14 11
split_gain=13346.3 37651.1 9312.51 4998.36 3897.09 3646.22 3171.5 3038.28 2709.75 1002.6 14.67 14.5147 11.9443 6.20459
threshold=7.5000000000000009 18.500000000000004 9.5000000000000018 1.0000000180025095e-35 1.0000000180025095e-35 1.0000000180025095e-35 1.0000000180025095e-35 1.0000000180025095e-35 1.0000000180025095e-35 1.0000000180025095e-35 1.5000000000000002 5.5000000000000009 49.500000000000007 1.5000000000000002
decision_type=2 2 2 2 2 2 2 2 2 2 2 2 2 2
left_child=3 2 9 4 7 -4 8 -1 -3 -2 12 -8 -5 -6
right_child=1 6 5 10 13 -7 11 -9 -10 -11 -12 -13 -14 -15
leaf_value=0.0077229511986537701 -0.018901258700755336 0.007069858635342755 -0.067941350837655665 0.051818086278091806 0.068433862853428992 0.076565704706681614 0.078190355758065253 0.074717824272614405 0.077834379744568832 0.076125836039549144 0.078175654933017313 0.092921386295098996 0.072306167316062556 0.075114792330975497
leaf_weight=112115.4354442209 14818.619462266564 68928.70826497674 28038.132232099771 86.701411738991737 424.48330524563789 443.42430979758501 1396.121560305357 1718.2649005502462 1379.897928878665 282.86876724660397 2410.0951747298241 189.97127461433411 396.2791084498167 1916.7026030123234
leaf_count=292088 69951 181009 309969 87 255 607 695 920 642 221 1103 25 232 924
internal_value=-8.18321e-05 -0.012193 -0.048862 0.0116641 0.0100475 -0.0656915 0.010036 0.00873421 0.0084587 -0.0171213 0.0765818 0.0799547 0.0686283 0.0739035
internal_weight=234546 115478 43583 119068 116175 28481.6 71894.7 113834 70308.6 15101.5 2893.08 1586.09 482.981 2341.19
internal_count=858728 563119 380748 295609 294187 310576 182371 293008 181651 70172 1422 720 319 1179
is_linear=0
shrinkage=0.05


Tree=19
num_leaves=15
num_cat=0
split_feature=11 11 11 10 11 3 6 4 12 0 11 10 14 11
split_gain=12202.2 27234 16060.4 4350.9 3847.66 3292.07 3088.06 2763.45 2576.95 1345.62 10.7323 9.99174 9.34815 6.06716
threshold=6.5000000000000009 18.500000000000004 9.5000000000000018 1.0000000180025095e-35 16.500000000000004 1.0000000180025095e-35 1.0000000180025095e-35 1.0000000180025095e-35 5.5000000000000009 1.0000000180025095e-35 1.5000000000000002 9.5000000000000018 2.5000000000000004 5.5000000000000009
decision_type=2 2 2 2 2 2 2 2 2 2 2 2 2 2
left_child=3 2 9 5 -4 7 8 -1 -3 -2 -5 -8 -7 -12
right_child=1 6 4 10 -6 12 11 -9 -10 -11 13 -13 -14 -15
leaf_value=0.0084128975483069527 -0.010896547045214321 0.011373195321814585 -0.076018402541805946 0.069865358012970544 -0.035402236056316996 0.036444138012855863 0.077341189697580581 0.074472206407124264 -0.019105891555169976 0.076575554595972262 0.079299105959880614 0.095887650913581951 0.072651787130201262 0.071268225910872618
leaf_weight=101303.4211705029 25872.166992247105 62384.768057003617 19523.834697090089 465.20696966350079 8313.9779363051057 17.978708058595657 1524.229692786932 1608.2919373214245 7802.2677590250969 447.26867659389973 1821.2437720298767 76.253480345010757 2105.1590605676174 270.05127604305744
leaf_count=256429 105901 155466 241731 289 68845 20 737 850 26163 319 741 5 1070 162
internal_value=-8.02066e-05 -0.0106438 -0.0374127 0.0122854 -0.0638881 0.0107167 0.009551 0.00944526 0.00798502 -0.00941006 0.0767341 0.0782248 0.0723452 0.0782621
internal_weight=233536 125945 54157.2 107591 27837.8 105035 71787.5 102912 70187 26319.4 2556.5 1600.48 2123.14 2091.3
internal_count=858728 599167 416796 259561 310576 258369 182371 257279 181629 106220 1192 742 1090 903
is_linear=0
shrinkage=0.05


Tree=20
num_leaves=15
num_cat=0
split_feature=0 11 11 11 7 3 11 0 0 4 2 6 12 1
split_gain=11768.7 11143.1 31825.7 8432.61 3397.48 2816.75 2499.93 18.2344 7.8132 7.31126 11.2002 5.7905 5.62895 4.83344
threshold=1.0000000180025095e-35 7.5000000000000009 18.500000000000004 9.5000000000000018 1.0000000180025095e-35 1.0000000180025095e-35 20.500000000000004 3.5000000000000004 17.500000000000004 3.5000000000000004 1.5000000000000002 1.5000000000000002 1.0000000180025095e-35 1.0000000180025095e-35
decision_type=2 2 2 2 2 2 2 2 2 2 2 2 2 2
left_child=1 4 3 -3 5 -1 -4 9 13 12 -11 -6 -2 -9
right_child=7 2 6 -5 11 -7 -8 8 -10 10 -12 -13 -14 -15
leaf_value=0.0069631252074884012 0.076185710187013964 -0.017414274488895293 -0.0058163014326583174 -0.064453654991739703 0.07253541973636192 0.070441393556732568 0.014211778390150955 0.080131961811763019 0.090759809381791984 0.083123946399338594 0.053331579594526425 0.079245709069231979 0.070732556132567667 0.07426033511339751
leaf_weight=112058.13305833936 572.52865079045296 14791.118302062154 23402.509984970093 26772.896994903684 1583.9089241325855 1775.2709353417158 46617.494712769985 871.85703199356794 125.77735006064177 274.81986893713474 35.637715697288513 403.3680866509676 2728.5086316764355 586.1159158796072
leaf_count=292193 314 69963 71375 309990 888 1010 110238 386 29 79 25 137 1854 247
internal_value=-7.92873e-05 -0.00177923 -0.0130555 -0.0477141 0.00908458 0.00795309 0.00751787 0.0743299 0.078803 0.0723683 0.0797041 0.0738974 0.0716783 0.0777715
internal_weight=232600 227405 111584 41564 115821 113833 70020 5195.25 1583.75 3611.49 310.458 1987.28 3301.04 1457.97
internal_count=858728 855794 561566 379953 294228 293203 181613 2934 662 2272 104 1025 2168 633
is_linear=0
shrinkage=0.05


Tree=21
num_leaves=15
num_cat=0
split_feature=4 11 11 11 1 2 5 1 4 10 5 6 11 11
split_gain=11223.2 10114.5 22861.6 14291.6 3069.32 2509.88 2480.13 50.7305 31.6535 21.04 12.4032 10.7554 9.79267 8.94586
threshold=1.0000000180025095e-35 6.5000000000000009 18.500000000000004 9.5000000000000018 1.0000000180025095e-35 1.0000000180025095e-35 1.0000000180025095e-35 21.500000000000004 5.5000000000000009 1.0000000180025095e-35 1.0000000180025095e-35 7.5000000000000009 1.5000000000000002 7.5000000000000009
decision_type=2 2 2 2 2 2 2 2 2 2 2 2 2 2
left_child=1 4 3 -3 6 -4 -1 -6 9 10 -2 12 -10 -11
right_child=8 2 5 -5 7 -7 -8 -9 11 13 -12 -13 -14 -15
leaf_value=0.0075637101910445113 0.068792760207531195 -0.010155699515224261 0.0058576354498287393 -0.062563999213959262 0.068270350104291389 0.075454112687764696 0.07292077182088029 0.098841019812482181 0.060679845789835964 0.074568588120847407 0.076784919912094851 0.05087643100094328 0.085206927274669761 0.083503283810622109
leaf_weight=101182.29491776228 2239.3603976517916 25801.295605935156 68765.240199521184 26235.595948956907 1892.1426175683737 1320.3141111433506 1472.6654290556908 146.19087707996368 42.748269706964493 624.35930643975735 619.81808439642191 25.154905281960964 847.58881528675556 508.18783114850521
leaf_count=256505 1850 105878 181009 309969 1018 642 809 3 30 248 284 20 271 192
internal_value=-7.74598e-05 -0.00169601 -0.0114722 -0.0365785 0.00970767 0.00716874 0.00850131 0.0704629 0.0747331 0.07281 0.0705253 0.0831184 0.0840293 0.0785777
internal_weight=231723 226816 122122 52036.9 104693 70085.6 102655 2038.33 4907.22 3991.73 2859.18 915.492 890.337 1132.55
internal_count=858728 855833 597498 415847 258335 181651 257314 1021 2895 2574 2134 321 301 440
is_linear=0
shrinkage=0.05


Tree=22
num_leaves=15
num_cat=0
split_feature=6 11 11 11 2 11 8 11 11 10 11 11 10 14
split_gain=10755.1 9200.77 26861.3 10054.7 3340.88 3208.72 2683.24 28.5967 101.899 126.732 26.8202 16.5052 11.1207 9.91965
threshold=1.0000000180025095e-35 7.5000000000000009 17.500000000000004 9.5000000000000018 1.0000000180025095e-35 20.500000000000004 1.0000000180025095e-35 16.500000000000004 9.5000000000000018 1.0000000180025095e-35 18.500000000000004 1.5000000000000002 9.5000000000000018 13.500000000000002
decision_type=2 2 2 2 2 2 2 2 2 2 2 2 2 2
left_child=1 4 3 -3 6 -4 -1 8 11 -10 13 -2 -12 -9
right_child=7 2 5 -5 -6 -7 -8 10 9 -11 12 -13 -14 -15
leaf_value=0.0061004140473044357 0.06345357177707249 -0.015892891142842265 -0.0082456826849151982 -0.069650692065845426 0.069420572216199447 0.013172045968990145 0.070966885707466593 -0.10000000000000001 -0.031453585516901326 0.0824643759080671 0.074582016963160552 0.073839351010684673 0.095043367566043882 0.091253327297537837
leaf_weight=111760.24252690375 453.880983248353 14791.60010907799 27996.940210536122 21114.12135450542 2186.7537865638733 46585.565954133868 1617.3320876955986 0.67930369079112907 53.560809224843979 44.864349827170372 1452.2300600856543 2434.0229575186968 69.587631314992905 348.57166182994843
leaf_count=292088 319 69974 105770 275549 1179 110254 920 7 426 44 737 1301 5 155
internal_value=-7.51292e-05 -0.00165694 -0.0119734 -0.0475048 0.00820639 0.00513221 0.00702573 0.0735387 0.070502 0.0204727 0.0783854 0.0722071 0.0755176 0.0908813
internal_weight=230910 226053 110488 35905.7 115564 74582.5 113378 4857.4 2986.33 98.4252 1871.07 2887.9 1521.82 349.251
internal_count=858728 855734 561547 345523 294187 216024 293008 2994 2090 470 904 1620 742 162
is_linear=0
shrinkage=0.05


Tree=23
num_leaves=15
num_cat=0
split_feature=10 11 11 11 3 1 5 11 11 14 10 11 14 8
split_gain=10275.7 8346.63 19165.9 12378.1 2732.72 2438.06 2341.98 22.5405 91.5764 31.3854 20.8847 11.4025 9.91191 7.7722
threshold=1.0000000180025095e-35 6.5000000000000009 18.500000000000004 9.5000000000000018 1.0000000180025095e-35 1.0000000180025095e-35 1.0000000180025095e-35 15.500000000000002 12.500000000000002 53.500000000000007 6.5000000000000009 1.5000000000000002 80.500000000000014 5.5000000000000009
decision_type=2 2 2 2 2 2 2 2 2 2 2 2 2 2
left_child=1 4 3 -3 6 -4 -1 8 11 -10 13 -2 -12 -9
right_child=7 2 5 -5 -6 -7 -8 10 9 -11 12 -13 -14 -15
leaf_value=0.0067271032187123936 0.06471639398849921 -0.0094296754882652236 0.0052011876721708298 -0.05867746081047534 0.067035199200782908 0.074877414869477549 0.069407544050681419 0.075021237759151718 0.023528977278770683 -0.10000000000000001 0.094815377216705354 0.073504797405892955 0.070284496105803937 0.088668513676855076
leaf_weight=100998.28820210695 435.68058396875858 25767.232668146491 68718.780831709504 25273.977358166128 1974.6700227856636 1278.8622195571661 1512.5712000280619 1295.2324091121554 11.157571572810413 9.5371906347572786 246.89858417585492 2414.4470322541893 49.421190455555916 113.46511716395617
leaf_count=256405 289 105909 181041 309947 1090 632 874 826 66 142 36 1417 31 23
internal_value=-7.36121e-05 -0.00157868 -0.0105157 -0.0338156 0.00877425 0.00647418 0.00765197 0.0741049 0.0714004 -0.0333994 0.0786585 0.0721614 0.090724 0.0761205
internal_weight=230100 225524 121039 51041.2 104486 69997.6 102511 4575.84 2870.82 20.6948 1705.02 2850.13 296.32 1408.7
internal_count=858728 855898 597529 415856 258369 181673 257279 2830 1914 208 916 1706 67 849
is_linear=0
shrinkage=0.05


Tree=24
num_leaves=15
num_cat=0
split_feature=0 9 11 11 3 9 4 11 0 0 14 1 12 9
split_gain=9937.76 7794.2 7802.15 23084.6 2298.54 41.6264 39.1829 38.7202 17.0238 10.9334 26.232 14.4544 4.36755 10.9368
threshold=1.0000000180025095e-35 1.0000000180025095e-35 7.5000000000000009 17.500000000000004 1.0000000180025095e-35 3.5000000000000004 1.5000000000000002 15.500000000000002 17.500000000000004 1.5000000000000002 115.50000000000001 1.0000000180025095e-35 2.5000000000000004 1.0000000180025095e-35
decision_type=2 2 2 2 2 2 2 2 2 2 2 2 2 2
left_child=1 2 4 -4 -1 6 -3 -7 9 10 -2 -11 -10 -14
right_child=8 5 3 -5 -6 7 -8 -9 12 11 -12 -13 13 -15
leaf_value=0.0054977532866811764 0.070423111645286571 0.064761990123669955 -0.046162725080162663 0.0034644639732864359 0.065193645961811861 0.069812515618470392 0.081017296301027428 0.088563812142574999 0.094647078980849786 0.074439916662934105 0.056866809985768756 0.066857468608692974 0.020831143215483044 0.091321862273258364
leaf_weight=111656.14949831367 1444.4241096302867 2058.7440061420202 34484.472142592072 73117.076561667025 1636.1400493532419 541.40862113982439 452.13685272634029 560.13332888484001 89.538696944713593 1918.205439902842 473.94319359213114 934.83019962906837 7.5980209559202221 19.952498383820057
leaf_count=292083 960 1860 344853 215353 1004 332 150 159 10 1062 428 455 16 3
internal_value=-7.09653e-05 -0.00160663 -0.002798 -0.0124402 0.00635987 0.0712441 0.0676891 0.0793475 0.070455 0.0699928 0.067074 0.0719554 0.0892905 0.0718816
internal_weight=229395 224506 220894 107602 113292 3612.42 2510.88 1101.54 4888.49 4771.4 1918.37 2853.04 117.089 27.5505
internal_count=858728 855794 853293 560206 293087 2501 2010 491 2934 2905 1388 1517 29 19
is_linear=0
shrinkage=0.05


Tree=25
num_leaves=15
num_cat=0
split_feature=7 3 11 11 4 11 11 11 11 11 11 10 11 14
split_gain=9601.27 7609.44 7139.81 21064.4 2620.91 49.5926 129.296 25.3767 151.097 12.2964 10.8924 13.8034 9.17326 5.95151
threshold=1.0000000180025095e-35 1.0000000180025095e-35 7.5000000000000009 17.500000000000004 1.0000000180025095e-35 15.500000000000002 12.500000000000002 15.500000000000002 12.500000000000002 2.5000000000000004 19.500000000000004 9.5000000000000018 19.500000000000004 42.500000000000007
decision_type=2 2 2 2 2 2 2 2 2 2 2 2 2 2
left_child=1 2 4 -4 -1 6 -3 8 9 -2 13 -12 -7 -9
right_child=7 5 3 -5 -6 12 -8 10 -10 -11 11 -13 -14 -15
leaf_value=0.0050969971267146438 0.064149573075869853 0.065227293741500408 -0.044425668748739384 0.003156926649545139 0.068683368237886344 0.081763065460358331 -0.10000000000000001 0.068882646679577053 -0.10000000000000001 0.071544916848574142 0.072321812323600881 0.097639373195100035 0.073301644089206711 0.083985671065193418
leaf_weight=111564.58809114993 768.80313478410244 2350.8721278756857 34114.187392234802 73096.086267873645 1644.4414308667183 489.87944948300719 11.900208372622727 74.881646223366261 13.199812360107897 2090.4028274491429 1064.2639960795641 56.705734491348267 925.4045966565609 506.01250228285789
leaf_count=292128 452 1605 344740 215348 980 339 197 83 202 1300 583 2 502 267
internal_value=-6.74889e-05 -0.00153061 -0.00273659 -0.0119838 0.00602063 0.0688287 0.0643951 0.0716438 0.0687772 0.0695564 0.0764821 0.0736025 0.0762304 0.0820388
internal_weight=228772 224197 220419 107210 113209 3778.06 2362.77 4574.27 2872.41 2859.21 1701.86 1120.97 1415.28 580.894
internal_count=858728 855839 853196 560088 293108 2643 1802 2889 1954 1752 935 585 841 350
is_linear=0
shrinkage=0.05


Tree=26
num_leaves=15
num_cat=0
split_feature=8 1 11 11 11 1 11 11 14 11 11 14 0 11
split_gain=9216.61 7683.27 6498 14894 2512.14 58.0305 51.0456 71.6165 53.9142 41.106 22.4288 18.5989 12.5134 10.9903
threshold=1.0000000180025095e-35 1.0000000180025095e-35 6.5000000000000009 18.500000000000004 1.5000000000000002 10.500000000000002 15.500000000000002 12.500000000000002 154.50000000000003 15.500000000000002 18.500000000000004 62.500000000000007 1.0000000180025095e-35 2.5000000000000004
decision_type=2 2 2 2 2 2 2 2 2 2 2 2 2 2
left_child=1 2 4 -4 -1 9 7 13 -9 -3 -8 -12 -7 -2
right_child=6 5 3 -5 -6 12 10 8 -10 -11 11 -13 -14 -15
leaf_value=-0.0072933739334494112 0.061952798769644539 0.062573275701588868 -0.031744069548643263 0.0043341591660488368 0.010960241087961141 0.093413336908819394 0.08961646907564641 -0.099999999999999978 0.070235955399056041 0.073688483465257845 0.081422027635359426 0.069788576926233831 0.068432078499789148 0.069023616724682144
leaf_weight=24928.80807800591 752.76736097037792 2103.7493956312537 49104.265088114887 68528.32242256403 77284.485769256949 271.85878157988191 308.22470548376441 11.278616469353439 7.914719231426715 1375.713559422642 596.72592829167843 809.82093662023544 61.461612246930599 2035.7431639917195
leaf_count=72113 460 1630 414974 181011 185235 37 205 179 19 806 237 489 30 1303
internal_value=-6.39747e-05 -0.00149291 -0.00271333 -0.0107263 0.00650837 0.0688772 0.0706037 0.0664523 -0.0298001 0.066968 0.0774009 0.0747241 0.088807 0.0671148
internal_weight=228181 223659 219846 117633 102213 3812.78 4522.48 2807.7 19.1933 3479.46 1714.77 1406.55 333.32 2788.51
internal_count=858728 855836 853333 595985 257348 2503 2892 1961 198 2436 931 726 67 1763
is_linear=0
shrinkage=0.05


Tree=27
num_leaves=15
num_cat=0
split_feature=4 1 11 11 7 1 4 11 11 11 10 1 10 11
split_gain=8772.81 6902.3 6184.87 24994.7 2478.52 57.4859 39.8135 36.7757 19.7384 18.5688 11.8774 11.4559 8.75835 7.12999
threshold=1.0000000180025095e-35 1.0000000180025095e-35 8.5000000000000018 17.500000000000004 1.0000000180025095e-35 21.500000000000004 5.5000000000000009 15.500000000000002 6.5000000000000009 20.500000000000004 9.5000000000000018 2.5000000000000004 1.0000000180025095e-35 1.5000000000000002
decision_type=2 2 2 2 2 2 2 2 2 2 2 2 2 2
left_child=1 2 4 -4 -1 7 9 -3 13 12 -11 -10 -2 -8
right_child=6 5 3 -5 -6 -7 8 -9 11 10 -12 -13 -14 -15
leaf_value=0.0041344910623963239 0.063236491113315613 0.061198061623408677 -0.055066178923592196 0.0028452951886624709 0.067457962223179763 0.095822313070741141 0.049389020185450605 0.071705629001604904 0.086877454639643192 0.071963703147700661 0.096407734694629127 0.054635839523926179 0.069406338221385727 0.072061423494731755
leaf_weight=119921.16283191741 2071.2855329737067 2131.5281851775944 25014.665106579661 73021.01953625679 1565.4389170557261 161.41477961838245 39.345606416463852 1366.5993465185165 482.02860493957996 734.08353172242641 53.303948283195496 29.221065603196621 796.3339324966073 292.20400385558605
leaf_count=327336 1805 1650 309682 215340 979 16 31 830 155 396 3 22 370 113
internal_value=-6.01039e-05 -0.00145342 -0.00258872 -0.0119313 0.00495046 0.0666492 0.0690762 0.065303 0.0788727 0.0668173 0.0736185 0.0850346 0.0649498 0.0693708
internal_weight=227680 223182 219522 98035.7 121487 3659.54 4497.81 3498.13 842.799 3655.01 787.387 511.25 2867.62 331.55
internal_count=858728 855833 853337 525022 328315 2496 2895 2480 321 2574 399 177 2175 144
is_linear=0
shrinkage=0.05


Tree=28
num_leaves=15
num_cat=0
split_feature=6 2 11 11 8 11 11 10 11 11 11 11 0 11
split_gain=8480.39 6725.12 5602.1 22520.1 2400.89 37.5136 74.3071 125.263 42.9981 29.6183 73.718 17.8863 17.4804 16.5792
threshold=1.0000000180025095e-35 1.0000000180025095e-35 8.5000000000000018 17.500000000000004 1.0000000180025095e-35 16.500000000000004 11.500000000000002 1.0000000180025095e-35 18.500000000000004 15.500000000000002 12.500000000000002 2.5000000000000004 1.0000000180025095e-35 22.500000000000004
decision_type=2 2 2 2 2 2 2 2 2 2 2 2 2 2
left_child=1 2 4 -4 -1 6 11 -8 -7 10 -3 -2 -10 -11
right_child=5 9 3 -5 -6 8 7 -9 12 13 -12 -13 -14 -15
leaf_value=0.0038113473806439821 0.059063963432797108 0.063319912603976736 -0.052706711578878344 0.002523872487847047 0.065396507368252935 0.090199779304473204 -0.079245148019125272 0.078452479819209719 0.073013249472791975 0.074191008163574532 -0.048345241943304217 0.068137107378202125 0.05944558343467321 0.058940157788679184
leaf_weight=119788.52162581682 753.43660166859627 2222.6861836761236 24716.962853364646 72869.897896386683 1603.7455764859915 327.31781689822674 23.733919195830822 26.825006738305092 1092.2144740372896 1175.6778959333897 14.879076950252054 1946.4402879029512 303.33042860031128 210.03963044285774
leaf_count=327239 514 1524 309640 215293 997 162 288 30 590 703 189 1258 152 149
internal_value=-5.77948e-05 -0.00142755 -0.00254545 -0.011465 0.00462497 0.0681044 0.0644805 0.00442435 0.0738897 0.0661349 0.0625774 0.0656051 0.0700642 0.0718794
internal_weight=227076 222602 218979 97586.9 121392 4473.3 2750.44 50.5589 1722.86 3623.28 2237.57 2699.88 1395.54 1385.72
internal_count=858728 855734 853169 524933 328236 2994 2090 318 904 2565 1713 1772 742 852
is_linear=0
shrinkage=0.05


Tree=29
num_leaves=15
num_cat=0
split_feature=10 3 0 11 11 11 11 11 13 10 0 14 11 11
split_gain=8102.61 6352.29 5465.56 5337.53 55.7604 155.587 29.5703 63.4784 33.5331 27.0097 22.4624 14.6076 14.3834 10.79
threshold=1.0000000180025095e-35 1.0000000180025095e-35 1.0000000180025095e-35 8.5000000000000018 15.500000000000002 10.500000000000002 15.500000000000002 12.500000000000002 1.0000000180025095e-35 6.5000000000000009 1.5000000000000002 80.500000000000014 1.5000000000000002 18.500000000000004
decision_type=2 2 2 2 2 2 2 2 2 2 2 2 2 2
left_child=1 2 3 -1 5 -3 7 12 -9 -8 -4 -11 -2 -6
right_child=6 4 10 -5 13 -7 9 8 -10 11 -12 -13 -14 -15
leaf_value=0.0036818154659450371 0.057433274259282609 0.061381393257468546 0.060954490073024274 -0.012141451751191395 0.084221561635127992 -0.065755385113899958 0.071068374622289723 -0.099999999999999978 0.032078666482288805 0.093580417913768338 0.069869297722348955 0.062432269685115907 0.067662272617404068 0.071133029074786205
leaf_weight=119931.72834757715 406.4530716240406 2218.4736786782742 1246.0690545737743 95919.957730654627 182.60023215413094 24.328107167035341 1291.2846877723932 8.3619527108967304 11.299329947680235 226.70490464568138 1632.1004155501723 45.134181976318359 2224.6798898875713 1143.8241900205612
leaf_count=327305 289 1463 1099 523836 205 352 849 141 67 36 1008 31 1417 630
internal_value=-5.5354e-05 -0.00135735 -0.00243704 -0.00334971 0.0648084 0.0600023 0.0686296 0.0654133 -0.0240945 0.074084 0.0660097 0.0884088 0.0660821 0.0729348
internal_weight=226513 222299 218730 215852 3569.23 2242.8 4213.92 2650.79 19.6613 1563.12 2878.17 271.839 2631.13 1326.42
internal_count=858728 855898 853248 851141 2650 1815 2830 1914 208 916 2107 67 1706 835
is_linear=0
shrinkage=0.05


Tree=30
num_leaves=15
num_cat=0
split_feature=9 7 3 11 11 11 11 8 9 11 11 1 4 11
split_gain=7682.07 6147.53 5454.01 4808.12 50.4479 48.1148 70.8841 60.2218 46.044 39.2246 193.681 24.5112 21.3574 16.8764
threshold=1.0000000180025095e-35 1.0000000180025095e-35 1.0000000180025095e-35 8.5000000000000018 15.500000000000002 15.500000000000002 12.500000000000002 3.5000000000000004 3.5000000000000004 16.500000000000004 11.500000000000002 1.0000000180025095e-35 4.5000000000000009 11.500000000000002
decision_type=2 2 2 2 2 2 2 2 2 2 2 2 2 2
left_child=1 2 3 -1 -4 6 13 -8 12 10 -3 -10 -7 -2
right_child=5 9 4 -5 -6 8 7 -9 11 -11 -12 -13 -14 -15
leaf_value=0.0033819945840885147 0.061114309847273299 0.065109311362039152 0.058613551270739153 -0.011646911033413152 0.071797543986619014 0.062533291506288488 -0.099999999999999978 0.081591056123898928 0.085983367035955424 0.074956630252102793 -0.10000000000000001 0.052120545314616962 0.084246334906773954 0.08704047530339748
leaf_weight=119685.33331955224 2743.144402589649 1873.0594490170479 1930.6067048348486 95828.461113054305 1162.4881430715322 884.27398375794291 12.472953360527756 7.2018902823328963 550.83310321718454 1250.7951018474996 17.931681141257286 59.180337376892567 129.887770190835 64.238596584647894
leaf_count=327226 1788 1292 1649 523729 770 737 210 9 168 716 307 36 29 62
internal_value=-5.09633e-05 -0.00135645 -0.00235449 -0.00330063 0.0635685 0.064985 0.0610448 -0.0335294 0.0718433 0.0680873 0.0635436 0.0826982 0.0653142 0.0617076
internal_weight=226200 221749 218607 215514 3093.09 4451.23 2827.06 19.6748 1624.18 3141.79 1890.99 610.013 1014.16 2807.38
internal_count=858728 855689 853374 850955 2419 3039 2069 219 970 2315 1599 204 766 1850
is_linear=0
shrinkage=0.05


Tree=31
num_leaves=15
num_cat=0
split_feature=5 8 3 1 11 11 11 11 11 2 11 0 5 3
split_gain=7368.88 6059.37 5279.44 4544.03 57.5986 52.5644 49.4478 71.7388 46.7569 32.6036 25.0813 23.148 19.3326 18.8794
threshold=1.0000000180025095e-35 1.0000000180025095e-35 1.0000000180025095e-35 1.0000000180025095e-35 15.500000000000002 15.500000000000002 15.500000000000002 12.500000000000002 12.500000000000002 2.5000000000000004 18.500000000000004 1.0000000180025095e-35 10.500000000000002 1.0000000180025095e-35
decision_type=2 2 2 2 2 2 2 2 2 2 2 2 2 2
left_child=1 2 3 -1 8 -4 7 13 -3 12 -6 -9 -8 -2
right_child=6 4 5 -5 10 -7 9 11 -10 -11 -12 -13 -14 -15
leaf_value=-0.0040097836483713812 0.063513397679983 0.061977566721843347 0.05748415987259619 0.064933534497112796 0.089285952519677664 0.070935349188660596 0.0718716691658704 -0.10000000000000001 -0.023028776461628007 0.038568924934436255 0.071490308264648847 0.042672744625697923 0.090302831880288578 0.052265991518255485
leaf_weight=212899.63834646717 2253.6491444036365 1952.7646256536245 1928.4910127483308 2417.1288265474141 245.63506977260113 1165.0676358789206 1311.2719094231725 9.0543531738221628 16.311552491039038 68.445995971560478 1020.9678609371185 4.1441868171095839 159.58918432891369 447.11964609473944
leaf_count=849096 1575 1420 1654 1871 172 764 921 162 180 49 588 12 28 236
internal_value=-4.68419e-05 -0.00129781 -0.00230404 -0.00323583 0.0666237 0.06255 0.0651432 0.0610831 0.0612734 0.0723017 0.0749415 -0.0552024 0.0738715 0.0616514
internal_weight=225899 221646 218410 215317 3235.68 3093.56 4253.27 2713.97 1969.08 1539.31 1266.6 13.1985 1470.86 2700.77
internal_count=858728 855745 853385 850967 2360 2418 2983 1985 1600 998 760 174 949 1811
is_linear=0
shrinkage=0.05


Tree=32
num_leaves=15
num_cat=0
split_feature=4 8 1 11 1 11 11 4 11 11 11 8 10 2
split_gain=7003.21 5556.36 4736.63 4332.11 84.1164 54.3402 57.1603 46.7937 32.7133 99.0529 28.8414 17.2663 13.0425 11.0917
threshold=1.0000000180025095e-35 1.0000000180025095e-35 1.0000000180025095e-35 7.5000000000000009 10.500000000000002 15.500000000000002 12.500000000000002 8.5000000000000018 15.500000000000002 12.500000000000002 18.500000000000004 1.0000000180025095e-35 5.5000000000000009 1.5000000000000002
decision_type=2 2 2 2 2 2 2 2 2 2 2 2 2 2
left_child=1 2 3 -1 -4 6 -3 8 9 -2 -7 -9 -10 -13
right_child=7 5 4 -5 -6 10 -8 11 12 -11 -12 13 -14 -15
leaf_value=0.0037923595070109548 0.059431574552384549 0.060466534711712976 0.05817533813865338 -0.010399421115946699 0.087375365012348841 0.088457004350910418 -0.042890892626576659 0.084239049792736623 0.066806014407240211 -0.067582760090780361 0.069333377507644497 0.064946289960519196 0.08434172677491214 0.0078411710709624261
leaf_weight=111269.80025264621 2441.3317151591182 1912.9009055346251 2663.6489981785417 104063.94274706766 271.80160984396935 248.82646451145411 13.470968812704085 344.68716059625149 1242.1461075767875 15.446881048381327 949.49266436696053 47.20160386711359 115.93293786793947 10.371748343110083
leaf_count=292217 1697 1409 2171 559037 57 180 179 102 860 177 583 22 26 11
internal_value=-4.25488e-05 -0.00125835 -0.00220609 -0.00306608 0.0608791 0.0649442 0.0597438 0.0637858 0.0620755 0.058633 0.0733043 0.0800054 0.068303 0.0546589
internal_weight=225611 221394 218269 215334 2935.45 3124.69 1926.37 4217.12 3814.86 2456.78 1198.32 402.261 1358.08 57.5734
internal_count=858728 855833 853482 851254 2228 2351 1588 2895 2760 1874 763 135 886 33
is_linear=0
shrinkage=0.05


Tree=33
num_leaves=15
num_cat=0
split_feature=6 2 5 11 11 11 10 11 3 11 0 11 8 14
split_gain=6724.46 5353.94 4663.83 4217.95 44.6852 67.0728 104.654 51.5816 41.2673 39.6363 34.3261 33.8023 24.7436 15.8044
threshold=1.0000000180025095e-35 1.0000000180025095e-35 1.0000000180025095e-35 20.500000000000004 16.500000000000004 11.500000000000002 1.0000000180025095e-35 18.500000000000004 1.0000000180025095e-35 15.500000000000002 1.0000000180025095e-35 15.500000000000002 1.0000000180025095e-35 2.5000000000000004
decision_type=2 2 2 2 2 2 2 2 2 2 2 2 2 2
left_child=1 2 3 -1 5 12 -7 -6 11 -4 -9 -3 -2 -10
right_child=4 8 9 -5 7 6 -8 10 13 -11 -12 -13 -14 -15
leaf_value=-0.006595440567824561 0.0624120027541053 0.0593155060480152 0.060145564602366725 0.010630642914015746 0.088249329528054546 -0.0772866610344565 0.07349243912093878 0.06923288467922907 -0.037844193083156639 0.07297351832044538 0.049512890404710214 0.071104008746094766 0.050738099328911081 0.052099551661887761
leaf_weight=170268.22273370624 1954.5805758982897 1504.2389995567501 1568.9431790113449 44908.728820800781 291.88222653418779 22.804011002182961 23.233636036515236 1029.8830174207687 4.9108040630817404 977.23738664016128 280.85269287228584 1020.7189728021622 591.20803398638964 894.50655762478709
leaf_count=741524 1429 1319 1386 109519 162 288 30 590 7 740 152 663 343 576
internal_value=-3.90131e-05 -0.00122854 -0.00220421 -0.00300025 0.0626775 0.0586193 -0.00119357 0.0692405 0.0608051 0.065069 0.0650075 0.064081 0.059701 0.0516085
internal_weight=225342 221148 217723 215177 4194.44 2591.83 46.0376 1602.62 3424.38 2546.18 1310.74 2524.96 2545.79 899.417
internal_count=858728 855734 853169 851043 2994 2090 318 904 2565 2126 742 1982 1772 583
is_linear=0
shrinkage=0.05


Tree=34
num_leaves=15
num_cat=0
split_feature=10 0 9 11 9 1 2 11 11 10 0 6 1 5
split_gain=6388.95 5025.31 4247.45 4218.09 48.1594 44.1972 32.655 31.8379 46.6719 29.232 24.5305 10.3336 10.0526 10.0046
threshold=1.0000000180025095e-35 1.0000000180025095e-35 1.0000000180025095e-35 8.5000000000000018 4.5000000000000009 1.0000000180025095e-35 1.0000000180025095e-35 15.500000000000002 12.500000000000002 3.5000000000000004 2.5000000000000004 5.5000000000000009 4.5000000000000009 2.5000000000000004
decision_type=2 2 2 2 2 2 2 2 2 2 2 2 2 2
left_child=1 2 3 -1 -4 7 10 8 -2 -9 -3 13 -8 -7
right_child=5 6 4 -5 -6 11 12 9 -10 -11 -12 -13 -14 -15
leaf_value=0.0034026967865412338 0.062609388240118885 0.058665351698349244 0.058930843947579838 -0.010684302894220572 0.075666689230064366 0.056808291438560046 0.052767018399101168 0.066688328360992019 -0.018483892908438177 0.083360143668910383 0.068622565707348052 0.030594534066464108 0.036408880594761404 0.041826792287443446
leaf_weight=119824.61498496681 1911.7035446427763 1667.5230865702033 1956.6685929149389 95485.389001436532 550.88069816306233 647.95998767763376 559.4217212498188 783.12979746609926 17.909164346754551 395.81562978029251 983.27899088710546 49.141437008976936 112.86760578304529 134.58206199109554
leaf_count=327391 1410 1456 1846 523956 268 342 331 625 196 142 577 35 73 80
internal_value=-3.56523e-05 -0.00116011 -0.00209109 -0.00284459 0.0626075 0.0630729 0.0598627 0.065812 0.0618567 0.0722857 0.0623588 0.0528351 0.0500207 0.0542318
internal_weight=225081 221141 217818 215310 2507.55 3940.24 3323.09 3108.56 1929.61 1178.95 2650.8 831.683 672.289 782.542
internal_count=858728 855898 853461 851347 2114 2830 2437 2373 1606 767 2033 457 404 422
is_linear=0
shrinkage=0.05


Tree=35
num_leaves=15
num_cat=0
split_feature=7 4 3 11 4 11 11 3 9 8 1 11 8 10
split_gain=6026.48 4798.37 4316.77 4141.36 63.9687 49.5 47.3171 27.6532 25.3431 20.8162 20.4601 18.9229 16.8867 11.9667
threshold=1.0000000180025095e-35 1.0000000180025095e-35 1.0000000180025095e-35 20.500000000000004 8.5000000000000018 7.5000000000000009 7.5000000000000009 1.0000000180025095e-35 1.0000000180025095e-35 5.5000000000000009 1.0000000180025095e-35 20.500000000000004 1.0000000180025095e-35 2.5000000000000004
decision_type=2 2 2 2 2 2 2 2 2 2 2 2 2 2
left_child=1 2 3 -1 11 -4 7 12 9 -8 -10 -3 -2 -9
right_child=6 4 5 -5 -6 -7 8 13 10 -11 -12 -13 -14 -15
leaf_value=-0.0064063513613128262 0.060771946116177193 0.056231540895666267 0.052324990668064487 0.010660394143267561 0.082755032055009115 0.065372623930464058 0.067788589751782299 0.046386474900038471 0.062200159781005696 0.089534711556128216 0.035557823447294613 0.066139945058025215 0.049333919836599564 0.019573691323589638
leaf_weight=169859.95313521102 1411.3331675231457 2164.2519254609942 1621.2103858292103 44952.038930132985 299.53661300987005 1317.7685008011758 1367.7187636531889 278.64789846539497 255.41172810643911 119.67628262937069 100.38386921584606 619.87189906835556 418.33765903115273 48.918753504753113
leaf_count=741479 891 1941 1083 109533 99 1336 1329 148 174 20 75 368 217 35
internal_value=-3.26324e-05 -0.0011344 -0.00201147 -0.00283493 0.0607997 0.0581752 0.0607879 0.0557615 0.0666708 0.0695383 0.0546833 0.0584376 0.0581567 0.0423823
internal_weight=224835 220835 217751 214812 3083.66 2938.98 4000.43 2157.24 1843.19 1487.4 355.796 2784.12 1829.67 327.567
internal_count=858728 855839 853431 851012 2408 2419 2889 1291 1598 1349 249 2309 1108 183
is_linear=0
shrinkage=0.05


Tree=36
num_leaves=15
num_cat=0
split_feature=6 2 5 11 3 1 11 11 11 11 11 0 11 14
split_gain=5728.98 4634.65 4075.56 3962.93 56.3213 53.5349 41.0087 69.4366 40.9409 36.8785 35.4874 19.052 16.515 14.9148
threshold=1.0000000180025095e-35 1.0000000180025095e-35 1.0000000180025095e-35 8.5000000000000018 1.0000000180025095e-35 1.0000000180025095e-35 16.500000000000004 11.500000000000002 15.500000000000002 18.500000000000004 15.500000000000002 1.0000000180025095e-35 19.500000000000004 2.5000000000000004
decision_type=2 2 2 2 2 2 2 2 2 2 2 2 2 2
left_child=1 2 3 -1 10 6 7 -2 -4 -8 -3 -7 -13 -6
right_child=5 4 8 -5 13 11 9 -9 -10 -11 -12 12 -14 -15
leaf_value=0.0033261876945245364 0.058629948558570136 0.05642485965771328 0.056927170619597872 -0.010344323294318218 -0.040088080189584867 0.055054738375485725 0.086450100890783144 -0.010046794047810906 0.070213047616728849 0.064727530784673387 0.068686046050918798 0.044135134419335038 0.016308454184778248 0.047043223867570982
leaf_weight=119464.23524921387 1919.0772134512663 1467.268421754241 1524.5409531630576 95306.978405572474 4.9394942224025717 411.59556955099106 241.10441832244396 37.524854462593794 935.76427625864744 1030.3745305836201 987.16980225220323 337.72691930085421 63.317105650901794 864.70736025646329
leaf_count=327226 1475 1319 1386 523817 7 230 151 295 740 614 663 181 48 576
internal_value=-2.97656e-05 -0.00111065 -0.00200724 -0.00274024 0.0574822 0.0589682 0.0618558 0.0573128 0.0619804 0.0688467 0.0613563 0.0474977 0.0397418 0.0465483
internal_weight=224596 220556 217232 214771 3324.09 4040.72 3228.08 1956.6 2460.31 1271.48 2454.44 812.64 401.044 869.647
internal_count=858728 855734 853169 851043 2565 2994 2535 1770 2126 765 1982 459 229 583
is_linear=0
shrinkage=0.05


Tree=37
num_leaves=15
num_cat=0
split_feature=10 0 11 11 12 1 2 11 11 10 0 6 0 4
split_gain=5476.2 4334.61 3967.76 13905.5 2186.61 52.4573 46.0469 32.2433 42.7293 30.0619 24.1629 11.1795 16.6363 10.5055
threshold=1.0000000180025095e-35 1.0000000180025095e-35 20.500000000000004 8.5000000000000018 4.5000000000000009 1.0000000180025095e-35 1.0000000180025095e-35 15.500000000000002 13.500000000000002 3.5000000000000004 2.5000000000000004 1.5000000000000002 2.5000000000000004 3.5000000000000004
decision_type=2 2 2 2 2 2 2 2 2 2 2 2 2 2
left_child=1 2 3 -1 -4 7 10 8 -2 -9 -3 -7 -13 -8
right_child=5 6 4 -5 -6 11 13 9 -10 -11 -12 12 -14 -15
leaf_value=0.0038249707542365955 0.059053486960521165 0.055754510289089981 0.017287669602482993 -0.027350999197655847 -0.00861822721614444 0.051390745967885502 0.045879259041495361 0.063479537658057958 -0.044512670145874372 0.08087139681321974 0.065784377849067585 0.047276478151710627 0.014838587189396853 0.013696133900068401
leaf_weight=121120.95781181008 1860.5880863107741 1625.5915324762464 34829.135951802135 50755.617084607482 10631.902014538646 619.42987065017223 623.95501577854156 753.7078618183732 10.012932561337946 370.6530481800437 952.22078863531351 130.42076148837805 56.715519890189171 26.431276723742485
leaf_count=328405 1470 1456 78253 415163 31640 347 381 625 136 142 577 68 42 23
internal_value=-2.71573e-05 -0.00105267 -0.00190692 -0.00538138 0.0112291 0.0594732 0.0564599 0.0625213 0.0584991 0.0692129 0.0594595 0.0481552 0.0374455 0.0445714
internal_weight=224367 220566 217338 171877 45461 3801.53 3228.2 2994.96 1870.6 1124.36 2577.81 806.566 187.136 650.386
internal_count=858728 855898 853461 743568 109893 2830 2437 2373 1606 767 2033 457 110 404
is_linear=0
shrinkage=0.05


Tree=38
num_leaves=15
num_cat=0
split_feature=7 9 3 11 11 11 11 9 8 9 8 1 3 1
split_gain=5164.82 4379.15 3829.54 3590.22 60.8001 58.499 53.5377 46.9052 32.9065 32.1706 21.1537 20.7201 16.2403 16.1071
threshold=1.0000000180025095e-35 1.0000000180025095e-35 1.0000000180025095e-35 20.500000000000004 15.500000000000002 7.5000000000000009 7.5000000000000009 4.5000000000000009 1.0000000180025095e-35 1.0000000180025095e-35 5.5000000000000009 1.0000000180025095e-35 1.0000000180025095e-35 1.0000000180025095e-35
decision_type=2 2 2 2 2 2 2 2 2 2 2 2 2 2
left_child=1 2 3 -1 -4 13 8 -7 12 10 -8 -11 -2 -3
right_child=6 5 4 -5 -6 7 9 -9 -10 11 -12 -13 -14 -15
leaf_value=-0.0059715826255450728 0.057379754250971575 0.054295607257213954 0.049871696181316955 0.0099387365143776569 0.064921804072491512 0.060414065270803424 0.065138513171435874 0.081330592198781901 0.040960258590565631 0.057645826864509898 0.087839431704508364 0.030478377490634475 0.042184503186129763 0.041592266279908786
leaf_weight=169338.43348153308 1369.1896379590034 1369.2765103131533 1805.9310878403485 44847.534597113729 1067.8797570765018 1032.1485126391053 1322.0715230293572 362.04504546150565 524.13615468144417 244.84544645249844 111.25774731114507 98.384563878178596 201.75065699219704 305.13614016771317
leaf_count=741418 891 959 1649 109537 770 1165 1329 167 286 174 20 75 114 174
internal_value=-2.54986e-05 -0.00103239 -0.0018709 -0.00264019 0.0554642 0.0582801 0.057223 0.0658457 0.0518087 0.0636081 0.0669006 0.0498585 0.0554283 0.0519806
internal_weight=224000 220128 217060 214186 2873.81 3068.61 3871.64 1394.19 2095.08 1776.56 1433.33 343.23 1570.94 1674.41
internal_count=858728 855839 853374 850955 2419 2465 2889 1332 1291 1598 1349 249 1005 1133
is_linear=0
shrinkage=0.05


Tree=39
num_leaves=15
num_cat=0
split_feature=8 4 1 11 1 11 4 3 0 9 14 7 11 11
split_gain=4984.16 4316.32 3681.71 3574.72 99.8598 85.9552 63.9817 47.69 34.0192 30.1475 29.2365 26.4159 20.3179 15.0207
threshold=1.0000000180025095e-35 1.0000000180025095e-35 1.0000000180025095e-35 6.5000000000000009 10.500000000000002 7.5000000000000009 8.5000000000000018 1.0000000180025095e-35 1.0000000180025095e-35 1.0000000180025095e-35 1.5000000000000002 1.5000000000000002 3.5000000000000004 5.5000000000000009
decision_type=2 2 2 2 2 2 2 2 2 2 2 2 2 2
left_child=1 2 3 -1 -4 7 12 9 10 -2 -7 -10 -3 -8
right_child=5 6 4 -5 -6 8 13 -9 11 -11 -12 -13 -14 -15
leaf_value=0.0043003617991921586 0.05635741036396219 0.048281628480993828 0.052145988682610667 -0.0086458295112817173 0.084854793654137312 0.092538749250312663 0.062182808843451731 0.030760058008110394 0.058288962838488639 0.041914166638538669 0.065917906620411512 0.026838171307599985 0.058587138422674191 0.086718229662555643
leaf_weight=100330.58337579668 1332.9341291040182 624.03727436065674 2540.9307729564607 113800.55803109705 256.94282793626189 112.40022218227386 85.781738102436066 294.43466594815254 300.85342352092266 495.63878226280212 1251.6971108540893 85.805596582591534 2047.621293887496 228.65585866570473
leaf_count=256541 897 454 2171 594713 57 20 39 175 166 277 1290 67 1798 63
internal_value=-2.31553e-05 -0.0010135 -0.00183535 -0.00257993 0.0551498 0.056199 0.0586909 0.0494354 0.0644007 0.0524425 0.0681114 0.0513095 0.05618 0.0800247
internal_weight=223789 219915 216929 214131 2797.87 3873.76 2986.1 2123.01 1750.76 1828.57 1364.1 386.659 2671.66 314.438
internal_count=858728 855836 853482 851254 2228 2892 2354 1349 1543 1174 1310 233 2252 102
is_linear=0
shrinkage=0.05


Tree=40
num_leaves=15
num_cat=0
split_feature=6 8 3 11 1 11 11 11 11 11 14 0 9 11
split_gain=4719.55 3897.75 3523.87 3537.13 73.0394 62.7407 56.2375 41.8999 66.0965 42.4627 30.0945 23.1399 22.9723 16.4703
threshold=1.0000000180025095e-35 1.0000000180025095e-35 1.0000000180025095e-35 20.500000000000004 1.0000000180025095e-35 6.5000000000000009 7.5000000000000009 16.500000000000004 11.500000000000002 18.500000000000004 1.5000000000000002 1.0000000180025095e-35 1.0000000180025095e-35 19.500000000000004
decision_type=2 2 2 2 2 2 2 2 2 2 2 2 2 2
left_child=1 2 3 -1 7 -4 12 8 -2 -9 -8 -6 -3 -13
right_child=4 6 5 -5 11 -7 10 9 -10 -11 -12 13 -14 -15
leaf_value=-0.0058018351711094478 0.054636150279133558 0.053936677977034421 0.046293773102556973 0.0099802272609762852 0.049404814710551824 0.061154571113673076 0.089041434891623389 0.084821888805645965 -0.013547910812407605 0.060767713720036448 0.062398982220191274 0.036740723181895141 0.03941075111990338 0.0087373460107185354
leaf_weight=169046.31794454157 1859.5803781598806 1230.2296977043152 1454.0757416188717 44941.337880030274 395.78087298572063 1388.4017854146659 116.64477916061878 225.2304582670331 36.235444817692041 989.54627369344234 1160.7393651232123 325.30284894257784 349.50575560331345 62.614051729440689
leaf_count=741399 1475 841 977 109569 230 1451 24 151 295 614 1265 181 208 48
internal_value=-2.0975e-05 -0.00098817 -0.00175267 -0.00248731 0.0545411 0.0535525 0.0570309 0.0579781 0.0533329 0.0652276 0.0648318 0.040899 0.0507229 0.0322207
internal_weight=223582 219687 216830 213988 3894.29 2842.48 2857.12 3110.59 1895.82 1214.78 1277.38 783.698 1579.74 387.917
internal_count=858728 855734 853396 850968 2994 2428 2338 2535 1770 765 1289 459 1049 229
is_linear=0
shrinkage=0.05


Tree=41
num_leaves=15
num_cat=0
split_feature=10 2 6 11 3 1 0 5 6 11 11 3 5 14
split_gain=4491.88 3649.76 3389.4 3365.08 72.9026 69.7066 36.0221 31.8838 24.7234 23.2446 21.2565 15.044 13.247 12.1416
threshold=1.0000000180025095e-35 1.0000000180025095e-35 1.0000000180025095e-35 8.5000000000000018 1.0000000180025095e-35 1.0000000180025095e-35 1.0000000180025095e-35 10.500000000000002 15.500000000000002 4.5000000000000009 1.5000000000000002 1.0000000180025095e-35 1.0000000180025095e-35 162.50000000000003
decision_type=2 2 2 2 2 2 2 2 2 2 2 2 2 2
left_child=1 2 3 -1 6 7 -3 10 -4 -6 -2 12 -7 -13
right_child=5 4 8 -5 9 11 -8 -9 -10 -11 -12 13 -14 -15
leaf_value=0.0031948440249221634 0.044842468321692669 0.059718533990745296 0.055299467855730915 -0.0094272626857576231 0.029668183557025874 0.051704391893210744 0.042379651082320537 0.089892826338645829 0.083580097685688554 0.046466383737709019 0.059109103584782441 0.026405772062058699 0.035422702033901451 0.061755112089057124
leaf_weight=119368.39915421605 291.3804831802845 1939.0695762261748 2417.1578654274344 94694.040706895292 332.81871962547302 361.658218793571 354.27710480988026 78.708855345845222 79.832912154495716 540.19593135267496 2511.4222105145454 197.62392976880074 190.85565631091595 27.695680856704712
leaf_count=327276 240 1725 2213 523828 206 212 240 10 25 385 2123 125 112 8
internal_value=-1.89645e-05 -0.000933958 -0.00171317 -0.00238875 0.052359 0.0549219 0.05704 0.0585073 0.0562036 0.0400624 0.0576259 0.0416396 0.0460802 0.0307508
internal_weight=223385 219726 216559 214062 3166.36 3659.35 2293.35 2881.51 2496.99 873.015 2802.8 777.833 552.514 225.32
internal_count=858728 855898 853342 851104 2556 2830 1965 2373 2238 591 2363 457 324 133
is_linear=0
shrinkage=0.05


Tree=42
num_leaves=15
num_cat=0
split_feature=7 9 1 11 1 9 11 11 9 3 1 14 1 8
split_gain=4234.56 3648.58 3208.74 3260.28 102.47 71.6042 61.9335 49.2163 49.0364 30.1747 23.9226 22.3495 22.1759 19.8567
threshold=1.0000000180025095e-35 1.0000000180025095e-35 1.0000000180025095e-35 20.500000000000004 10.500000000000002 1.0000000180025095e-35 7.5000000000000009 7.5000000000000009 4.5000000000000009 1.0000000180025095e-35 5.5000000000000009 130.50000000000003 1.0000000180025095e-35 5.5000000000000009
decision_type=2 2 2 2 2 2 2 2 2 2 2 2 2 2
left_child=1 2 3 -1 -4 7 12 9 -8 -2 11 -7 -3 -9
right_child=5 6 4 -5 -6 10 8 13 -10 -11 -12 -13 -14 -15
leaf_value=-0.0055326963799537257 0.052932032935290453 0.050383921870529251 0.04934823617678729 0.0096420827807002056 0.082833339293081981 0.046756098860787833 0.056556476990606556 0.061850842722426386 0.078546590113907716 0.030364170927792023 0.011369091227867018 0.026121459149649986 0.035267403050305235 0.084973043176437224
leaf_weight=169022.35025482252 1235.8116658776999 1332.4535159468651 2450.5781543850899 44771.388385057449 251.96380188316107 735.40462475270033 995.58006587252021 1275.5067052282393 340.12415605410933 168.28578588366508 63.732863068580627 159.72539126127958 296.62486456334591 100.14114204794168
leaf_count=741618 859 959 2163 109534 59 415 1165 1329 167 107 46 113 174 20
internal_value=-1.71767e-05 -0.000916061 -0.0016705 -0.00235489 0.0524701 0.0527485 0.0541751 0.0568125 0.062156 0.0502272 0.0409668 0.0430741 0.0476315 0.063534
internal_weight=223200 219461 216496 213794 2702.54 3738.61 2964.78 2779.75 1335.7 1404.1 958.863 895.13 1629.08 1375.65
internal_count=858728 855839 853374 851152 2222 2889 2465 2315 1332 966 574 528 1133 1349
is_linear=0
shrinkage=0.05


Tree=43
num_leaves=15
num_cat=0
split_feature=5 8 3 11 1 11 11 11 11 14 3 10 0 11
split_gain=4069.89 3516.52 3217.98 3279.04 99.6205 66.2448 64.8553 53.724 72.3222 34.7202 32.7823 24.3893 20.8982 26.4667
threshold=1.0000000180025095e-35 1.0000000180025095e-35 1.0000000180025095e-35 8.5000000000000018 1.0000000180025095e-35 7.5000000000000009 7.5000000000000009 15.500000000000002 9.5000000000000018 64.500000000000014 1.0000000180025095e-35 15.500000000000002 1.5000000000000002 2.5000000000000004
decision_type=2 2 2 2 2 2 2 2 2 2 2 2 2 2
left_child=1 2 3 -1 7 -4 10 8 -2 -8 -3 -9 13 -6
right_child=4 6 5 -5 12 -7 9 11 -10 -11 -12 -13 -14 -15
leaf_value=0.003189263177418065 0.051828058446941744 0.049569494258795366 0.044439935225025491 -0.0092845785556085799 0.017870142530484218 0.05983148760899154 0.070682811440043167 0.062715954418345182 -0.018616586649340832 0.054579553594901936 0.025379728024248663 0.099676229205163489 0.024824588908025736 0.04710037674704682
leaf_weight=119068.06016594917 1795.9968591481447 1362.0535851418972 1537.6289132088423 94498.477741871029 94.747803568840027 1281.8883369453251 632.80386532843113 1092.4312097802758 37.189191423356533 710.62498689070344 156.11387085914612 46.535728454589844 280.68572866916656 423.97870211303234
leaf_count=327188 1280 955 1083 523779 66 1335 507 871 351 799 99 1 169 245
internal_value=-1.54456e-05 -0.000901343 -0.00162954 -0.00233014 0.0514833 0.0514377 0.0541629 0.0556977 0.050399 0.0621648 0.047082 0.0642261 0.0358146 0.0417613
internal_weight=223019 219248 216386 213567 3771.57 2819.52 2861.6 2972.15 1833.19 1343.43 1518.17 1138.97 799.412 518.727
internal_count=858728 855745 853385 850967 2983 2418 2360 2503 1631 1306 1054 872 480 311
is_linear=0
shrinkage=0.05


Tree=44
num_leaves=15
num_cat=0
split_feature=4 0 11 11 12 8 4 1 0 0 5 11 6 11
split_gain=3861.3 3402.11 3056.57 11172 2001.31 89.8649 70.3509 68.3211 53.7636 30.4096 27.3904 25.19 23.6023 18.4439
threshold=1.0000000180025095e-35 1.0000000180025095e-35 20.500000000000004 8.5000000000000018 4.5000000000000009 1.0000000180025095e-35 8.5000000000000018 1.0000000180025095e-35 1.5000000000000002 1.0000000180025095e-35 1.5000000000000002 15.500000000000002 1.0000000180025095e-35 5.5000000000000009
decision_type=2 2 2 2 2 2 2 2 2 2 2 2 2 2
left_child=1 2 3 -1 -4 6 12 8 -3 11 -9 -7 -2 -8
right_child=5 7 4 -5 -6 9 13 10 -10 -11 -12 -13 -14 -15
leaf_value=0.0035655123744705061 0.054207390984086237 0.046292290946672823 0.015763536221540819 -0.024510183851987805 -0.0091024244572111175 0.035794412852431727 0.057164218928786703 0.043027762202727013 0.062231079799265759 0.024268524505458453 0.01763903453772037 0.058598020413233268 0.042239403483522217 0.084969629253898615
leaf_weight=120681.77716300637 2070.1964057832956 871.78874211758375 34601.272803425789 50160.728066161275 10561.749731868505 358.99389708787203 82.018974453210831 735.38338203728199 1345.8523301482201 331.9486116245389 124.16963617503643 182.75691248476505 514.30037112534046 218.57296707481146
leaf_count=328346 1929 972 78242 415201 31628 242 39 456 901 199 87 100 323 63
internal_value=-1.38796e-05 -0.000875981 -0.00161966 -0.00467774 0.00994842 0.0502341 0.0544886 0.051327 0.0559653 0.0361853 0.0393601 0.0434871 0.0518258 0.0773827
internal_weight=222842 219083 216006 170843 45163 3758.79 2885.09 3077.19 2217.64 873.699 859.553 541.751 2584.5 300.592
internal_count=858728 855833 853417 743547 109870 2895 2354 2416 1873 541 543 342 2252 102
is_linear=0
shrinkage=0.05


Tree=45
num_leaves=15
num_cat=0
split_feature=10 4 11 11 12 1 4 6 5 9 8 3 5 14
split_gain=3685.57 3035.6 2840.54 10080.6 1840.79 84.6284 72.1166 34.2973 33.1974 31.287 24.0314 16.903 14.7729 12.4109
threshold=1.0000000180025095e-35 1.0000000180025095e-35 20.500000000000004 8.5000000000000018 4.5000000000000009 1.0000000180025095e-35 8.5000000000000018 3.5000000000000004 10.500000000000002 1.0000000180025095e-35 1.0000000180025095e-35 1.0000000180025095e-35 1.0000000180025095e-35 162.50000000000003
decision_type=2 2 2 2 2 2 2 2 2 2 2 2 2 2
left_child=1 2 3 -1 -4 8 7 -3 9 -2 -8 12 -7 -13
right_child=5 6 4 -5 -6 11 10 -9 -10 -11 -12 13 -14 -15
leaf_value=0.0033684807323682655 0.056775811038590779 0.049664470838233929 0.015195559989930371 -0.023308765227124034 -0.0086165689906820015 0.046558539809901912 0.07998459908518471 0.022955354013314101 0.087890411859123621 0.044378798783344851 0.030226176563697527 0.019693460519242686 0.029138357395823419 0.056273393155624241
leaf_weight=120804.53932861984 2038.204043135047 2385.501153036952 34720.877447813749 50096.308269117028 10592.027998626232 350.58508560806513 250.82162497192621 126.570865675807 72.815124854445457 678.32367227226496 26.864200361073017 194.01360723376274 186.41600973159075 26.33515727519989
leaf_count=328431 1949 2176 78270 415171 31653 212 84 93 10 414 20 125 112 8
internal_value=-1.29593e-05 -0.000831791 -0.00150046 -0.00445144 0.0096294 0.0505488 0.0509915 0.0483187 0.0545733 0.0536802 0.0751708 0.0357264 0.0405113 0.0240653
internal_weight=222550 219004 216214 170901 45312.9 3546.69 2789.76 2512.07 2789.34 2716.53 277.686 757.35 537.001 220.349
internal_count=858728 855898 853525 743602 109923 2830 2373 2269 2373 2363 104 457 324 133
is_linear=0
shrinkage=0.05


Tree=46
num_leaves=15
num_cat=0
split_feature=7 5 2 0 9 3 1 11 5 3 0 6 8 0
split_gain=3504.9 3074.71 2956.99 2675.34 89.972 87.6842 73.1155 54.9059 39.9975 34.4947 27.3456 21.5823 19.512 17.3559
threshold=1.0000000180025095e-35 1.0000000180025095e-35 1.0000000180025095e-35 1.0000000180025095e-35 1.0000000180025095e-35 1.0000000180025095e-35 1.0000000180025095e-35 7.5000000000000009 10.500000000000002 1.0000000180025095e-35 1.0000000180025095e-35 7.5000000000000009 4.5000000000000009 1.0000000180025095e-35
decision_type=2 2 2 2 2 2 2 2 2 2 2 2 2 2
left_child=1 2 3 -1 7 -4 8 9 -3 -2 -6 -9 -12 -8
right_child=4 6 5 -5 10 -7 13 11 -10 -11 12 -13 -14 -15
leaf_value=-0.0027097875104540093 0.04920185202586036 0.053748232337801696 0.055209937812333999 0.054320858492431991 0.041998477756205091 0.034435372791454026 0.042766369928258961 0.060932501206935698 0.081388321273030723 0.02486141213340121 0.028614266949014172 -0.03699670774899267 -0.0080099043455131285 0.023409373977687224
leaf_weight=211082.77608005702 1206.1473824381828 2141.5305493623018 2068.1006011739373 2076.6087755635381 578.27742364630103 673.27936697006226 246.77274212986231 1326.1643368043005 139.40664255619049 165.53440055251122 314.86894775927067 5.6501510739326468 41.115751281380653 218.18773639947176
leaf_count=849276 859 2071 1852 1814 359 483 162 1342 47 107 181 7 34 134
internal_value=-1.20856e-05 -0.000821925 -0.0014906 -0.00215419 0.0486631 0.0501077 0.0517538 0.0532857 0.0554375 0.0462645 0.0352869 0.060517 0.0243842 0.0336829
internal_weight=222284 218647 215901 213159 3637.76 2741.38 2745.9 2703.5 2280.94 1371.68 934.262 1331.81 355.985 464.96
internal_count=858728 855839 853425 851090 2889 2335 2414 2315 2118 966 574 1349 215 296
is_linear=0
shrinkage=0.05


Tree=47
num_leaves=15
num_cat=0
split_feature=6 1 8 11 1 0 11 4 11 11 10 1 11 8
split_gain=3269.34 2924.36 2736.75 2651.61 108.65 105.345 89.3989 53.9061 50.9058 36.7361 30.3552 29.6298 16.782 11.1437
threshold=1.0000000180025095e-35 1.0000000180025095e-35 1.0000000180025095e-35 20.500000000000004 21.500000000000004 1.0000000180025095e-35 6.5000000000000009 1.0000000180025095e-35 7.5000000000000009 16.500000000000004 9.5000000000000018 1.0000000180025095e-35 19.500000000000004 1.0000000180025095e-35
decision_type=2 2 2 2 2 2 2 2 2 2 2 2 2 2
left_child=1 2 3 -1 6 7 -3 9 -4 -2 -9 13 -13 -7
right_child=5 4 8 -5 -6 11 -8 10 -10 -11 -12 12 -14 -15
leaf_value=-0.0049530966208732458 0.049670970848053941 0.036701356911643092 0.046068374501205732 0.0087445538422402502 0.092266535816991457 0.045992284280952311 0.054076430751504194 0.034391480506911327 0.061031670043327893 0.062727416406405653 0.087301129904091904 0.025728728925128643 -0.0026838046629269452 0.031332277157923437
leaf_weight=168328.94067789242 1369.1379584409297 1458.4162384867668 1266.4801034033298 44716.941560804844 129.75241376459599 288.89718855917454 1503.5464506968856 509.95720335841179 1031.2052463404834 888.27294573187828 28.630292952060699 312.2252659574151 62.349695205688477 235.13399505615234
leaf_count=741631 1464 993 903 109559 15 181 1466 353 1167 636 3 181 48 128
internal_value=-1.05866e-05 -0.000799481 -0.00149268 -0.00207805 0.0474831 0.046631 0.0455213 0.0514175 0.0527839 0.0548086 0.0372041 0.0317382 0.0209993 0.0394143
internal_weight=222130 218435 215344 213046 3091.72 3694.6 2961.96 2796 2297.69 2257.41 538.587 898.606 374.575 524.031
internal_count=858728 855734 853260 851190 2474 2994 2459 2456 2070 2100 356 538 229 309
is_linear=0
shrinkage=0.05


Tree=48
num_leaves=15
num_cat=0
split_feature=9 7 11 11 11 8 11 1 9 3 0 11 6 14
split_gain=3115.58 2853.03 2619.84 9587.44 2052.99 114.005 52.3975 49.977 54.2629 34.7382 30.4397 25.5944 20.1147 17.7798
threshold=1.0000000180025095e-35 1.0000000180025095e-35 6.5000000000000009 17.500000000000004 1.5000000000000002 1.0000000180025095e-35 7.5000000000000009 1.0000000180025095e-35 3.5000000000000004 1.0000000180025095e-35 1.0000000180025095e-35 11.500000000000002 7.5000000000000009 76.500000000000014
decision_type=2 2 2 2 2 2 2 2 2 2 2 2 2 2
left_child=1 2 4 -4 -1 7 9 8 -2 -3 11 -7 -8 -12
right_child=5 6 3 -5 -6 10 12 -9 -10 -11 13 -13 -14 -15
leaf_value=-0.0080318017480955524 0.048380769565659176 0.046836789881066446 -0.025534055013445522 0.0044796098011871312 0.0084907693240211021 0.029690774209185356 0.058325708618952934 0.035327786404063984 0.065438659413454711 0.02232046559698439 0.030272370937166001 0.051524771380209 -0.036192755391203757 0.0089035728438533659
leaf_weight=24933.910484313965 1688.8610431887209 1189.460538238287 42217.167200978845 71961.593025334179 76430.476332142949 378.43473378568888 1293.7047673203051 477.01016186177731 644.00266774371266 164.46821516752243 191.36999918520451 207.98773363977671 5.6534557640552512 198.12107069790363
leaf_count=72159 1750 859 380615 215392 185208 245 1342 288 372 107 102 144 7 138
internal_value=-9.37287e-06 -0.000789624 -0.00142397 -0.00661783 0.0044265 0.0449609 0.050742 0.0500744 0.0530897 0.0438587 0.0302381 0.0374347 0.0579145 0.0194028
internal_weight=221982 218196 215543 114179 101364 3785.79 2653.29 2809.87 2332.86 1353.93 975.914 586.422 1299.36 389.491
internal_count=858728 855689 853374 596007 257367 3039 2315 2410 2122 966 629 389 1349 240
is_linear=0
shrinkage=0.05


Tree=49
num_leaves=15
num_cat=0
split_feature=10 3 5 11 1 2 11 9 8 10 11 1 3 5
split_gain=2986.74 2608.11 2535.8 2501.37 100.401 93.0174 62.5756 47.0607 42.5155 37.622 34.3244 28.4714 15.9448 14.9327
threshold=1.0000000180025095e-35 1.0000000180025095e-35 1.0000000180025095e-35 8.5000000000000018 1.0000000180025095e-35 1.0000000180025095e-35 7.5000000000000009 1.0000000180025095e-35 1.0000000180025095e-35 8.5000000000000018 15.500000000000002 3.5000000000000004 1.0000000180025095e-35 1.0000000180025095e-35
decision_type=2 2 2 2 2 2 2 2 2 2 2 2 2 2
left_child=1 2 3 -1 7 6 -3 9 -4 -2 -9 -7 13 -6
right_child=4 5 8 -5 12 11 -8 10 -10 -11 -12 -13 -14 -15
leaf_value=0.0028522061372240788 0.052455479149582887 0.042660344503505018 0.052945864873004615 -0.0080644969665273174 0.04074960229308474 0.034667475522527282 0.059490083956586427 0.030173823871297835 0.03349154772007517 0.078313794310680196 0.053348489267766377 0.0084058156159350361 0.018427367272237181 0.02303477349939189
leaf_weight=119009.60390048474 1885.6719915121794 1196.9319937825203 2025.365375507623 93854.329003982246 339.76056145876646 721.33755651861429 1025.5609325580299 412.9897498562932 326.04711539670825 152.00236742570996 260.59745391458273 120.43738318234682 217.11398630589247 183.05407797545195
leaf_count=327239 1884 897 1980 523788 212 507 1162 278 241 71 140 84 133 112
internal_value=-8.82915e-06 -0.000738511 -0.00139067 -0.0019611 0.0461418 0.0450651 0.0504264 0.050597 0.0502483 0.0543844 0.0391396 0.0309101 0.0298171 0.0345471
internal_weight=221731 218280 215215 212864 3451.19 3064.27 2222.49 2711.26 2351.41 2037.67 673.587 841.775 739.929 522.815
internal_count=858728 855898 853248 851027 2830 2650 2059 2373 2221 1955 418 591 457 324
is_linear=0
shrinkage=0.05


Tree=50
num_leaves=15
num_cat=0
split_feature=6 4 0 11 0 4 3 4 8 11 10 1 11 11
split_gain=2768.56 2596.8 2479.52 2354.42 110.115 75.4386 68.5229 60.6586 45.905 36.5328 29.0224 27.1393 20.4455 15.8267
threshold=1.0000000180025095e-35 1.0000000180025095e-35 1.0000000180025095e-35 8.5000000000000018 1.0000000180025095e-35 8.5000000000000018 1.0000000180025095e-35 1.0000000180025095e-35 1.0000000180025095e-35 16.500000000000004 9.5000000000000018 1.0000000180025095e-35 5.5000000000000009 19.500000000000004
decision_type=2 2 2 2 2 2 2 2 2 2 2 2 2 2
left_child=1 2 3 -1 7 8 -4 9 -3 -2 -9 -6 -7 -13
right_child=4 5 6 -5 11 12 -8 10 -10 -11 -12 13 -14 -15
leaf_value=0.0027420523663288028 0.04678303420941151 0.048617632688676277 0.051690268441215492 -0.0078536345526647334 0.035453252433809833 0.047795627026969316 0.027977478112616971 0.030411948952194512 0.030360779941681345 0.059960013405864793 0.084562932323245243 0.022354681354489897 0.080960866436684362 -0.0052607284161397816
leaf_weight=119244.74125380814 1345.4953137077391 1989.8278069794178 2131.366108044982 93567.032587997615 514.72777370363474 59.9643714427948 355.46676987409592 502.5251040160656 416.35185214132071 863.63685286790133 26.024863451719284 309.41098279505968 206.49391383677721 62.335912704467773
leaf_count=327356 1464 1929 1857 523961 309 33 243 353 289 636 3 181 66 48
internal_value=-7.82235e-06 -0.000728466 -0.00133652 -0.00191656 0.0433345 0.048254 0.0483008 0.048294 0.0454586 0.0519344 0.0330782 0.0280184 0.0734973 0.017724
internal_weight=221595 217971 215299 212812 3624.16 2672.64 2486.83 2737.68 2406.18 2209.13 528.55 886.475 266.458 371.747
internal_count=858728 855734 853417 851317 2994 2317 2100 2456 2218 2100 356 538 99 229
is_linear=0
shrinkage=0.05


Tree=51
num_leaves=15
num_cat=0
split_feature=10 2 11 11 12 0 1 3 9 10 11 1 3 0
split_gain=2619.73 2458.15 2441.73 8292.91 1678.17 110.378 98.8299 74.7797 49.0209 37.9239 32.7929 15.9256 14.8514 14.3109
threshold=1.0000000180025095e-35 1.0000000180025095e-35 20.500000000000004 9.5000000000000018 4.5000000000000009 1.0000000180025095e-35 1.0000000180025095e-35 1.0000000180025095e-35 1.0000000180025095e-35 8.5000000000000018 15.500000000000002 4.5000000000000009 1.0000000180025095e-35 1.0000000180025095e-35
decision_type=2 2 2 2 2 2 2 2 2 2 2 2 2 2
left_child=1 2 3 -1 -4 7 8 -3 9 -2 -10 -7 13 -8
right_child=6 5 4 -5 -6 11 12 -9 10 -11 -12 -13 -14 -15
leaf_value=0.0024622074020222329 0.049991495528646561 0.053805777694075456 0.014352988771538148 -0.022765082815086046 -0.0084485221967695 0.028724122973110361 0.039587883660344145 0.033066476946697752 0.027491894880363132 0.076408677725190749 0.050323876077493716 0.0072674738612460979 0.016293538886432781 0.022912670563841039
leaf_weight=126026.88699568063 1854.3247889317572 1844.8488448448479 34562.119170084596 43932.759159766138 10527.453793779016 497.94198921322823 278.90548149496317 568.60979111865163 409.67287487536669 146.59655810147524 255.2515065073967 104.65542928874493 216.23699129372835 238.85614339262247
leaf_count=362966 1884 1725 78254 380494 31628 331 178 427 278 71 140 73 133 146
internal_value=-6.88273e-06 -0.000685902 -0.00131458 -0.00405878 0.00902932 0.0441401 0.0435452 0.0489196 0.0480184 0.0519269 0.0362566 0.0249977 0.0272989 0.0318952
internal_weight=221465 218065 215049 169960 45089.6 3016.06 3399.84 2413.46 2665.85 2000.92 664.924 602.597 733.999 517.762
internal_count=858728 855898 853342 743460 109882 2556 2830 2152 2373 1955 418 404 457 324
is_linear=0
shrinkage=0.05


Tree=52
num_leaves=15
num_cat=0
split_feature=9 8 3 11 8 2 11 1 9 3 14 0 11 3
split_gain=2543.27 2477.12 2267.68 2285.63 125.19 108.296 65.3722 56.8997 53.6546 44.7332 38.3585 31.6978 26.7273 18.2231
threshold=1.0000000180025095e-35 1.0000000180025095e-35 1.0000000180025095e-35 20.500000000000004 1.0000000180025095e-35 1.0000000180025095e-35 7.5000000000000009 1.0000000180025095e-35 3.5000000000000004 1.0000000180025095e-35 1.5000000000000002 1.5000000000000002 10.500000000000002 1.0000000180025095e-35
decision_type=2 2 2 2 2 2 2 2 2 2 2 2 2 2
left_child=1 2 3 -1 7 -4 9 8 -2 -3 -8 12 -6 -9
right_child=4 6 5 -5 11 -7 10 13 -10 -11 -12 -13 -14 -15
leaf_value=-0.0045449224391339834 0.04502545903920141 0.04375943979882739 0.05020929740271568 0.0081844981579140604 0.024089236826650689 0.02683611236527186 0.085315647645935522 0.03723994956812935 0.062221443416194448 0.01492453425199574 0.053783358379394276 0.011197767448807558 0.044839007315006701 0.015948525552616024
leaf_weight=167627.10408582911 1654.5021313726902 1228.2567960619926 2017.021495886147 44658.553607150912 448.3120469301939 657.0109416693449 105.79104033112526 322.90815953165293 624.97109244018793 151.0438577234745 1092.0124748274684 275.72023723274469 237.35722608119249 145.90685795992613
leaf_count=741415 1750 897 1930 109586 284 495 24 198 372 94 1248 176 169 90
internal_value=-6.40216e-06 -0.000706454 -0.00129066 -0.00186703 0.0410449 0.0444665 0.0480228 0.0464774 0.0497401 0.0406018 0.0565683 0.025515 0.0312722 0.0306135
internal_weight=221246 217537 214960 212286 3709.68 2674.03 2577.1 2748.29 2279.47 1379.3 1197.8 961.39 685.669 468.815
internal_count=858728 855689 853426 851001 3039 2425 2263 2410 2122 991 1272 629 453 288
is_linear=0
shrinkage=0.05


Tree=53
num_leaves=15
num_cat=0
split_feature=7 1 5 3 3 9 1 11 5 3 8 6 14 2
split_gain=2432.8 2278.8 2284.23 2175.47 126.412 120.072 118.878 56.9974 42.604 42.386 27.3891 19.991 17.9445 16.0016
threshold=1.0000000180025095e-35 1.0000000180025095e-35 1.0000000180025095e-35 1.0000000180025095e-35 1.0000000180025095e-35 1.0000000180025095e-35 10.500000000000002 7.5000000000000009 10.500000000000002 1.0000000180025095e-35 1.0000000180025095e-35 7.5000000000000009 130.50000000000003 1.5000000000000002
decision_type=2 2 2 2 2 2 2 2 2 2 2 2 2 2
left_child=1 2 3 -1 6 7 -3 9 -4 -2 12 -9 -7 -12
right_child=5 4 8 -5 -6 10 -8 11 -10 -11 13 -13 -14 -15
leaf_value=-0.0023257516893272719 0.042956937211537892 0.04406248381221891 0.04781901081017445 0.047171967659008884 0.022183137517266166 0.037307551141645516 0.083662965032277187 0.054885560843491624 0.077522664692469948 0.015683456574219243 0.021373000096980038 -0.038858887215125947 0.011054921020042081 -0.0023814185885871276
leaf_weight=210154.33117924631 1166.5305032879114 2214.7163836285472 2058.5868646875024 2243.5437098257244 622.12495423108339 431.6778916195035 207.24743074178696 1257.0086255930364 128.23754887655377 162.27277186512947 301.51388356462121 5.7128416597843161 76.649689584970474 92.688869774341583
leaf_count=849107 859 2046 2071 2101 422 262 45 1342 47 107 184 7 65 63
internal_value=-5.54923e-06 -0.000670077 -0.00127946 -0.00180291 0.042287 0.0413848 0.0474511 0.0468547 0.0495609 0.0396263 0.0256786 0.0544614 0.033349 0.0157876
internal_weight=221123 217629 214585 212398 3044.09 3494.06 2421.96 2591.52 2186.82 1328.8 902.53 1262.72 508.328 394.203
internal_count=858728 855839 853326 851208 2513 2889 2091 2315 2118 966 574 1349 327 247
is_linear=0
shrinkage=0.05


Tree=54
num_leaves=15
num_cat=0
split_feature=6 4 8 11 0 4 4 8 11 11 11 1 11 11
split_gain=2255.39 2185.3 2149.46 2055.17 118.812 78.4084 70.6079 54.6884 52.4287 35.9003 28.6988 25.3617 22.0701 14.8388
threshold=1.0000000180025095e-35 1.0000000180025095e-35 1.0000000180025095e-35 8.5000000000000018 1.0000000180025095e-35 8.5000000000000018 1.0000000180025095e-35 1.0000000180025095e-35 7.5000000000000009 16.500000000000004 3.5000000000000004 1.0000000180025095e-35 5.5000000000000009 19.500000000000004
decision_type=2 2 2 2 2 2 2 2 2 2 2 2 2 2
left_child=1 2 3 -1 6 7 9 -3 -4 -2 -8 -6 -7 -13
right_child=4 5 8 -5 11 12 10 -9 -10 -11 -12 13 -14 -15
leaf_value=0.0026403121782045875 0.043553590018657183 0.045367894142848149 0.040915029791516566 -0.0072638155976938986 0.030758634507719179 0.043983472634287035 0.0061497387319194513 0.025278613244463816 0.056432251872511358 0.056772184157086708 0.034432679436421934 0.018047119943753687 0.078833359430370953 -0.0086931902932891013
leaf_weight=119200.4760357663 1323.2607244849205 1951.3518334254622 1180.4862172305584 93436.712670218199 506.01341027021408 58.828561514616013 115.32672521471977 409.94033065438271 1010.1685907877982 839.53007316589355 403.5175810828805 306.34578451514244 199.46645138412714 62.458211719989777
leaf_count=327421 1464 1929 874 523965 309 33 86 289 1157 636 270 181 66 48
internal_value=-4.62984e-06 -0.0006506 -0.0012041 -0.00171174 0.0394911 0.0447412 0.0447108 0.0418802 0.0480704 0.0486846 0.0281461 0.0234906 0.070896 0.0135186
internal_weight=221004 217447 214828 212637 3556.45 2619.59 2681.64 2361.29 2190.65 2162.79 518.844 874.817 258.295 368.804
internal_count=858728 855734 853417 851386 2994 2317 2456 2218 2031 2100 356 538 99 229
is_linear=0
shrinkage=0.05


Tree=55
num_leaves=15
num_cat=0
split_feature=7 11 11 11 12 12 0 12 9 11 3 8 8 14
split_gain=2130.75 2080.61 7154.45 12028 1762.45 1477.61 248.903 226.864 119.121 56.3631 40.2055 27.0087 19.2616 16.6579
threshold=1.0000000180025095e-35 20.500000000000004 9.5000000000000018 17.500000000000004 1.0000000180025095e-35 4.5000000000000009 1.0000000180025095e-35 5.5000000000000009 1.0000000180025095e-35 7.5000000000000009 1.0000000180025095e-35 1.0000000180025095e-35 5.5000000000000009 130.50000000000003
decision_type=2 2 2 2 2 2 2 2 2 2 2 2 2 2
left_child=1 2 4 -4 -1 6 -3 -7 9 10 -2 13 -11 -10
right_child=8 5 3 -5 -6 7 -8 -9 11 12 -12 -13 -14 -15
leaf_value=-0.012732959944233641 0.040532885756447701 0.013352406483732537 -0.053307021706103366 0.00023810053385567737 0.0050759700207727559 -0.00073047851378904615 0.049140573556033483 -0.015363706146735266 0.034794991827350345 0.050497621911814207 0.013922710223605271 0.013449766932439792 0.07613282928815153 0.009449461461658093
