tree
version=v4
num_class=1
num_tree_per_iteration=1
label_index=0
max_feature_idx=15
objective=tweedie
feature_names=recent_h1 recent_h2 recent_h3 recent_h4 same_hour_d1 same_hour_d2 same_hour_d3 same_hour_d4 same_hour_wd_w1 same_hour_wd_w2 same_hour_wd_w3 hour weekday is_weekend horizon road_weight_osm
feature_infos=[0:96.5] [0:135] [0:35.25] [0:36.875] [0:22.5] [0:30.833333969116211] [0:34] [0:30.833333969116211] [0:44.25] [0:24] [0:79] [0:23] [0:6] [0:1] [0:168] [0.15000000596046448:0.89999997615814209]
tree_sizes=3447 3479 3484 3468 3478 3474 3506 3482 3490 3408 3482 3507 3486 3414 3499 3514 3500 3503 3411 3496 3520 3410 3420 3495 3406 3536 3476 3399 3409 3549 3414 3533 3507 3391 3525 3535 3536 3508 3524 3411 3526 3542 3504 3521 3539 3531 3521 3563 3498 3569 3491 3549 3558 3473 3546 3423 3562 3571 3531 3433 3412 3558 3528 3566 3572 3544 3555 3546 3574 3559 3524 3565 3580 3448 3528 3572 3556 3535 3549 3526 3538 3575 3579 3529 3546 3464 3571 3566 3569 3487 3460 3554 3490 3452 3580 3506 3515 3501 3474 3488 3462 3574 3501 3466 3466 3448 3583 3477 3478 3474 3453 3572 3530 3578 3469 3588 3467 3477 3573 3455 3564 3571 3470 3570 3474 3475 3581 3483 3565 3502 3566 3478 3556 3446 3554 3509 3517 3464 3546 3460 3506 3566 3486 3563 3514 3533 3547 3476 3497 3473 3574 3552 3471 3520 3586 3488 3482 3496 3501 3551 3516 3583 3489 3580 3470 3485 3484 3553 3539 3514 3571 3476 3553 3549 3481 3568 3582 3561 3510 3470 3557 3481 3477 3522 3474 3502 3537 3508 3486 3573 3568 3483 3590 3528 3472 3588 3490 3587 3563 3532 3503 3522 3519 3552 3585 3526 3567 3475 3524 3469 3528 3591 3563 3527 3508 3569 3559 3504 3562 3597 3535 3463 3460 3478 3556 3456 3530 3547 3517 3453 3567 3518 3538 3594 3458 3504 3539 3497 3501 3563 3527 3593 3445 3564 3526 3530 3535 3528 3505 3475 3502 3393 3531 3503 3454 3475 3486 3547 3490 3482 3531 3566 3418 3504 3431 3497 3375 3496 3528 3541 3555 3486 3522 3538 3478 3416 3442 3549 3545 3433 3525 3482 3411 3494 3560 3545 3511 3514 3487 3507 3547 3501 3549 3488 3392 3526 3512 3550 3566 3513 3529 3504 3545 3377 3437 3488 3549 3518 3491 3517 3459 3421 3404 3459 3503 3558 3548 3538 3540 3428 3509 3557 3410 3545 3468 3498 3540 3549 3515 3529 3431 3531 3488 3513 3469 3375 3538 3553 3511 3553 3289 3579 3204 3435 3457 3505 3379 3365 3551 3490 3587 3518 3370 3378 3510 3515 3380 3544 3542 3535 3554 3431 3387 3550 3529 3493 3371 3528 3381 3472 3507 3120 3425 3493 3534 3081 3431 3539 3529 3552 3380 3498 3517 3423 3388 3524 3553 3447 3534 3529 3505 2675 3485 3528 3536 3376 3486 3555 3517 3474 3554 3432 3507 3521 3377 3487 3382 3544 3532 3485 3359 3533 3409 3380 3400 3552 3384 3473 3493 3514 3515 3463 3509 3378 3537 3397 3496 3519 3542 3490 3514 3373 3545 3542 3496 3542 3571 3380 3541 3522 3516 3492 3378 3414 3384 3417 3565 3413 3483 3409 3395 3482 3460 3559 3514 3523 3530 3510 3467 3512 3499 3488 3474 3504 3483 3422 3516 3514 3473 3538 3395 3502 3559 3382 3385 3548 3517 3523 3545 3562 3472 3498 3487 3540 3460 3378 3528 3424 3384 3517 3484 3482 3508 3382 3494 3480 3390 3491 3510 3517

Tree=0
num_leaves=31
num_cat=0
split_feature=11 11 11 9 9 3 2 6 4 4 4 11 11 8 2 4 6 8 10 15 2 10 3 9 2 10 8 14 11 6
split_gain=95722 167860 50923.2 25657.7 13450.9 13359.2 9705.07 7749.35 6632.26 5910.84 5311.6 4965.97 3939.9 3604.35 3332.56 2306.05 2063.53 1256.08 901.119 736.994 735.352 700.604 569.893 504.184 445.186 402.02 361.981 292.184 249.247 244.002
threshold=6.5000000000000009 18.500000000000004 8.5000000000000018 0.18333333730697635 0.18333333730697635 1.0000000180025095e-35 0.20833333581686023 0.18333333730697635 0.20833333581686023 0.20833333581686023 0.14583333581686023 20.500000000000004 9.5000000000000018 0.20833333581686023 0.20833333581686023 0.20833333581686023 0.18333333730697635 0.20833333581686023 0.45833332836627966 0.25000000745058065 3.5625000000000004 0.70833334326744091 1.2083333134651186 2.6458333730697636 0.20833333581686023 9.9375000000000018 0.20833333581686023 121.50000000000001 12.500000000000002 3.8125000000000004
decision_type=2 2 2 2 2 2 2 2 2 2 2 2 2 2 2 2 2 2 2 2 2 2 2 2 2 2 2 2 2 2
left_child=3 2 14 5 6 7 10 9 12 13 11 -3 18 -1 15 17 -14 -2 -4 27 -8 26 -7 -6 -11 -12 -5 -10 -21 -9
right_child=1 4 8 21 23 22 20 29 19 24 25 -13 16 -15 -16 -17 -18 -19 -20 28 -22 -23 -24 -25 -26 -27 -28 -29 -30 -31
leaf_value=-0.73312963294119426 -0.74767772353146145 -0.74091906048695977 -0.76607792931952778 -0.69848495065227567 -0.6958502055378688 -0.70329713425545681 -0.69820772041805723 -0.70230141108931821 -0.68414248863643023 -0.70465641357456898 -0.69941092887643874 -0.72984251365611252 -0.78045841849597786 -0.70490209088873101 -0.70616732456672138 -0.7098404003720703 -0.73414491607106325 -0.71366581345013047 -0.70766317406967549 -0.72165359147015662 -0.67207862986415123 -0.68088341384314233 -0.68909616665309226 -0.67912456864296611 -0.68126087667953317 -0.64779376171820247 -0.68654442623008971 -0.75936810946416422 -0.75056163075467741 -0.6857456197552223
leaf_weight=253584.84619146585 53347.884918749332 53129.694916903973 18057.555096268654 7097.6462730765343 5317.3444110155106 5151.4577975273132 4314.2954607605934 6092.2042501568794 516.19560152292252 4461.1860394477844 3661.1967958807945 115878.35372316837 132750.14213371277 4136.7796138525009 1952.6241337060928 1540.1130710244179 871.14431709051132 994.47000795602798 239.97937202453613 696.66218453645706 1255.6487064957619 4944.6379426717758 5065.1407942175865 2353.6981328725815 879.47204834222794 140.89443445205688 3405.4715648889542 50.523756086826324 435.35712414979935 930.67941635847092
leaf_count=267565 73712 72269 35020 1983 1430 1517 1265 1839 223 1498 1181 115907 308315 1411 632 550 1162 401 121 558 171 722 1058 375 133 3 589 85 715 178
internal_value=-0.740774 -0.750389 -0.768676 -0.72785 -0.729606 -0.729925 -0.731279 -0.731199 -0.777709 -0.732029 -0.732536 -0.733325 -0.778368 -0.732676 -0.744682 -0.746029 -0.780156 -0.747055 -0.76531 -0.718772 -0.692306 -0.690211 -0.696252 -0.690711 -0.700793 -0.697473 -0.694608 -0.690875 -0.732773 -0.700099
internal_weight=693253 397504 211453 295750 186051 280302 178380 270085 153618 263062 172810 169008 151919 257722 57835.1 55882.5 133621 54342.4 18297.5 1698.74 5569.94 15447.8 10216.6 7671.04 5340.66 3802.09 10503.1 566.719 1132.02 7022.88
internal_count=892588 614095 421494 278493 192601 275199 190796 272624 346199 270607 189360 188176 344618 268976 75295 74663 309477 74113 35141 1581 1436 3294 2575 1805 1631 1184 2572 308 1273 2017
is_linear=0
shrinkage=1


Tree=1
num_leaves=31
num_cat=0
split_feature=11 11 11 1 9 9 2 3 6 5 7 11 6 11 2 7 8 5 11 10 1 9 2 9 6 3 9 1 10 15
split_gain=90302.6 160877 50234.8 25606.2 12752.6 12626.6 9110.17 7347.11 5888.96 5831.24 5227.36 4899.86 4504.54 4105.24 3123.74 1873.86 1486.99 1451.66 1055.53 930.396 783.955 807.894 719.81 490.886 462.36 453.587 451.829 424.043 416.276 392.869
threshold=6.5000000000000009 18.500000000000004 8.5000000000000018 1.0000000180025095e-35 0.18333333730697635 0.18333333730697635 0.20833333581686023 1.0000000180025095e-35 0.18333333730697635 0.20833333581686023 0.20833333581686023 20.500000000000004 0.18333333730697635 9.5000000000000018 0.20833333581686023 0.14583333581686023 0.20833333581686023 0.20833333581686023 16.500000000000004 0.70833334326744091 1.8541666865348818 0.18333333730697635 3.5625000000000004 2.6458333730697636 1.0124999880790713 1.2083333134651186 0.43750000000000006 25.375000000000004 9.9375000000000018 0.25000000745058065
decision_type=2 2 2 2 2 2 2 2 2 2 2 2 2 2 2 2 2 2 2 2 2 2 2 2 2 2 2 2 2 2
left_child=3 2 14 4 7 6 10 9 13 12 11 -3 -1 19 15 17 -15 -2 26 -4 21 -5 -8 -7 -6 -9 -10 -22 -12 -20
right_child=1 5 8 20 24 23 22 25 18 -11 28 -13 -14 16 -16 -17 -18 -19 29 -21 27 -23 -24 -25 -26 -27 -28 -29 -30 -31
leaf_value=0.0072072017085405811 -0.0066272398957324839 -0.00038066689598731732 -0.024731684383099247 0.038554360084797894 0.040931224163485505 0.043396150991290336 0.041098862786619221 0.032447289721553266 -0.0096729844188787953 0.038648923441781828 0.040849899724796093 0.010628318243792354 0.037469833365081341 -0.03948979833436983 0.033378534883624578 0.030592524750824246 0.0010302985284362158 0.029928146786476269 0.071779544495489345 0.037087949335003173 0.056565791170040187 0.056853896487211321 0.066986921036007716 0.05989671260696653 0.057857652962989128 0.047758397585462117 0.035775395337649722 0.093106072811747487 0.094549377036492729 0.022118297169694951
leaf_weight=253887.99520009756 53446.33813342452 52903.571818053722 17855.369203031063 6607.4784289598465 8027.1792522668839 5339.0809312462807 4334.0072696208954 3843.1924656331539 795.54258346557617 5609.8946991860867 3663.0238511264324 116532.31944155693 4504.3664003014565 129292.42294567823 1963.5962390899658 1291.3030644655228 820.07382386922836 994.91228312253952 351.19960749149323 220.94526565074921 5553.1257497668266 3247.738295763731 1249.1684901416302 2349.9821556210518 1783.6869823038578 3208.0080388784409 260.49592965841293 303.47787174582481 134.47614765167236 244.22360932826996
leaf_count=267550 73775 72245 35051 1856 2188 1430 1265 1247 1114 1718 1131 115982 1456 308305 632 475 1183 413 66 88 946 497 171 375 264 762 142 9 2 250
internal_value=-3.55985e-06 -0.00941484 -0.0275865 0.0125006 0.0104156 0.0108059 0.00918711 0.00919927 -0.0367452 0.00839196 0.00797129 0.00719094 0.0077349 -0.0373731 -0.00380059 -0.00511113 -0.0392344 -0.0059586 0.0195816 -0.0239739 0.0497696 0.0445903 0.0469025 0.0484467 0.0440145 0.0394194 0.00155829 0.0584753 0.0427767 0.0514864
internal_weight=690618 394042 207536 296576 280864 186506 178817 271053 149840 264002 173233 169436 258392 148189 57696.1 55732.6 130112 54441.3 1651.46 18076.3 15711.8 9855.22 5583.18 7689.06 9810.87 7051.2 1056.04 5856.6 3797.5 595.423
internal_count=892588 614095 421494 278493 275185 192601 190796 272733 346199 270724 189360 188227 269006 344627 75295 74663 309488 74188 1572 35139 3308 2353 1436 1805 2452 2009 1256 955 1133 316
is_linear=0
shrinkage=0.03


Tree=2
num_leaves=31
num_cat=0
split_feature=11 11 11 9 0 3 2 5 0 6 6 4 11 11 4 2 6 11 10 0 4 0 3 2 6 8 7 9 5 2
split_gain=85189.6 154157 49530.8 22623.8 12567.5 11758.4 8007.75 6901.4 6503.21 4987.76 4973.46 4517.23 4353.05 4132.9 3017.55 2017.44 1612.7 1176.97 913.751 753.322 727.069 685.922 524.042 482.3 451.709 391.557 353.26 350.481 270.423 246.186
threshold=6.5000000000000009 18.500000000000004 8.5000000000000018 0.18333333730697635 0.18333333730697635 1.0000000180025095e-35 1.0000000180025095e-35 0.20833333581686023 0.18333333730697635 1.0000000180025095e-35 0.18333333730697635 0.20833333581686023 20.500000000000004 9.5000000000000018 0.20833333581686023 0.20833333581686023 0.64583334326744091 7.5000000000000009 0.45833332836627966 0.18333333730697635 0.20833333581686023 2.3125000000000004 1.2083333134651186 3.5625000000000004 2.9375000000000004 0.70833334326744091 0.85416665673255932 0.88749998807907116 0.88749998807907116 3.2916666269302373
decision_type=2 2 2 2 2 2 2 2 2 2 2 2 2 2 2 2 2 2 2 2 2 2 2 2 2 2 2 2 2 2
left_child=3 2 14 5 6 7 9 10 13 12 11 -1 -3 18 15 17 -15 -2 -4 26 25 -6 29 27 -11 -10 28 -8 -5 -7
right_child=1 4 8 19 21 22 23 -9 20 24 -12 -13 -14 16 -16 -17 -18 -19 -20 -21 -22 -23 -24 -25 -26 -27 -28 -29 -30 -31
leaf_value=0.007068311758689075 -0.0019899622286749206 -0.0001590069097982074 -0.024550898045389638 0.036738630968545502 0.040778213807676413 0.033466964324322813 0.038062729458291429 0.038483164978739631 -0.0010397888333492031 0.035201223678715067 0.036934756059774421 0.037401655826076768 0.010197478769650886 -0.039351358447459461 0.031799869006094522 0.029899043752705509 0.012166171183770464 -0.010897450642711108 0.02981427088630172 0.055541428031098176 0.048498170595449266 0.059189346130812476 0.048474738480365473 0.065141623297726936 0.058665780767630481 0.047637004493640576 0.053874002622700229 0.064297632715102138 0.052723801450600134 0.064740929169534001
leaf_weight=254816.46563568711 29944.805409044027 53131.874500840902 17519.768635302782 6438.2434954047203 5038.2277143895626 4966.9996357560158 3632.8417051434517 6941.8644430041313 865.5594063103199 2943.2348918616772 5305.1168037950993 4495.5747458338737 116870.81962895393 126175.8951369226 2076.7199309468269 1448.7897894382477 548.74446019530296 24092.676888376474 281.88234677910805 6132.3128901720047 611.7345030605793 2869.2669108211994 5089.5438067913055 950.59323635697365 990.81228148937225 178.54965767264366 1824.9984138309956 527.17634671926498 1126.3401261568069 237.96451216936111
leaf_count=267581 37549 72300 35020 1897 1359 1485 1124 1986 1190 1016 1631 1426 115977 308867 668 514 653 36564 132 922 244 441 1058 136 183 93 289 65 186 32
internal_value=-6.8929e-06 -0.0092162 -0.0272674 0.0120925 0.0104561 0.0101506 0.00882136 0.00895743 -0.0365493 0.00773368 0.00818271 0.00759434 0.00696071 -0.0372266 -0.00369552 -0.00502464 -0.0391282 -0.00596156 -0.0236883 0.0473521 0.0225541 0.0474658 0.0416204 0.0458307 0.0411251 0.00731902 0.0419981 0.0414027 0.0391258 0.0349095
internal_weight=688075 390700 203745 297375 186955 281854 179047 271559 146182 173937 264617 259312 170003 144526 57563 55486.3 126725 54037.5 17801.7 15521.9 1655.84 7907.49 10294.5 5110.61 3934.05 1044.11 9389.58 4160.02 7564.58 5204.96
internal_count=892588 614095 421494 278493 192601 275199 190801 272624 346199 189476 270638 269007 188277 344672 75295 74627 309520 74113 35152 3294 1527 1800 2575 1325 1199 1283 2372 1189 2083 1517
is_linear=0
shrinkage=0.03


Tree=3
num_leaves=31
num_cat=0
split_feature=11 11 11 1 0 6 3 4 3 7 5 11 4 11 4 6 3 5 10 1 0 0 0 10 1 3 4 0 6 14
split_gain=80359.4 147694 48812.6 23074.2 11786.2 10664.7 6509.4 6394.04 6184.8 5744.48 5561.91 4747.99 4508.55 4152.77 2828.19 1959.59 1780.6 1344 788.084 753.277 680.31 662.749 511.367 486.707 467.701 436.656 394.883 314.955 324.365 288.027
threshold=6.5000000000000009 18.500000000000004 8.5000000000000018 1.0000000180025095e-35 0.18333333730697635 0.18333333730697635 0.20833333581686023 0.20833333581686023 1.0000000180025095e-35 0.20833333581686023 0.20833333581686023 20.500000000000004 0.20833333581686023 9.5000000000000018 0.20833333581686023 0.18333333730697635 0.20833333581686023 0.20833333581686023 0.45833332836627966 1.8541666865348818 1.1458333134651186 2.3125000000000004 1.0000000180025095e-35 6.1250000000000009 25.375000000000004 1.2083333134651186 7.6250000000000009 0.70833334326744091 4.8125000000000009 98.500000000000014
decision_type=2 2 2 2 2 2 2 2 2 2 2 2 2 2 2 2 2 2 2 2 2 2 2 2 2 2 2 2 2 2
left_child=3 2 14 5 6 8 9 13 10 11 12 -3 -1 18 16 -15 17 -2 -4 22 26 -6 -5 -11 -21 -10 -9 28 29 -7
right_child=1 4 7 19 21 27 -8 20 25 23 -12 -13 -14 15 -16 -17 -18 -19 -20 24 -22 -23 -24 -25 -26 -27 -28 -29 -30 -31
leaf_value=0.0067135987841480923 -0.0063709166219215836 -0.00074523895116237733 -0.024136861524227254 0.036037773928001178 0.039360015500517355 0.030628434214203231 0.042626767268040676 0.0064584457803933256 0.029361698454243086 0.04022868054272348 0.037361404071004446 0.01008452751007379 0.036510148772385752 -0.039301202317002217 0.030666419167344052 0.0059376657059138534 0.02988335377568779 0.028625755143428157 0.030174443747849906 0.05358204284061583 0.056628584595419355 0.057443338435096664 0.049832213907195728 0.08929348195069739 0.092375613105665097 0.044270168043363187 0.067691450290152555 0.053062489616494603 0.055461210503470894 0.042691729856355214
leaf_weight=255312.25029295683 53046.700187593699 52778.132965296507 17304.819526284933 5657.7865394949913 5062.828794836998 3889.0674486458302 4902.3606663048267 1187.5160750448704 3902.0576052069664 3944.2599721550941 5638.6104864478111 117652.86522787809 4652.7478707432747 122544.00355219841 2088.7242855727673 867.49597579240799 1293.5449075102806 1005.3476954400539 242.98531258106232 5558.1657168269157 388.19794714450836 2867.8425332605839 4255.3481451869011 190.69683575630188 296.03798326849937 3254.4864597916603 102.06143480539322 1563.1055598855019 887.03618508577347 3320.9501836299896
leaf_count=267622 73728 72258 35020 1607 1359 1211 1363 1431 1256 1181 1676 115993 1451 308315 668 1162 482 417 121 946 115 441 746 6 9 765 35 248 144 812
internal_value=-1.00797e-05 -0.00901979 -0.0269454 0.0116973 0.010118 0.00972534 0.00853628 -0.0363483 0.00862812 0.00757866 0.0078865 0.00673082 0.00724704 -0.0370413 -0.0035932 -0.0389831 -0.00488673 -0.00571942 -0.023383 0.0470153 0.02186 0.045906 0.041964 0.0425132 0.0555597 0.0361471 0.0113556 0.0407014 0.0383085 0.0361904
internal_weight=685658 387470 200071 298188 187399 282420 179468 142637 272760 174566 265604 170431 259965 140959 57434.3 123411 55345.6 54052 17547.8 15767.3 1677.78 7930.67 9913.13 4134.96 5854.2 7156.54 1289.58 9660.16 8097.05 7210.02
internal_count=892588 614095 421494 278493 192601 275185 190801 346199 272770 189438 270749 188251 269073 344618 75295 309477 74627 74145 35141 3308 1581 1800 2353 1187 955 2021 1466 2415 2167 2023
is_linear=0
shrinkage=0.03


Tree=4
num_leaves=31
num_cat=0
split_feature=11 11 11 1 1 9 9 0 3 5 3 11 11 6 2 4 6 11 10 1 9 9 4 1 7 3 11 15 9 11
split_gain=75802.9 141478 48082 21643.8 11082 10759.6 7432.87 6278.37 5988.92 4731.03 4685.18 4399.07 4267.72 3641.56 2659.88 1841.87 1577.76 1120.41 833.543 727.16 723.692 646.861 609.135 482.525 417.546 395.618 388.84 322.757 267.665 259.745
threshold=6.5000000000000009 18.500000000000004 8.5000000000000018 1.0000000180025095e-35 0.17708333581686023 0.18333333730697635 0.18333333730697635 0.18333333730697635 1.0000000180025095e-35 0.20833333581686023 0.20833333581686023 20.500000000000004 9.5000000000000018 0.18333333730697635 0.20833333581686023 0.20833333581686023 0.18333333730697635 7.5000000000000009 0.45833332836627966 1.8541666865348818 0.18333333730697635 2.5416666269302373 0.20833333581686023 25.375000000000004 0.56250000000000011 1.8958333134651186 16.500000000000004 0.84999999403953563 1.6458333134651186 19.500000000000004
decision_type=2 2 2 2 2 2 2 2 2 2 2 2 2 2 2 2 2 2 2 2 2 2 2 2 2 2 2 2 2 2
left_child=3 2 14 5 6 8 10 12 9 13 11 -3 18 -1 15 17 -14 -2 -4 20 -5 -8 26 -21 28 -10 -9 29 -7 -6
right_child=1 4 7 19 27 24 21 22 25 -11 -12 -13 16 -15 -16 -17 -18 -19 -20 23 -22 -23 -24 -25 -26 -27 -28 -29 -30 -31
leaf_value=0.0064991022019652307 -0.0017791592995169974 -0.00071625479001407373 -0.023768682419376352 0.034876925919899375 0.058117373071907986 0.032474130119416758 0.036435222795372799 -0.0043776997663671682 0.030629461312078627 0.034593708671213814 0.039788864862099656 0.0096977130873990691 -0.039133967218268978 0.033485777382192959 0.030576240657667817 0.027296343865760412 0.0021372963927989938 -0.010495466120629593 0.027904342351123261 0.051888035847553519 0.052141830280045598 0.059298955302006524 0.04570742517926038 0.091703253043149469 0.051081380239023783 0.045906267331524954 0.035353717421328083 0.015780557116816595 0.044372964091287041 0.043427431225626853
leaf_weight=255807.67448911071 29848.87413173914 52845.035532206297 17042.490969568491 6701.2980040609837 1330.1293294727802 4902.354011118412 3604.4714492559433 711.87604981660843 4936.9512308239937 5702.9815119206905 3885.5798429250717 118070.42082798481 119387.45788910985 4579.9117512106895 1989.742013156414 1570.3062888383865 839.28136196732521 23901.09550178051 284.81813070178032 5567.3361455202103 3255.0039191246033 1619.0704933702946 614.20305442810059 289.37101709842682 2380.5282274782658 2219.9154562056065 320.76733937859535 332.84855169057846 2630.5858129560947 6152.970978051424
leaf_count=267550 37549 72260 35020 1856 261 1481 1113 1011 1526 1718 1158 115983 308354 1456 632 550 1166 36564 132 946 497 260 244 9 376 483 272 129 595 1437
internal_value=-1.3073e-05 -0.00882564 -0.0266208 0.0113161 0.00979094 0.00940847 0.00827246 -0.0361424 0.00829449 0.007566 0.00721853 0.00647783 -0.0368396 0.0069739 -0.00349336 -0.00471935 -0.0388458 -0.00565523 -0.0229176 0.0454721 0.0405263 0.0435326 0.0220738 0.0538711 0.0401092 0.0353742 0.00798333 0.0447601 0.0366351 0.0460464
internal_weight=683325 384351 196511 298974 187841 283161 180025 139201 273247 266091 174801 170915 137554 260388 57310 55320.3 120227 53750 17327.3 15813 9956.3 5223.54 1646.85 5856.71 9913.47 7156.87 1032.64 7815.95 7532.94 7483.1
internal_count=892588 614095 421494 278493 192601 275185 190774 346199 272733 270724 189401 188243 344672 269006 75295 74663 309520 74113 35152 3308 2353 1373 1527 955 2452 2009 1283 1827 2076 1698
is_linear=0
shrinkage=0.03


Tree=5
num_leaves=31
num_cat=0
split_feature=11 11 11 9 9 2 2 4 6 4 11 12 3 5 2 6 4 7 7 2 10 15 9 2 10 5 3 6 11 14
split_gain=71501.2 135498 47337.6 19060.1 10327.1 10025.7 7513.4 6157.93 5784.42 4575.81 4285.42 4214.85 4133.61 3569.68 2492.71 1911.03 1727.43 1114.01 734.022 687.008 660.799 641.742 456.69 450.182 397.405 349.501 296.366 280.703 257.448 256.004
threshold=6.5000000000000009 18.500000000000004 8.5000000000000018 0.18333333730697635 0.18333333730697635 0.20833333581686023 0.20833333581686023 0.20833333581686023 0.18333333730697635 0.14583333581686023 9.5000000000000018 4.5000000000000009 0.20833333581686023 0.20833333581686023 0.20833333581686023 0.18333333730697635 0.20833333581686023 0.14583333581686023 0.39583332836627966 3.5625000000000004 0.70833334326744091 0.25000000745058065 2.6458333730697636 2.9583333730697636 9.9375000000000018 0.20833333581686023 1.3541666865348818 3.8125000000000004 1.5000000000000002 121.50000000000001
decision_type=2 2 2 2 2 2 2 2 2 2 2 2 2 2 2 2 2 2 2 2 2 2 2 2 2 2 2 2 2 2
left_child=3 2 14 5 6 8 9 10 12 11 18 -3 13 -1 16 -12 17 -2 -4 -8 25 29 -6 -7 -11 -5 -14 -10 -22 -9
right_child=1 4 7 20 22 23 19 21 27 24 15 -13 26 -15 -16 -17 -18 -19 -20 -21 28 -23 -24 -25 -26 -27 -28 -29 -30 -31
leaf_value=0.0063676254969430666 -0.0060625942400407383 0.0088815923123534337 -0.023335958114609916 0.035110086919513984 0.038551631548829658 0.035289107339298922 0.036529467858145988 0.053773366033915374 0.032473137805332487 0.037498265603649446 -0.03902301274003922 -0.0020537583452419524 0.027949857591991714 0.032805436734935273 0.029485362232938159 0.0056015539681252974 0.026322797625749364 0.02775468635333429 0.030336218708911258 0.061866500913488137 0.038938471411725802 0.0081093883597344509 0.0544353061683302 0.050820951388521808 0.090996353507912228 0.046620244399349656 0.042547067862163709 0.05009880813107314 0.055812326067475583 -0.01810912277945646
leaf_weight=256790.37720999122 52719.310021996498 128972.75942099094 16856.753551363945 7113.1570590436459 5411.5234880745411 7900.5511956810951 4402.5470554232597 509.51520690321922 6156.4896997511387 3706.3846981823444 116243.79581713676 42068.03070256114 3544.1623029410839 4679.3342414796352 2001.3147150576115 869.80766424536705 1579.4283828139305 890.52728724479675 231.62250176072121 1236.9547800719738 1044.3166734278202 1113.6419087052345 2347.0827674567699 2143.3999733030796 128.99417924880981 3592.4481306374073 1948.6339202523232 942.01720267534256 3901.2942155301571 48.316110342741013
leaf_count=267590 73742 134227 34995 1972 1430 2125 1265 223 1796 1181 308315 53949 1152 1489 632 1162 550 371 146 171 199 1273 375 400 3 600 476 171 523 85
internal_value=-1.59036e-05 -0.00863383 -0.0262932 0.0109475 0.00947487 0.00917181 0.00801809 -0.0359308 0.00809285 0.00691883 -0.0366436 0.00619199 0.00738205 0.0068409 -0.0033961 -0.0386915 -0.00458904 -0.00550028 -0.0226066 0.0420973 0.0431769 0.0212847 0.0433634 0.0386087 0.0393216 0.0389768 0.0331357 0.0348193 0.0522584 0.0475207
internal_weight=681094 381338 193064 299756 188274 284105 180516 135873 274061 174876 134202 171041 266963 261470 57190.6 117114 55189.3 53609.8 17088.4 5639.5 15651.2 1671.47 7758.61 10044 3835.38 10705.6 5492.8 7098.51 4945.61 557.831
internal_count=892588 614095 421494 278493 192601 275199 190796 346199 272674 189360 344618 188176 270707 269079 75295 309477 74663 74113 35141 1436 3294 1581 1805 2525 1184 2572 1628 1967 722 308
is_linear=0
shrinkage=0.03


Tree=6
num_leaves=31
num_cat=0
split_feature=11 11 11 1 0 9 2 6 0 11 6 2 12 11 0 11 7 7 10 9 1 0 11 0 0 2 2 10 6 9
split_gain=67438.9 129748 46766.5 19406.9 10202.8 9364.11 6656.47 4809.79 4670.04 4617.95 4355.42 4148.93 3874.65 3434.05 2409.1 1625.68 1398.71 1181.71 1079.15 1038.28 734.763 717.838 703.698 643.105 626.538 455.871 440.116 427.02 412.817 350.258
threshold=6.5000000000000009 18.500000000000004 9.5000000000000018 1.0000000180025095e-35 0.18333333730697635 0.18333333730697635 1.0000000180025095e-35 0.18333333730697635 0.18333333730697635 8.5000000000000018 1.0000000180025095e-35 0.20833333581686023 4.5000000000000009 1.5000000000000002 0.18333333730697635 17.500000000000004 0.14583333581686023 0.20833333581686023 0.45833332836627966 0.18333333730697635 25.375000000000004 0.18333333730697635 16.500000000000004 1.0000000180025095e-35 2.3125000000000004 3.5625000000000004 3.5625000000000004 9.9375000000000018 1.0124999880790713 0.29166667163372045
decision_type=2 2 2 2 2 2 2 2 2 2 2 2 2 2 2 2 2 2 2 2 2 2 2 2 2 2 2 2 2 2
left_child=3 2 9 5 6 7 10 11 15 14 12 13 -3 -1 16 19 -2 -17 21 -4 23 -11 29 26 -6 -8 -5 -12 -7 -10
right_child=1 4 8 20 24 28 25 -9 22 18 27 -13 -14 -15 -16 17 -18 -19 -20 -21 -22 -23 -24 -25 -26 -27 -28 -29 -30 -31
leaf_value=0.00062145415803423849 -0.0051722148972319646 0.0085706238414499109 -0.040121767650334574 0.033607880326113095 0.036029008629988681 0.034434489499174499 0.03704015073830251 0.03276396209676765 -0.012556774686089341 -0.023002235964478136 0.036018605528536189 0.033555804084339835 -0.0018982544440429422 0.0085631084360568675 0.029348415747045387 -0.029998954309758061 0.027815962824826165 0.043285800461473192 0.027874013695545416 -0.00099360763215413251 0.090757447660127472 0.021646628494322528 0.046904577842319238 0.048079437703748305 0.053563722305534918 0.060147047524781935 0.058233751224615597 0.093046723292771999 0.050362103979727367 0.036160743789565949
leaf_weight=65179.329058021307 53931.423344224691 129381.90422672033 99560.974343538284 7107.6898974776268 5121.6068302094936 8219.8073753416538 4217.4141852557659 6747.4122314453125 490.60762730240822 16598.798289358616 3845.4955866336823 5237.5848561525345 42193.689951866865 197468.29661664367 1962.9613514244556 13750.108086377382 1181.1344020962715 200.04766798019409 396.66686606407166 614.32491424679756 282.76290303468704 329.71618190407753 526.58673620223999 7790.1019003391266 2871.8994874954224 944.04812073707581 721.26508635282516 121.45843029022217 1790.4214009344578 180.98425370454788
leaf_count=75279 74222 134263 274004 1949 1359 2188 1189 1903 877 35020 1197 1577 54014 193974 635 34359 438 135 166 1022 9 179 315 1257 441 136 93 2 264 122
internal_value=-1.85667e-05 -0.00844451 -0.0259633 0.0105907 0.00916959 0.00878874 0.00770226 0.0077498 -0.0379266 -0.0074193 0.00671479 0.00711962 0.00599611 0.00659231 -0.00330123 -0.0385453 -0.00446469 -0.0289448 -0.0209846 -0.0398819 0.0428429 -0.0221312 0.020976 0.0419695 0.0423352 0.0412779 0.0358841 0.0377884 0.0372883 0.000601672
internal_weight=678967 378422 189724 300545 188698 284643 180704 274633 115324 74400.7 175543 267885 171576 262648 57075.5 114125 55112.6 13950.2 17325.2 100175 15901.8 16928.5 1198.18 15619.1 7993.51 5161.46 7828.95 3966.95 10010.2 671.592
internal_count=892588 614095 421494 278493 192601 275185 190801 272733 310834 110660 189476 270830 188277 269253 75295 309520 74660 34494 35365 275026 3308 35199 1314 3299 1800 1325 2042 1199 2452 999
is_linear=0
shrinkage=0.03


Tree=7
num_leaves=31
num_cat=0
split_feature=11 11 11 1 0 9 2 3 5 0 7 11 4 7 11 11 4 15 2 4 1 11 0 0 10 4 2 2 7 3
split_gain=63647.1 150617 20640.2 19347.3 9550.32 9285.51 6230.62 5631.15 4573.8 4546.24 4199.2 3726.44 3519.81 2366 1694.7 1664.72 1320.08 1163.64 1047.74 796.952 768.216 657.741 634.714 598.831 506.71 463.433 435.238 411.651 406.639 330.86
threshold=7.5000000000000009 18.500000000000004 9.5000000000000018 0.14583333581686023 0.18333333730697635 0.18333333730697635 0.20833333581686023 1.0000000180025095e-35 0.20833333581686023 0.18333333730697635 1.0000000180025095e-35 20.500000000000004 0.20833333581686023 0.20833333581686023 8.5000000000000018 17.500000000000004 6.1375000476837167 0.84999999403953563 0.20833333581686023 0.20833333581686023 25.375000000000004 16.500000000000004 1.0000000180025095e-35 2.3125000000000004 6.1250000000000009 0.20833333581686023 3.5625000000000004 3.5625000000000004 0.56250000000000011 1.8958333134651186
decision_type=2 2 2 2 2 2 2 2 2 2 2 2 2 2 2 2 2 2 2 2 2 2 2 2 2 2 2 2 2 2
left_child=3 2 13 5 6 7 10 8 12 15 11 -3 -1 14 18 16 -4 -17 -2 -16 22 25 27 -6 -12 -11 -8 -5 -7 -9
right_child=1 4 9 20 23 28 26 29 -10 21 24 -13 -14 -15 19 17 -18 -19 -20 -21 -22 -23 -24 -25 -26 -27 -28 -29 -30 -31
leaf_value=0.0050328266513107846 -0.010286161333740549 -0.00079751073939942718 -0.039881627774296442 0.031702971483156983 0.034754340048578962 0.031852961639279656 0.035812090563123483 0.027673597840536183 0.031368758108453382 -0.017154638839565705 0.034559473291721848 0.0087542371927908733 0.030303673896554011 0.029213303643493699 -0.022602968305713039 -0.031764824466211129 0.065506118669806185 -0.0044940428149453362 0.029208565212497112 0.025179035530158045 0.08996407513407606 0.045334993145471396 0.045474540360430318 0.051870438790871609 0.08544090428224356 0.035590960232696124 0.058399506485635709 0.054829394209597808 0.045693659900639026 0.041075684573481944
leaf_weight=286300.03090676665 23662.196529239416 53250.297034174204 97387.417168945074 7697.5628706812859 5149.7695361971855 8215.219178289175 4213.8412922620773 5438.4679607450962 6268.5991401672363 444.67213010787964 3803.0853967666626 118695.0080088377 5047.017713457346 1153.239135414362 16404.103659361601 12107.97247081995 106.20930978655815 1594.2239356040955 619.40034717321396 319.44469505548477 276.7985680103302 528.47960275411606 8343.7500252127647 2876.6454904079437 184.37647652626038 224.91157895326614 943.17400765419006 763.24590638279915 2501.046504676342 2397.4699222147465
leaf_count=304504 36583 72294 274984 2173 1359 2328 1182 1688 1910 850 1179 116003 1659 473 34973 31526 42 2968 229 180 9 315 1393 441 7 149 136 103 404 544
internal_value=-2.10987e-05 -0.00907961 -0.0310488 0.00932062 0.00887441 0.00764038 0.00745494 0.00667733 0.0060163 -0.0377632 0.00650207 0.00579612 0.00547071 -0.0131476 -0.0143397 -0.0383896 -0.0397661 -0.0285927 -0.0092774 -0.0216886 0.0404186 0.0203484 0.039597 0.0408948 0.0369338 0.000584663 0.0399542 0.0337958 0.0350875 0.0317792
internal_weight=676918 343668 154552 333249 189116 316168 181090 305452 297616 112394 175933 171945 291347 42158.4 41005.1 111196 97493.6 13702.2 24281.6 16723.5 17081.4 1198.06 16804.6 8026.42 3987.46 669.584 5157.02 8460.81 10716.3 7835.94
internal_count=892588 575873 383272 316715 192601 313037 190801 310305 308073 310834 189483 188297 306163 72438 71965 309520 275026 34494 36812 35153 3678 1314 3669 1800 1186 999 1318 2276 2732 2232
is_linear=0
shrinkage=0.03


Tree=8
num_leaves=31
num_cat=0
split_feature=11 11 11 1 1 7 4 3 0 11 6 3 13 4 4 11 3 4 15 10 1 4 8 10 10 7 1 4 15 3
split_gain=60283.5 119138 45494.1 17019.6 9100.45 8065.5 6191.21 4888.84 4425.68 4184.49 4130.26 3895.89 3661.45 3339.2 2160.08 1703.64 1495.73 1269.95 1141.77 1005.6 739.34 680.999 644.342 597.751 580.934 476.243 415.812 366.991 361.379 352.275
threshold=6.5000000000000009 18.500000000000004 9.5000000000000018 1.0000000180025095e-35 0.17708333581686023 0.14583333581686023 0.14583333581686023 1.0000000180025095e-35 0.18333333730697635 8.5000000000000018 0.18333333730697635 0.20833333581686023 1.0000000180025095e-35 0.20833333581686023 0.20833333581686023 17.500000000000004 0.20833333581686023 6.1375000476837167 0.84999999403953563 0.45833332836627966 25.375000000000004 0.20833333581686023 0.20833333581686023 0.70833334326744091 4.9375000000000009 1.7083333134651186 1.8541666865348818 0.20833333581686023 0.25000000745058065 1.8958333134651186
decision_type=2 2 2 2 2 2 2 2 2 2 2 2 2 2 2 2 2 2 2 2 2 2 2 2 2 2 2 2 2 2
left_child=3 2 9 5 6 7 11 10 15 14 13 12 -3 -1 16 17 -2 -4 -17 21 23 -11 27 26 -8 -7 -5 -10 -24 -9
right_child=1 4 8 20 -6 25 24 29 22 19 -12 -13 -14 -15 -16 18 -18 -19 -20 -21 -22 -23 28 -25 -26 -27 -28 -29 -30 -31
leaf_value=0.0056460775937831427 -0.0051711149341646051 0.0080902886176769905 -0.039763190723880001 0.031909643373959011 0.040087426730255372 0.03019155432548579 0.036507033916008298 0.026947497545442008 -0.0085232328937490665 -0.022205674791513849 0.031275542580966369 0.036285748959551271 -0.002068372893662311 0.031380900241563613 0.026336036089325512 -0.031435491364599707 0.027220004534497143 0.063798859557659016 -0.0043678832561989435 0.026764628765465388 0.089114511333980517 0.023018857835899117 0.067666616839942309 0.049318301495766742 0.074497579265526928 0.044070489340221973 0.043977113221476703 0.039798859264410194 0.0084926706744937741 0.041111057649462671
leaf_weight=258470.74466815591 53500.355205237865 130281.59396255016 94786.487991422415 8019.3926342129707 7909.7431074678898 5843.6802487075329 4842.816278398037 5137.8213232159615 580.68255549669266 16212.548599928617 5996.7758340537548 3805.0323916375637 42297.985243231058 4617.9810630381107 2137.9426392614841 11871.386619478464 1313.5689127743244 105.8130090534687 1591.1386661827564 399.20098367333412 271.15001934766769 304.4779956638813 294.84353169798851 3932.1705982685089 391.9864758849144 3612.0577103495598 3802.767957508564 185.89455726742744 136.0346893966198 2293.566047847271
leaf_count=267528 74145 134240 274984 2041 1827 1708 1375 1536 1005 35020 1717 1139 53991 1459 668 31526 482 42 2968 166 9 179 49 555 29 749 703 120 140 488
internal_value=-2.3467e-05 -0.0080914 -0.0253273 0.00993993 0.00858902 0.00825391 0.007217 0.00732215 -0.0375958 -0.00713192 0.00665916 0.00626263 0.00560046 0.00609793 -0.00324026 -0.0382297 -0.00439435 -0.039647 -0.0282371 -0.0202329 0.0400241 -0.0213705 0.019747 0.0391734 0.0393661 0.0354977 0.035795 0.00322752 0.0490544 0.0313242
internal_weight=674948 372950 183420 301998 189529 285973 181619 276517 109552 73868.1 269086 176385 172580 263089 56951.9 108355 54813.9 94892.3 13462.5 16916.2 16025.5 16517 1197.46 15754.3 5234.8 9455.74 11822.2 766.577 430.878 7431.39
internal_count=892588 614095 421494 278493 192601 275185 190774 272728 310834 110660 270704 189370 188231 268987 75295 309520 74627 275026 34494 35365 3308 35199 1314 3299 1404 2457 2744 1125 189 2024
is_linear=0
shrinkage=0.03


Tree=9
num_leaves=31
num_cat=0
split_feature=1 9 3 7 8 5 1 9 9 8 1 3 7 0 8 4 6 7 8 8 5 3 0 6 5 15 1 7 14 9
split_gain=42670.3 24616.1 15936.1 12604.5 9383.77 7589.37 930.305 913.037 801.248 633.122 531.73 513.013 481.914 471.144 446.166 364.865 384.275 288.567 265.69 227.226 211.767 188.077 146.16 145.345 137.847 135.171 107.855 112.839 107.193 104.544
threshold=0.14583333581686023 0.18333333730697635 0.20833333581686023 0.14583333581686023 0.20833333581686023 0.14583333581686023 2.0625000000000004 1.4375000000000002 0.18333333730697635 1.2083333134651186 25.375000000000004 1.8958333134651186 2.2875000238418584 2.9375000000000004 6.0625000000000009 6.8125000000000009 1.0124999880790713 1.5625000000000002 1.2083333134651186 0.54166665673255932 3.1875000000000004 0.68333333730697643 0.51249998807907116 1.9125000238418581 0.28749999403953558 0.25000000745058065 0.17708333581686023 3.7083333730697636 93.500000000000014 2.8875000476837163
decision_type=2 2 2 2 2 2 2 2 2 2 2 2 2 2 2 2 2 2 2 2 2 2 2 2 2 2 2 2 2 2
left_child=1 2 3 4 5 -1 8 13 9 21 -8 -4 14 17 -5 16 20 18 -3 -6 -9 22 -2 -13 25 28 -11 -28 -10 -18
right_child=6 7 11 12 19 -7 10 15 24 26 -12 23 -14 -15 -16 -17 29 -19 -20 -21 -22 -23 -24 -25 -26 -27 27 -29 -30 -31
leaf_value=-0.0046431551108802116 0.022635085204368521 0.022054770697579423 0.026205790900229013 0.024491672983556756 0.021299049249617726 0.026258218670696158 0.043299777054470363 0.034102909834466483 0.035788573664360196 0.090985170173910807 0.084291686017840817 0.037550099676985062 0.040641587407108333 0.053743347934230676 0.068826834167545189 0.067865601558822111 0.042086403071877103 0.041475652031616149 0.038676162659947243 0.03173421533972496 0.058028779242777606 0.034107530508575006 0.032707528380284803 0.060565411703836856 0.046892496756842081 0.034051273030628035 0.042199356603127174 0.066231032292509165 0.059175635886055976 0.057730633485400876
leaf_weight=588904.44235008955 7579.6367897093296 7497.6086102128029 9126.5093643069267 7709.0233742892742 2933.8878635466099 7240.0215640664101 8492.7494049668312 5179.5633268356323 324.04411029815674 50.413616180419922 295.12201017141342 3734.2704368531704 2568.8372207283974 574.01769709587097 209.2846152484417 434.46680998802185 627.4867268204689 945.35822197794914 980.80099159479141 5282.246222525835 357.77139735221863 2230.7616826891899 1573.7359269559383 267.25341504812241 2782.2633036375046 2343.9521597325802 1113.4315029084682 213.6808448433876 408.89416056871414 1075.0788728296757
leaf_count=863242 3379 3260 3637 3583 1537 3423 1789 1621 67 1 14 1087 772 82 23 44 116 172 220 2172 47 500 417 33 419 508 211 20 55 137
internal_value=-2.56785e-05 -0.00158205 -0.00256474 -0.00326309 -0.00382894 -0.00426782 0.0366353 0.0333358 0.0328334 0.0286111 0.0446862 0.0301398 0.0293429 0.0273549 0.0256724 0.0411225 0.039508 0.0257417 0.0239823 0.0280113 0.0356595 0.0262816 0.0243705 0.0391027 0.0420229 0.0376047 0.047827 0.046118 0.0489028 0.0519947
internal_weight=673057 645648 627976 614848 604361 596144 27408.7 17672.2 18620.8 12761.7 8787.87 13128 10487.1 9997.79 7918.31 7674.37 7239.9 9423.77 8478.41 8216.13 5537.33 11384.1 9153.37 4001.52 5859.15 3076.89 1377.53 1327.11 732.938 1702.57
internal_count=892588 885208 879509 874752 870374 866665 7380 5699 5577 4528 1803 4757 4378 3734 3606 1965 1921 3652 3480 3709 1668 4296 3796 1120 1049 630 232 231 122 253
is_linear=0
shrinkage=0.03


Tree=10
num_leaves=31
num_cat=0
split_feature=11 11 11 1 0 9 2 5 4 2 6 12 6 7 6 11 11 11 2 1 0 15 4 0 2 6 6 9 1 10
split_gain=56510.1 138900 20457.8 15609.3 8047.64 7655.59 5385.94 4310.28 4282.9 3818.25 3741.07 3392.44 3190.04 2077.86 1921.89 1605.39 1551.63 1107.5 926.331 761.974 722.09 612.097 587.785 549.058 414.566 411.158 356.112 318.081 273.596 312.029
threshold=7.5000000000000009 18.500000000000004 9.5000000000000018 1.0000000180025095e-35 0.18333333730697635 0.18333333730697635 1.0000000180025095e-35 0.20833333581686023 0.20833333581686023 0.20833333581686023 1.0000000180025095e-35 4.5000000000000009 0.18333333730697635 0.20833333581686023 0.18333333730697635 17.500000000000004 8.5000000000000018 16.500000000000004 0.20833333581686023 25.375000000000004 0.18333333730697635 0.25000000745058065 0.20833333581686023 2.3125000000000004 3.5625000000000004 2.9375000000000004 1.2083333134651186 1.7083333134651186 2.0625000000000004 1.3874999880790713
decision_type=2 2 2 2 2 2 2 2 2 2 2 2 2 2 2 2 2 2 2 2 2 2 2 2 2 2 2 2 2 2
left_child=3 2 13 5 6 7 10 9 14 12 11 -3 -1 16 15 -4 18 -16 -2 22 -18 -10 28 -6 27 -12 -7 -8 29 -5
right_child=1 4 8 19 23 26 24 -9 21 -11 25 -13 -14 -15 17 -17 20 -19 -20 -21 -22 -23 -24 -25 -26 -27 -28 -29 -30 -31
leaf_value=0.0048749088918946136 -0.0098662682433488091 0.007845593806713496 -0.039829548072222047 0.026688260411836071 0.03171893165610952 0.029441730052591139 0.030412985372107376 0.029230425102177778 0.046202335952868663 0.029743130939655558 0.029285682320464121 -0.0019441962038954583 0.028773921602540577 0.026816176286325783 -0.024958357304020923 -0.028574731773017305 -0.021774866696352254 0.044089519417429793 0.027077382255205156 0.087284379583576516 0.024280187821047156 0.0020492962482464563 0.042961733096713847 0.048036263643115223 0.055018471812903744 0.051673298398815397 0.043745748474689435 0.058786042414377952 0.039402526081800095 0.047944823271538699
leaf_weight=288117.45328223705 23455.684074163437 130243.24503302574 91438.933070749044 7230.0934971868992 5217.7917738258839 8950.4056876301765 3894.0044102668762 7218.1874470710754 460.29531115293503 5861.8891787528992 3022.872595012188 42171.450224518776 5115.0079969465733 1168.7947018146515 448.39134541153908 13048.568302035332 15981.58663380146 389.94870215654373 626.19475588202477 261.00288784503937 311.53409850597382 730.03636604547501 6294.7207050323486 2894.0232998728752 944.29798704385757 980.75617164373398 1906.4148569703102 392.27168405056 2841.5447848141193 681.56743040680885
leaf_count=304808 36583 134263 273962 2042 1359 2438 1148 2080 263 1789 1016 54014 1624 473 899 34353 34984 263 229 9 169 1094 957 441 136 183 294 41 573 101
internal_value=-2.52655e-05 -0.00867979 -0.0304575 0.00871574 0.00831223 0.00720168 0.00700654 0.00632414 -0.0374218 0.00577122 0.00611691 0.00545106 0.0052919 -0.0126009 -0.0380613 -0.0384243 -0.0137427 0.00716953 -0.00890442 0.0364571 -0.0208926 0.01915 0.0356737 0.037546 0.0370046 0.0347822 0.0319575 0.0330234 0.0314036 0.0285257
internal_weight=672299 337821 148060 334478 189761 317169 181649 306313 106516 299094 176418 172415 293232 41543.8 105326 104488 40375 838.34 24081.9 17308.9 16293.1 1190.33 17047.9 8111.82 5230.57 4003.63 10856.8 4286.28 10753.2 7911.66
internal_count=892588 575873 383272 316715 192601 313033 190801 310301 310834 308221 189476 188277 306432 72438 309477 308315 71965 1162 36812 3682 35153 1357 3673 1800 1325 1199 2732 1189 2716 2143
is_linear=0
shrinkage=0.03


Tree=11
num_leaves=31
num_cat=0
split_feature=11 11 11 1 9 9 1 0 3 11 4 11 11 5 0 11 12 4 4 7 9 1 11 4 0 9 2 4 6 3
split_gain=53532.7 109024 44145.5 13711.8 7681.92 6746.69 5304.9 4203.99 3953.15 3778.83 3704.97 3491.31 3301.01 2465.5 1886.68 1779.32 1609.28 1187.28 1167.13 1109.78 923.785 728.373 582.276 577.858 545.734 417.859 399.081 376.773 332.213 305.102
threshold=6.5000000000000009 18.500000000000004 9.5000000000000018 1.0000000180025095e-35 0.18333333730697635 0.18333333730697635 0.35416667163372045 0.18333333730697635 1.0000000180025095e-35 8.5000000000000018 0.14583333581686023 1.5000000000000002 20.500000000000004 0.20833333581686023 0.18333333730697635 17.500000000000004 1.0000000180025095e-35 6.1375000476837167 0.28749999403953558 0.20833333581686023 0.18333333730697635 25.375000000000004 16.500000000000004 0.20833333581686023 1.0000000180025095e-35 2.6458333730697636 3.5625000000000004 0.20833333581686023 1.0124999880790713 1.2083333134651186
decision_type=2 2 2 2 2 2 2 2 2 2 2 2 2 2 2 2 2 2 2 2 2 2 2 2 2 2 2 2 2 2
left_child=3 2 9 5 6 8 10 15 11 14 12 16 -3 -13 18 17 -1 -4 -2 -17 23 24 27 -11 26 -6 -5 -9 -7 -10
right_child=1 4 7 21 25 28 -8 22 29 20 -12 13 -14 -15 -16 19 -18 -19 -20 -21 -22 -23 -24 -25 -26 -27 -28 -29 -30 -31
leaf_value=-0.012884331483038499 -0.0048731214761425622 -0.00087746187673795335 -0.039515125755622688 0.027692322406277968 0.032485875446597159 0.02917464118562911 0.037915452380451124 -0.016344581120201561 0.023006745324479459 -0.021412174892498352 0.034843737206495709 0.0077515816982490458 0.0080698556296007317 0.029796739706935117 0.025416919655465095 -0.028604112582536916 0.001984392437979324 0.06102321382259656 0.024603550054045149 0.04253953600476014 0.024717945348190103 0.086259538252085585 0.042332916603563087 0.019539625220764544 0.040907012836895323 0.047583183824907095 0.051068362381044168 0.031182649856467366 0.043346451801010356 0.03527765104706982
leaf_weight=7368.1255183517933 53532.081080824137 53765.615445911884 89581.484348326921 7320.6999539732933 5533.0201876461506 8428.9003495573997 4797.5747513473034 433.18916875123978 4056.3827782571316 15776.156729787588 3904.8711516261101 198287.65193840861 119798.9447863996 4672.7176685929298 2004.6702027022839 12780.198445945978 59027.115109443665 104.96969038248062 1235.8595735430717 199.55186215043068 414.26341867446899 256.26512783765793 526.96514636278152 315.51590684056282 7930.6889674663544 2364.0692237615585 723.4813277721405 228.45141470432281 1815.7738037705421 3333.0795192718506
leaf_count=10674 74246 72358 274984 1949 1430 2188 1172 850 1247 34977 1166 193799 116100 1285 635 34359 64966 42 414 135 209 9 315 179 1257 375 93 149 264 762
internal_value=-2.73407e-05 -0.00772921 -0.0246642 0.00930207 0.00804537 0.00778482 0.00679016 -0.0372444 0.00689974 -0.0068345 0.00594851 0.00630578 0.00529821 0.00825928 -0.00316094 -0.0378939 0.000334141 -0.0393967 -0.00420748 -0.0275069 -0.0194687 0.0361268 0.018837 -0.0206079 0.0353171 0.0370112 0.0298012 8.33982e-05 0.0316907 0.0285461
internal_weight=670518 367297 177133 303221 190164 286990 182267 103855 276745 73278.5 177469 269356 173565 202960 56772.6 102666 66395.2 89686.5 54767.9 12979.8 16505.9 16231.1 1188.61 16091.7 15974.9 7897.09 8044.18 661.641 10244.7 7389.46
internal_count=892588 614095 421494 278493 192601 275185 190796 310834 272733 110660 189624 270724 188458 195084 75295 309520 75640 275026 74660 34494 35365 3308 1314 35156 3299 1805 2042 999 2452 2009
is_linear=0
shrinkage=0.03


Tree=12
num_leaves=31
num_cat=0
split_feature=11 11 11 0 0 5 2 2 4 11 6 12 7 11 3 8 11 3 4 11 6 0 0 4 4 2 6 7 7 0
split_gain=50481.2 104299 43579.4 12833.9 7200.7 5853.09 4898.53 4592.21 4132.32 3616.77 3399.84 3169.1 3029.52 2758.46 2025.4 1790.12 1746.8 1349.26 859.071 718.835 675.367 513.334 510.39 428.855 416.891 388.298 385.624 298.773 282.379 281.863
threshold=6.5000000000000009 18.500000000000004 9.5000000000000018 0.18333333730697635 0.18333333730697635 0.20833333581686023 1.0000000180025095e-35 0.20833333581686023 0.20833333581686023 8.5000000000000018 1.0000000180025095e-35 4.5000000000000009 0.29166667163372045 1.5000000000000002 0.45833332836627966 0.20833333581686023 17.500000000000004 0.20833333581686023 0.20833333581686023 15.500000000000002 0.28125000000000006 2.3125000000000004 1.1458333134651186 1.7916666865348818 0.20833333581686023 3.5625000000000004 2.9375000000000004 2.2875000238418584 1.7083333134651186 1.1458333134651186
decision_type=2 2 2 2 2 2 2 2 2 2 2 2 2 2 2 2 2 2 2 2 2 2 2 2 2 2 2 2 2 2
left_child=3 2 9 5 6 7 10 12 14 15 11 -3 13 -1 16 17 -4 -2 20 -16 -11 -6 23 -10 29 -8 -12 -14 -9 -5
right_child=1 4 8 24 21 -7 25 28 22 18 26 -13 27 -15 19 -17 -18 -19 -20 -21 -22 -23 -24 -25 -26 -27 -28 -29 -30 -31
leaf_value=0.00039971009996890995 -0.0048368759501547657 0.0073755602927590589 -0.039579185065257198 0.026328912295724708 0.029720591340945863 0.030655272062880237 0.031232913000453923 0.028708989054130218 -0.0092586045407228035 -0.021045394327395588 0.027642121215578661 -0.0020758213686527891 0.025354198855284397 0.0074688072788051552 -0.022338990156412074 0.025048082093265631 -0.027647625066186662 0.02532974050170915 0.021001657680805461 0.042680433637222293 0.029553139581341308 0.045438631099582114 0.053862751736958925 0.032919724819104865 0.041215422618066266 0.052484467086748324 0.049276172987109755 0.04215366940162428 0.0535353708107335 0.036782123189524472
leaf_weight=66020.577461928129 53344.684579819441 130850.15640106797 86796.501845508814 4928.7295328080654 5270.0587122440338 9545.8497385978699 4320.2706372439861 6883.4891791641712 541.131079018116 15619.257595330477 3050.0049963891506 42233.990497678518 3176.0379335582256 200731.21388071775 259.48427951335907 1965.8383269608021 12667.397710800171 1367.624763995409 466.27199077606201 370.2028414607048 240.19469502568245 2911.4361963868141 281.35099673271179 360.73128771781921 6438.7389263808727 946.3132740855217 983.41286066174507 1367.9315203130245 439.60974898934364 4425.2970691621304
leaf_count=75310 74188 134263 274157 1385 1359 2330 1189 1924 967 34999 1016 54014 1061 194215 609 626 34379 481 224 332 142 441 87 303 963 136 183 303 56 946
internal_value=-2.9293e-05 -0.00755224 -0.0243249 0.00900063 0.00778714 0.00755742 0.00655189 0.00676594 -0.0370615 -0.00665542 0.00570395 0.00506933 0.00613308 0.00571924 -0.0377204 -0.00307147 -0.0380599 -0.00408231 -0.0190967 0.0158892 -0.0202771 0.0353192 0.0186596 0.00762654 0.035332 0.0350613 0.0329285 0.0304204 0.0302068 0.0312779
internal_weight=668804 364846 174281 303957 190566 288165 182384 278619 101277 73003.9 177118 173084 271296 266752 100094 56678.1 99463.9 54712.3 16325.7 629.687 15859.5 8181.49 1183.21 901.862 15792.8 5266.58 4033.42 4543.97 7323.1 9354.03
internal_count=892588 614095 421494 278493 192601 275199 190801 272869 310834 110660 189476 188277 270889 269525 309477 75295 308536 74669 35365 941 35141 1800 1357 1270 3294 1325 1199 1364 1980 2331
is_linear=0
shrinkage=0.03


Tree=13
num_leaves=31
num_cat=0
split_feature=0 2 7 3 6 5 0 2 1 10 7 6 3 9 8 15 0 1 12 8 10 12 9 1 3 10 9 9 15 5
split_gain=34021.8 18171.2 13949.2 9874.71 9085.94 7494.01 801.124 728.203 620.418 527.979 423.059 404.488 393.175 362.063 318.122 247.013 225.746 188.471 217.668 173.767 164.035 147.017 139.296 184.095 154.148 112.994 106.503 97.7631 92.377 90.642
threshold=0.18333333730697635 0.20833333581686023 0.14583333581686023 0.20833333581686023 1.0000000180025095e-35 0.14583333581686023 2.6458333730697636 3.5625000000000004 0.17708333581686023 5.8750000000000009 2.2875000238418584 5.0625000000000009 1.8958333134651186 1.7083333134651186 0.20833333581686023 0.17500000447034839 21.125000000000004 7.6875000000000009 3.5000000000000004 6.0625000000000009 1.3874999880790713 1.5000000000000002 0.18333333730697635 3.4375000000000004 7.0625000000000009 0.20833333581686023 1.7916666865348818 1.2083333134651186 0.75000000000000011 0.39583332836627966
decision_type=2 2 2 2 2 2 2 2 2 2 2 2 2 2 2 2 2 2 2 2 2 2 2 2 2 2 2 2 2 2
left_child=1 2 3 4 5 -1 8 13 14 10 15 -6 29 17 20 -4 -8 18 -3 -11 -2 -14 23 24 -10 -12 -15 -16 -9 -5
right_child=6 7 9 12 11 -7 16 28 22 19 25 -13 21 26 27 -17 -18 -19 -20 -21 -22 -23 -24 -25 -26 -27 -28 -29 -30 -31
leaf_value=-0.0042773472804610232 0.020369639386016675 0.021521326431200354 0.045546124422595057 0.022601775820087891 0.02328424292175631 0.025477780585100786 0.039960109327270982 0.045561579488151788 0.027674758558639309 0.04516576980339887 0.039249807492043418 0.044021927211579027 0.047727339184272986 0.067310794779622124 0.029602897264563256 0.022846487434606839 0.068324084695147849 0.067611452982747719 0.029338133117153553 0.085354961119847222 0.037283014875468368 0.032196020913351713 0.039135970277419226 0.04350917709200075 0.05718945330175642 0.025234112482743098 0.039833896910126475 0.04180206383661636 0.007318518064924606 0.035781185161572464
leaf_weight=582468.71291571856 7546.1045585274696 6726.3834352493286 453.41752049326897 6676.7728028595448 8833.1806579530239 7717.8090663552284 7085.9767529070377 2405.7729573249817 3883.5761732161045 242.7980047762394 2611.6170679926872 937.45899787545204 829.60359966754913 150.16559436917305 2168.9240640997887 9111.9763039946556 263.44481229782104 94.742147833108902 6171.626038402319 166.84231019020081 555.35005787014961 1673.7692533433437 4282.6748512983322 968.18138542771339 166.32604077458382 656.90652111172676 919.40537017583847 828.06228342652321 58.843921035528183 508.82122829556465
leaf_count=863765 3278 2566 178 2941 3807 3472 1346 492 965 38 757 225 221 14 505 3784 25 13 2035 5 118 581 688 175 17 150 148 139 23 117
internal_value=-3.11034e-05 -0.00144241 -0.00226621 -0.00292793 -0.00341315 -0.00388819 0.0324886 0.0296044 0.029425 0.0281924 0.0271176 0.0252786 0.0271151 0.0269637 0.0246297 0.0239275 0.0409864 0.025578 0.0252638 0.0617097 0.0215339 0.0373612 0.0351436 0.0317286 0.0289015 0.0364424 0.0437537 0.0329873 0.0446531 0.0235403
internal_weight=667165 639417 622890 609646 599957 590187 27748.6 16526.9 20399.2 13243.6 12833.9 9770.64 9688.97 14062.3 11098.4 9565.39 7349.42 12992.8 12898 409.64 8101.45 2503.37 9300.76 5018.08 4049.9 3268.52 1069.57 2996.99 2464.62 7185.59
internal_count=892588 885332 880041 875129 871269 867237 7256 5291 5885 4912 4869 4032 3860 4776 4040 3962 1371 4614 4601 43 3396 802 1845 1157 982 907 162 644 515 3058
is_linear=0
shrinkage=0.03


Tree=14
num_leaves=31
num_cat=0
split_feature=11 11 11 1 1 4 4 6 4 3 15 11 5 11 1 15 11 10 1 10 12 10 15 10 12 6 4 2 11 15
split_gain=47484.9 123028 20063.6 12129.1 6307.48 6142.22 4695.84 4104.2 3955.25 3107.51 3092.21 3408.24 2865.82 2012.4 1778.33 1400.65 1279.38 1249.47 787.621 675.943 619.234 547.014 528.545 509.065 508.066 385.051 359.662 355.223 316.708 254.24
threshold=7.5000000000000009 18.500000000000004 9.5000000000000018 1.0000000180025095e-35 0.35416667163372045 0.20833333581686023 0.14583333581686023 0.18333333730697635 0.20833333581686023 1.0000000180025095e-35 0.17500000447034839 20.500000000000004 0.20833333581686023 17.500000000000004 0.17708333581686023 0.84999999403953563 8.5000000000000018 0.20833333581686023 25.375000000000004 0.45833332836627966 4.5000000000000009 4.9375000000000009 0.25000000745058065 0.70833334326744091 1.5000000000000002 4.8125000000000009 1.2083333134651186 0.85416665673255932 1.5000000000000002 0.84999999403953563
decision_type=2 2 2 2 2 2 2 2 2 2 2 2 2 2 2 2 2 2 2 2 2 2 2 2 2 2 2 2 2 2
left_child=3 2 14 5 6 7 10 9 13 12 24 -12 -1 17 16 -15 20 -4 23 -18 -2 -8 -10 27 -3 -9 -7 -5 -25 -6
right_child=1 4 8 18 29 26 21 25 22 -11 11 -13 -14 15 -16 -17 19 -19 -20 -21 -22 -23 -24 28 -26 -27 -28 -29 -30 -31
leaf_value=0.0043560657093932795 -0.012028621528754264 0.029796519441488662 -0.03950188111003395 0.025209981905372266 0.036261835339792596 0.023644830901363788 0.030948497810083537 0.025208679687889174 0.0427538964676046 0.024665389459095209 -0.0018746345837132273 0.007430602983727534 0.02662162623420378 -0.030135145709488286 0.023700495423774483 3.5592732647348613e-05 -0.020457934843321052 0.0044618856024961472 0.084642744323247435 0.024326923468129435 -0.0018058077327898054 0.067665831869450244 0.0016519566648146875 0.02356642464050282 0.016275489508215155 0.047204012729305009 0.034699914450040489 0.036008095073278908 0.044423253629420324 0.0078606104083162875
leaf_weight=288041.98200309277 15695.6542288661 3844.4312332570553 84170.551827937365 9193.2576170861721 6895.7652421295643 5516.2521358728409 5189.710037946701 6819.2332392334938 458.45826783776283 7230.4142605364323 50998.259327739477 116007.58896526694 5297.4482263922691 11014.519713789225 1227.6055466532707 1583.7514843046665 15447.556431382895 585.53731146454811 252.85750108957291 308.52457696199417 8078.6018507480621 392.94643700122833 727.94653934240341 815.93283832073212 7179.3500703573227 801.75126388669014 5123.6911557018757 3923.0946405231953 3422.7705890536308 296.78158995509148
leaf_count=304580 25712 2615 273938 2416 1442 1582 1426 1963 263 2054 69132 111316 1600 31527 509 2971 35009 1041 9 140 11068 31 1094 147 6536 130 1124 651 459 103
internal_value=-3.05201e-05 -0.00811426 -0.0295489 0.007901 0.00753436 0.00656231 0.00645467 0.00578856 -0.0368713 0.00523723 0.00560497 0.00458907 0.00475826 -0.0375348 -0.0118452 -0.0263424 -0.0129497 -0.0391981 0.032139 -0.0195793 -0.00855521 0.0335451 0.01756 0.031369 0.0209934 0.0275289 0.0289715 0.0284424 0.0404156 0.0350916
internal_weight=666542 330104 139299 336439 190805 318831 183612 308191 98540.8 300570 178030 167006 293339 97354.4 40757.9 12598.3 39530.3 84756.1 17607.9 15756.1 23774.3 5582.66 1186.4 17355.1 11023.8 7620.98 10639.9 13116.4 4238.7 7192.55
internal_count=892588 575873 383272 316715 192601 313033 191056 310327 310834 308234 189599 180448 306180 309477 72438 34498 71929 274979 3682 35149 36780 1457 1357 3673 9151 2093 2706 3067 606 1545
is_linear=0
shrinkage=0.03


Tree=15
num_leaves=31
num_cat=0
split_feature=11 11 11 1 0 7 2 0 4 11 7 11 11 6 11 12 2 15 4 6 10 1 0 11 10 10 0 7 2 11
split_gain=44851.9 95326.1 42164.1 10648.8 5943.17 5337.09 4143.69 3935.66 3313.15 3259.44 3010.86 3062.76 2785.56 1942.12 1887.11 1549.15 1535.68 1145.83 1115.76 1108.88 810.165 749.396 558.429 516.402 465.686 457.614 455.885 378.739 347.423 336.797
threshold=6.5000000000000009 18.500000000000004 9.5000000000000018 1.0000000180025095e-35 0.18333333730697635 0.14583333581686023 1.0000000180025095e-35 0.18333333730697635 0.20833333581686023 8.5000000000000018 0.20833333581686023 20.500000000000004 1.5000000000000002 0.18333333730697635 17.500000000000004 1.0000000180025095e-35 0.20833333581686023 0.84999999403953563 0.28749999403953558 1.9125000238418581 0.45833332836627966 25.375000000000004 0.18333333730697635 16.500000000000004 0.70833334326744091 6.1250000000000009 2.3125000000000004 1.7083333134651186 3.5625000000000004 1.5000000000000002
decision_type=2 2 2 2 2 2 2 2 2 2 2 2 2 2 2 2 2 2 2 2 2 2 2 2 2 2 2 2 2 2
left_child=3 2 9 5 6 8 10 14 12 16 11 -3 15 -14 19 -1 18 -16 -2 -4 22 24 -11 -9 -5 -12 -6 -7 -8 -26
right_child=1 4 7 21 26 27 28 23 -10 20 25 -13 13 -15 17 -17 -18 -19 -20 -21 -22 -23 -24 -25 29 -27 -28 -29 -30 -31
leaf_value=-0.012451693621184643 -0.0046680133257097408 -0.0011905348518780248 -0.03916877882256569 0.028146338795936914 0.026902762844311017 0.024273226926605031 0.028647672152579837 -5.4093421734031004e-05 0.026944107052633059 -0.02028713699106436 0.02886303991454623 0.0074450738359070762 0.0071147681143349699 0.02751347506107326 -0.029840852940674501 0.0021032871336046626 0.022262174578929598 -0.0020794539531732458 0.022143943678239287 0.028164395638542714 0.023339564794250735 0.083466186953110116 0.018728552188119845 0.03986783931526823 0.022730770967168169 0.079400974776643207 0.041623198466007094 0.036477194743294528 0.048684242166450467 0.044328626400538758
leaf_weight=7396.6999318301678 52998.922192692757 53388.426098763943 82395.307678878307 12245.243813872337 5351.1711587011814 6034.8698260188103 4377.0280868709087 651.88407364487648 6840.5616625547409 15214.788192242384 3873.1409207880497 120138.45685622096 200774.59153589606 4289.6316594481468 10804.419072985649 59633.316906452179 2085.8674860298634 1527.6325831711292 1433.6663576960564 219.99960213899612 408.00454264879227 248.80551207065582 336.66814249753952 526.43016290664673 820.51702046394348 167.74423003196716 2942.5929613113403 3703.1028204858303 950.93619138002396 3200.1267394423485
leaf_count=10686 74202 72295 274807 2744 1359 1708 1189 999 1910 35020 1164 116010 194019 1153 31526 64960 632 2968 461 219 166 9 179 315 147 7 441 749 136 408
internal_value=-3.22117e-05 -0.0072079 -0.0236515 0.00842738 0.00729321 0.00708694 0.00616674 -0.0366784 0.00632469 -0.00637403 0.00538443 0.00478818 0.0058062 0.00754162 -0.0373547 0.000496952 -0.00299315 -0.0264026 -0.00396138 -0.0389891 -0.0183459 0.0318559 -0.0194412 0.0177978 0.0310611 0.0309808 0.0321303 0.0289177 0.0322328 0.0399285
internal_weight=664981 359793 168604 305187 191189 288673 182896 96125.7 278935 72477.9 177568 173527 272094 205064 94947.4 67030 56518.5 12332.1 54432.6 82615.3 15959.5 16514.7 15551.5 1178.31 16265.9 4040.89 8293.76 9737.97 5327.96 4020.64
internal_count=892588 614095 421494 278493 192601 275185 190801 310834 272728 110660 189476 188305 270818 195172 309520 75646 75295 34494 74663 275026 35365 3308 35199 1314 3299 1171 1800 2457 1325 555
is_linear=0
shrinkage=0.03


Tree=16
num_leaves=31
num_cat=0
split_feature=11 11 11 1 9 9 1 4 3 3 11 4 12 11 9 15 3 10 11 1 15 10 9 2 9 11 11 2 3 11
split_gain=42389.8 113500 19777.7 10595.2 6060.12 5629.46 4067.99 3877.13 3304.16 3136.82 3173.52 2702.96 2367.4 2081.86 1766.13 1329.43 1328.83 1255.93 1205.42 756.59 479.261 450.961 380.459 331.612 297.047 295.907 280.523 248.453 239.416 233.492
threshold=7.5000000000000009 18.500000000000004 9.5000000000000018 1.0000000180025095e-35 0.18333333730697635 0.18333333730697635 0.35416667163372045 0.20833333581686023 1.0000000180025095e-35 0.20833333581686023 20.500000000000004 0.20833333581686023 1.0000000180025095e-35 17.500000000000004 1.0000000180025095e-35 0.84999999403953563 0.20833333581686023 0.20833333581686023 8.5000000000000018 25.375000000000004 0.25000000745058065 0.70833334326744091 3.4375000000000004 0.85416665673255932 1.4375000000000002 20.500000000000004 1.5000000000000002 5.6875000000000009 1.8958333134651186 19.500000000000004
decision_type=2 2 2 2 2 2 2 2 2 2 2 2 2 2 2 2 2 2 2 2 2 2 2 2 2 2 2 2 2 2
left_child=3 2 14 5 6 8 9 13 11 10 -3 12 -1 17 16 -15 18 -4 -2 21 -9 23 29 -5 -7 -11 -23 -8 -10 -6
right_child=1 4 7 19 22 24 27 20 28 25 -12 -13 -14 15 -16 -17 -18 -19 -20 -21 -22 26 -24 -25 -26 -27 -28 -29 -30 -31
leaf_value=-0.0027308003152387082 -0.0089846708017382714 -0.0015135680939900374 -0.039239685367770137 0.023373004433663854 0.041562768599223657 0.022895729022278655 0.030831409080130424 0.04147776643889943 0.020825425682459663 0.041279124138340298 0.0072696388309915864 0.024178233622774034 0.0054779092204067098 -0.029439180895370301 0.025028617793826449 3.1313600016460531e-05 0.023537689311500173 0.0050828642507066719 -0.019887456559123416 0.082228764195002566 0.002272467686975102 0.021926255263489985 0.044849305994062262 0.033750711581397377 0.032827842091240997 0.024735917356996564 0.041451111689607162 0.054958876493652754 0.032006623631831189 0.026373963474622789
leaf_weight=36029.175235420465 23161.530188113451 53333.524147510529 79824.979882895947 9301.9407986104488 1111.9710643291473 6377.2864826023579 4473.2470555305481 459.08368718624115 5681.0200519263744 1522.9862259924412 121059.64044621587 6400.4581322073936 258333.6898856163 10622.171792149544 1165.4766298532486 1582.6684386134148 902.06441143155098 579.22263810038567 15065.768056094646 245.04606562852859 720.21177932620049 825.07086187601089 1771.1037380099297 3962.1618954539299 4738.9535368084908 2722.7331967949867 3451.7568710446358 421.82581508159637 2485.0515053272247 5152.9009473621845
leaf_count=43801 36570 72316 273938 2416 242 1752 1132 263 1687 425 116103 1928 262341 31527 497 2971 419 1041 34952 9 1094 147 264 651 980 780 459 40 544 1299
internal_value=-3.3768e-05 -0.00775717 -0.028927 0.00741121 0.00706001 0.00615869 0.00594339 -0.0364791 0.00540389 0.00520392 0.00458352 0.0048926 0.00447317 -0.0371675 -0.0113484 -0.0256176 -0.0124326 -0.0389203 -0.0132821 0.0299474 0.0175593 0.0292123 0.0325583 0.0264755 0.0271327 0.0306792 0.0376912 0.032922 0.0242319 0.0290766
internal_weight=663485 325653 134083 337832 191570 320046 183534 93788.3 308929 178639 174393 300763 294363 92609 40294.8 12204.8 39129.4 80404.2 38227.3 17786 1179.3 17540.9 8035.98 13264.1 11116.2 4245.72 4276.83 4895.07 8166.07 6264.87
internal_count=892588 575873 383272 316715 192601 313033 190796 310834 310301 189624 188419 308070 306142 309477 72438 34498 71941 274979 71522 3682 1357 3673 1805 3067 2732 1205 606 1172 2231 1541
is_linear=0
shrinkage=0.03


Tree=17
num_leaves=31
num_cat=0
split_feature=11 11 11 0 9 9 8 2 3 15 11 11 8 11 11 9 8 7 15 9 11 2 12 12 9 8 9 0 15 3
split_gain=40072.8 87291.8 40741.3 9519.44 5661.66 4492.96 3949.04 3870.59 3181.1 2949.83 3103.58 2938.53 2662.16 2741.5 1895.76 1658.2 1456.53 1099.47 1017.19 754.584 630.628 513.234 495.02 431.569 359.701 312.258 309.323 284.588 255.819 249.139
threshold=6.5000000000000009 18.500000000000004 9.5000000000000018 0.18333333730697635 0.18333333730697635 0.18333333730697635 0.20833333581686023 0.20833333581686023 1.0000000180025095e-35 0.17500000447034839 20.500000000000004 8.5000000000000018 0.20833333581686023 1.5000000000000002 17.500000000000004 0.18333333730697635 0.54166665673255932 0.20833333581686023 0.84999999403953563 0.18333333730697635 15.500000000000002 3.5625000000000004 5.5000000000000009 4.5000000000000009 2.5416666269302373 0.89583334326744091 0.18333333730697635 3.5208333730697636 0.25000000745058065 1.2083333134651186
decision_type=2 2 2 2 2 2 2 2 2 2 2 2 2 2 2 2 2 2 2 2 2 2 2 2 2 2 2 2 2 2
left_child=3 2 11 5 7 8 14 9 12 23 -11 16 13 -1 15 -4 17 -2 -16 22 -8 -9 -13 -3 -6 -14 27 -5 -22 -10
right_child=1 4 6 26 24 -7 20 21 29 10 -12 19 25 -15 18 -17 -18 -19 -20 -21 28 -23 -24 -25 -26 -27 -28 -29 -30 -31
leaf_value=-0.00034263616015481991 -0.0043902932951135664 0.023126982594256922 -0.03904687723923711 0.024765106150012466 0.027258277872472151 0.026407754160621459 -0.0066651950188091101 0.025054988078629624 0.019532909630437665 -0.0022533673849709996 0.0066576601766340313 -0.021156365648223912 0.017903576098240441 0.0067198642073476615 -0.029173318254933064 0.010794201468519303 0.026941836761258924 0.02257748035635344 -0.002909131869344047 0.021920651652040959 0.055693928151260501 0.046741309948609207 -0.0066991253627433772 0.0088210731806817357 0.041095221708164008 0.032306546265561488 0.035462863936416629 0.039007809739349766 0.017491808468191209 0.030087142167622236
leaf_weight=65598.306951791048 53590.482156604528 8611.7725132405758 77852.199669092894 8237.5455766618252 5654.9228719174862 10017.52113956213 464.99411010742188 4663.2233353853226 4314.1985290050507 50388.214866697788 116511.10858201981 12654.536704421043 2410.055394589901 201142.53827685118 10432.646359473467 604.95355805754662 1430.9696251451969 1395.0453314185143 1521.1147083938122 421.71813157200813 364.36620461940765 1246.7622565627098 2565.4725780785084 2437.410643696785 2423.3832451105118 3112.1477783918381 6407.560408115387 1496.2671839892864 280.41138297319412 3795.4980370998383
leaf_count=75218 74424 6532 273965 2108 1425 2372 884 1265 1268 69040 111179 30069 839 193860 31515 1013 398 473 2969 209 115 171 5087 2609 380 824 922 264 373 818
internal_value=-3.52037e-05 -0.00688866 -0.0229911 0.00791343 0.00683477 0.00666692 -0.0362759 0.00575463 0.00596149 0.00496125 0.00396734 -0.00611792 0.00540991 0.00498301 -0.0369664 -0.0386624 -0.00292777 -0.00370564 -0.025832 -0.017623 0.0199547 0.0296375 -0.0187203 0.0199725 0.0314141 0.0260256 0.0303366 0.0269586 0.0391374 0.024476
internal_weight=662047 355516 163579 306532 191937 290390 91520.7 183858 280373 177949 166899 72058.2 272263 266741 90410.9 78457.2 56416.5 54985.5 11953.8 15641.7 1109.77 5909.99 15220 11049.2 8078.31 5522.2 16141.4 9733.81 644.778 8109.7
internal_count=892588 614095 421494 278493 192601 275199 310834 190796 272827 189360 180219 110660 270741 269078 309462 274978 75295 74897 34484 35365 1372 1436 35156 9141 1805 1663 3294 2372 488 2086
is_linear=0
shrinkage=0.03


Tree=18
num_leaves=31
num_cat=0
split_feature=0 7 3 8 6 5 0 8 7 1 6 3 8 10 0 9 10 9 14 8 5 6 15 1 14 14 15 9 7 9
split_gain=26031 14077.2 12442 8439.8 6749.23 5610.85 649.361 501.969 435.232 398.663 368.82 342.165 325.319 255.111 235.541 185.732 182.544 207.23 179.89 176.437 175.575 175.214 169.966 160.352 133.428 132.698 160.809 138.098 132.263 125.537
threshold=0.18333333730697635 0.14583333581686023 0.20833333581686023 0.20833333581686023 1.0000000180025095e-35 0.14583333581686023 2.6458333730697636 1.1458333134651186 1.1458333134651186 0.17708333581686023 5.0625000000000009 1.5625000000000002 2.5625000000000004 1.3874999880790713 21.125000000000004 1.7083333134651186 9.3125000000000018 6.0833332538604745 42.500000000000007 0.54166665673255932 0.39583332836627966 0.38750000298023229 0.17500000447034839 1.6958333253860476 29.500000000000004 117.50000000000001 0.57499998807907116 0.18333333730697635 10.437500000000002 0.43750000000000006
decision_type=2 2 2 2 2 2 2 2 2 2 2 2 2 2 2 2 2 2 2 2 2 2 2 2 2 2 2 2 2 2
left_child=1 2 3 4 5 -1 9 8 15 13 -6 20 24 19 18 23 17 21 -8 -2 -4 -9 -17 -3 -5 26 -11 -27 -10 -18
right_child=6 7 11 12 10 -7 14 16 28 25 -12 -13 -14 -15 -16 22 29 -19 -20 -21 -22 -23 -24 -25 -26 27 -28 -29 -30 -31
leaf_value=-0.0038875759752936717 0.018171877780110493 0.01649508833122057 0.02054013096081287 0.028504821355966953 0.020901000077710161 0.022556782846872347 0.025253716058424202 0.039645946840929071 0.028650489545978597 0.027738028308677772 0.043133319927469195 0.031404419907286187 0.034832306812879292 0.033945057810337673 0.063698389541911371 0.087015366488798512 0.083887741114937769 0.061784759197459488 0.037060378968293221 0.029083680372273019 0.034767186949803727 0.020710666186675355 0.029468847527928194 0.039055602439864917 0.019450911245515842 0.017349852138379779 0.036951348635158129 0.031150162626852575 0.047387212436412147 0.033531481800404009
leaf_weight=574902.54320716858 8384.3541322946548 6423.3506379723549 8702.3023585677147 1944.4830564856529 8193.6643773019314 7311.9652255773544 1469.6691990792751 1253.4374966025352 6119.5208010971546 3639.0209755897522 732.08023944497108 5187.2898168563843 2143.1544823646545 1323.7734789848328 261.42939439415932 49.016422808170319 129.67618751525879 255.46357622742653 5759.0633927881718 1590.9934821128845 860.23470428586006 684.79448282718658 679.10421574115753 296.51873549818993 6051.2558035850525 1336.1715530455112 3257.623299151659 1288.4010741710663 361.34514799714088 71.040640711784363
leaf_count=863578 3460 2876 3423 693 3593 3338 312 251 1916 751 185 1399 635 238 25 2 4 21 1034 342 167 139 132 51 2846 341 548 205 73 10
internal_value=-3.65417e-05 -0.00129657 -0.00202521 -0.002693 -0.0031585 -0.00355542 0.0281067 0.0262003 0.024015 0.0253782 0.0227294 0.0251953 0.024445 0.0215621 0.0356864 0.0190621 0.038896 0.036355 0.0346642 0.0199153 0.0218238 0.0329716 0.033461 0.0174967 0.0216564 0.0299039 0.0320951 0.0241348 0.0297028 0.0663344
internal_weight=660663 632352 616029 601279 591140 582215 28310.5 16323.3 13928.9 20820.3 8925.74 14749.8 10138.9 11299.1 7490.16 7447.99 2394.41 2193.7 7228.73 9975.35 9562.54 1938.23 728.121 6719.87 7995.74 9521.22 6896.64 2624.57 6480.87 200.717
internal_count=892588 885332 879857 874868 870694 866916 7256 5475 5050 5885 3778 4989 4174 4040 1371 3061 425 411 1346 3802 3590 390 134 2927 3539 1845 1299 546 1989 14
is_linear=0
shrinkage=0.03


Tree=19
num_leaves=31
num_cat=0
split_feature=11 11 11 0 9 2 4 1 5 4 12 7 11 12 9 15 2 3 11 15 9 15 2 4 4 1 11 4 7 5
split_gain=37634.4 104412 19436.1 8825.72 4969.69 4338.19 3714.96 3516.61 3392.42 2781.49 2985.36 2318.42 2147.24 2124.56 1554.83 1257.33 1214.06 1193.92 1095.64 421.41 331.353 286.403 285.513 254.464 237.279 227.281 218.796 225.82 209.988 203.502
threshold=7.5000000000000009 18.500000000000004 9.5000000000000018 0.18333333730697635 0.18333333730697635 0.20833333581686023 0.20833333581686023 0.35416667163372045 0.20833333581686023 0.14583333581686023 5.5000000000000009 0.29166667163372045 17.500000000000004 1.0000000180025095e-35 1.0000000180025095e-35 0.84999999403953563 0.20833333581686023 0.20833333581686023 8.5000000000000018 0.25000000745058065 3.4375000000000004 0.57499998807907116 3.4166666269302373 0.20833333581686023 7.3125000000000009 8.1875000000000018 19.500000000000004 6.8125000000000009 2.2875000238418584 1.9375000000000002
decision_type=2 2 2 2 2 2 2 2 2 2 2 2 2 2 2 2 2 2 2 2 2 2 2 2 2 2 2 2 2 2
left_child=3 2 14 5 7 8 12 9 11 10 -3 13 16 -1 17 -14 -4 18 -2 24 26 -5 -7 -23 -8 -9 -6 -28 -13 -10
right_child=1 4 6 21 20 22 19 25 29 -11 -12 28 15 -15 -16 -17 -18 -19 -20 -21 -22 23 -24 -25 -26 -27 27 -29 -30 -31
leaf_value=-0.0024775172681290279 -0.0086155257776154917 0.0057125543141880938 -0.038933187087103936 0.023996790159402141 0.038347655783918792 0.022998406902659412 0.027135700801024946 0.028744516695855604 0.020576099891733219 0.029677852035149759 -0.0068928744297531907 0.020756318744529493 -0.028711033551373943 0.0052495919787030826 0.023047689142544975 5.0604949742900365e-05 0.0070771740002721255 0.022024104070494176 -0.019096931556993366 0.0024567832590576331 0.040957497927774845 0.027108627882999458 0.037141856387148973 0.037721960090102195 0.077931824905714445 0.053703975240536793 0.022477157599419255 0.054843583336379002 0.034142221804631813 0.030503096628670109
leaf_weight=36499.636461049318 22991.936351776123 156118.70833012462 75622.214928507805 9223.0184119045734 1123.8641274571419 8626.6767129898071 352.34355252981186 4594.6677850484848 5917.4064497053623 3989.4933489859104 18962.089435607195 3606.3634088635445 10233.292158663273 261110.14607059956 1180.6071733534336 1578.7396726608276 519.29276993870735 911.32249647378922 14728.193818479776 716.25452670454979 1789.3428563475609 4744.6083863377571 1513.6790463328362 3588.6183745861053 108.25215435028076 354.69151532649994 5034.9580773711205 201.50836902856827 1497.9976711273193 2723.5958716869354
leaf_count=43904 36570 161963 273970 2058 242 2273 252 1129 1677 1166 26495 1174 31527 262854 497 2971 1009 419 34952 1094 264 1114 266 484 11 43 1277 22 336 575
internal_value=-3.57615e-05 -0.00739601 -0.0282799 0.00693504 0.00661676 0.0058039 -0.0360642 0.00560138 0.00517493 0.00491179 0.00434728 0.0046458 -0.0367727 0.0043019 -0.0108519 -0.024867 -0.0386193 -0.0118886 -0.0127086 0.0168702 0.0295403 0.0276471 0.0251134 0.0316835 0.0392236 0.0305443 0.0263219 0.0237335 0.0246912 0.0237085
internal_weight=660164 321112 128942 339052 192169 321496 89130.4 184020 311355 179070 175081 302714 87953.5 297610 39812.1 11812 76141.5 38631.5 37720.1 1176.85 8149.67 17556.2 10140.4 8333.23 460.596 4949.36 6360.33 5236.47 5104.36 8641
internal_count=892588 575873 383272 316715 192601 313059 310834 190796 310520 189624 188458 308268 309477 306758 72438 34498 274979 71941 71522 1357 1805 3656 2539 1598 263 1172 1541 1299 1510 2252
is_linear=0
shrinkage=0.03


Tree=20
num_leaves=31
num_cat=0
split_feature=11 11 11 1 9 9 0 2 15 11 11 11 11 6 2 12 2 9 15 12 3 1 9 12 11 12 2 9 1 9
split_gain=35599.2 79682.6 39260.5 7859.92 4642.78 4181.55 3693.27 3353.8 2746.05 2868.46 2641.27 2633.98 2011.1 1845.74 1538.72 1365.06 1209.74 1151.89 1025.35 945.448 828.102 768.565 655.155 485.07 442.609 406.017 381.871 339.533 413.844 310.811
threshold=6.5000000000000009 18.500000000000004 9.5000000000000018 1.0000000180025095e-35 0.18333333730697635 0.18333333730697635 0.18333333730697635 0.43750000000000006 0.17500000447034839 20.500000000000004 8.5000000000000018 1.5000000000000002 17.500000000000004 0.35416667163372045 0.20833333581686023 1.0000000180025095e-35 0.20833333581686023 0.18333333730697635 0.84999999403953563 4.5000000000000009 0.20833333581686023 25.375000000000004 0.18333333730697635 5.5000000000000009 16.500000000000004 1.5000000000000002 3.5625000000000004 0.18333333730697635 1.8541666865348818 3.4375000000000004
decision_type=2 2 2 2 2 2 2 2 2 2 2 2 2 2 2 2 2 2 2 2 2 2 2 2 2 2 2 2 2 2
left_child=3 2 10 5 7 11 12 8 25 -10 16 15 17 14 -13 -1 19 -4 -14 -2 -17 27 23 -12 -8 -3 -9 28 -5 -6
right_child=1 4 6 21 29 -7 24 26 9 -11 22 13 18 -15 -16 20 -18 -19 -20 -21 -22 -23 -24 -25 -26 -27 -28 -29 -30 -31
leaf_value=-0.01167834466426586 -0.0065264997179109285 0.027042108576839103 -0.038705463829719976 0.01931040057834988 0.025395252165280206 0.024729537953983031 0.00045777383606613871 0.024628840877002081 -0.0021904584553531677 0.0063538152508744901 -0.020401483603066629 0.0064022341646529498 -0.028406844757642186 0.025558739181722311 0.024386983299455146 0.0013474742862101677 0.019325904570915535 0.0048258780281924176 -0.0019826662499184892 0.0018814491251869772 0.023190224607986948 0.080231159223077081 0.019632712681006272 -0.0059884566781654418 0.037652291722021822 0.014992684983187569 0.043668406670963306 0.032242187492783771 0.032079884083935348 0.039534933192540415
leaf_weight=7452.3508975803852 36085.51724383235 3854.5741041898727 73721.363662779331 7314.471415579319 6394.2798959612846 10624.471938371658 637.64104968309402 3898.8418461084366 50593.574276477098 117455.15781345963 12362.295468389988 202541.42805784941 10049.25776925683 4820.9600955843925 4373.2085494399071 59423.87156265974 2129.2135377526283 550.83500373363495 1522.2191504538059 18059.217217504978 1603.3164144158363 242.70101845264435 428.61637875437737 2533.9183437228203 524.31847760081291 7275.1039142310619 1256.5728002786636 6002.6541020274162 3329.0695061087608 1798.019163608551
leaf_count=10744 52404 2615 274004 1856 1541 2452 999 1009 69109 111356 30069 194200 31526 1180 1212 64969 632 1022 2968 22259 428 9 209 5087 315 6536 171 839 604 264
internal_value=-3.69776e-05 -0.00656519 -0.0223106 0.00741196 0.00640603 0.00625652 -0.0358506 0.0054238 0.00473728 0.00378142 -0.00585677 0.00555602 -0.0365697 0.00721012 0.00678248 0.000441514 -0.00284967 -0.0383825 -0.0249315 -0.00372211 0.00192175 0.0273078 -0.016898 -0.0179505 0.0172618 0.0191681 0.0292777 0.0265312 0.0233073 0.0285034
internal_weight=658859 351131 158604 307729 192526 290840 87005.6 184334 179178 168049 71598.8 280215 85843.7 211736 206915 68479.5 56273.9 74272.2 11571.5 54144.7 61027.2 16888.9 15324.8 14896.2 1161.96 11129.7 5155.41 16646.2 10643.5 8192.3
internal_count=892588 614095 421494 278493 192601 275185 310834 190796 189616 180465 110660 272733 309520 196592 195412 76141 75295 275026 34494 74663 65397 3308 35365 35156 1314 9151 1180 3299 2460 1805
is_linear=0
shrinkage=0.03


Tree=21
num_leaves=31
num_cat=0
split_feature=0 2 7 6 4 8 4 0 2 8 7 6 1 4 9 15 0 14 12 1 14 4 7 8 1 14 14 2 12 9
split_gain=21974.8 12396.1 9808.8 7007.52 6027.33 5644.16 621.493 581.303 533.602 402.113 334.901 325.855 314.067 252.599 241.631 234.075 232.019 207.998 182.446 234.53 167.669 160.9 145.336 145.146 145.142 135.825 127.608 172.806 141.82 123.004
threshold=0.18333333730697635 0.20833333581686023 0.14583333581686023 1.0000000180025095e-35 0.20833333581686023 0.20833333581686023 9.3125000000000018 2.6458333730697636 3.5625000000000004 6.0625000000000009 2.2875000238418584 5.0625000000000009 0.17708333581686023 0.68750000000000011 1.7083333134651186 0.17500000447034839 21.125000000000004 99.500000000000014 3.5000000000000004 7.6875000000000009 42.500000000000007 8.5625000000000018 1.7083333134651186 0.20833333581686023 0.17708333581686023 22.500000000000004 67.500000000000014 6.0250000953674325 2.5000000000000004 1.7916666865348818
decision_type=2 2 2 2 2 2 2 2 2 2 2 2 2 2 2 2 2 2 2 2 2 2 2 2 2 2 2 2 2 2
left_child=1 2 3 4 5 -1 -6 12 14 10 15 17 13 23 18 -4 20 -5 19 -3 -9 -14 -20 -2 -12 -11 28 -28 -10 -16
right_child=7 8 9 11 6 -7 -8 16 26 25 24 -13 21 -15 29 -17 -18 -19 22 -21 -22 -23 -24 -25 -26 -27 27 -29 -30 -31
leaf_value=-0.0036167108766973041 0.015511567364432162 0.016823855503595588 0.040581652304425356 0.01605493470265619 0.020352672218953118 0.02373061586489035 0.060219593593724863 0.022760214505959976 0.029955710619858997 0.079791405964285481 0.032595841488869695 0.037667567110999105 0.026450200243283418 0.028817897204569946 0.06084317422716902 0.018528435511893055 0.06057601728381995 0.024948740163260943 0.023270078032829593 0.072162730216202217 0.034065005395176283 0.051982469023488416 0.04274354988725123 0.024600021806943314 0.010954097514445493 0.041415097102828181 0.020242680437389849 0.041918784757723197 0.051771473394236052 0.031339433557017529
leaf_weight=572156.9852630794 7194.2002682387829 6952.5481458604336 454.30887806415558 5572.3142768144608 8189.4397164881229 6872.813467592001 367.15390533208847 1494.3010960817337 424.15077900886536 113.18169590830803 3011.4881205558777 1021.5146539509296 9438.2426449358463 2210.9381869733334 148.05992725491524 9361.3288117051125 261.10985890030861 4131.8323726654053 6000.7159225940704 68.75077611207962 5831.3254390060902 227.92938846349716 367.16414314508438 2034.2288047075272 309.25934222340584 331.55651178956032 713.20197132229805 624.15435376763344 760.31345048546791 949.70897915959358
leaf_count=863943 3149 2566 179 2388 3629 3290 62 312 94 7 820 239 1822 419 14 3779 25 1578 1985 6 1034 23 57 472 79 48 191 113 117 148
internal_value=-3.81002e-05 -0.0012095 -0.00191174 -0.00248402 -0.00292269 -0.00329207 0.0220705 0.0256366 0.0240521 0.0232981 0.0223445 0.0215454 0.0230735 0.0197043 0.0218316 0.0195535 0.0327628 0.0198442 0.0207185 0.0173763 0.0317629 0.0270579 0.0243999 0.0175177 0.0305852 0.0513453 0.036793 0.0303851 0.0439937 0.0353732
internal_weight=657594 628902 611893 598312 587586 579030 8556.59 28692.3 17008.8 13581.1 13136.4 10725.7 21105.5 11439.4 14486.9 9815.64 7586.74 9704.15 13389.2 7021.3 7325.63 9666.17 6367.88 9228.43 3320.75 444.738 2521.82 1337.36 1184.46 1097.77
internal_count=892588 885332 880041 875129 870924 867233 3691 7256 5291 4912 4857 4205 5885 4040 4776 3958 1371 3966 4614 2572 1346 1845 2042 3621 899 55 515 304 211 162
is_linear=0
shrinkage=0.03


Tree=22
num_leaves=31
num_cat=0
split_feature=1 10 3 8 5 6 1 10 5 1 8 9 8 3 9 8 15 15 0 1 6 5 2 6 10 3 1 0 12 5
split_gain=20672.6 12951 9247.24 7978.68 6077.86 4837.67 726.167 495.176 414.198 397.939 370.761 361.053 438.037 308.757 258.357 224.596 217.529 216.499 212.858 147.349 145.269 118.622 113.694 107.596 107.22 92.9296 108.958 192.299 91.5776 96.5604
threshold=0.14583333581686023 1.0000000180025095e-35 0.20833333581686023 0.20833333581686023 0.14583333581686023 0.38750000298023229 25.375000000000004 5.2916667461395273 1.7083333134651186 2.0625000000000004 0.54166665673255932 0.18333333730697635 1.2083333134651186 1.7916666865348818 1.3541666865348818 6.0625000000000009 0.17500000447034839 0.75000000000000011 5.5166666507720956 0.17708333581686023 1.7083333134651186 11.312500000000002 6.4124999046325692 0.18333333730697635 1.0416666865348818 14.937500000000002 10.812500000000002 0.45833332836627966 5.5000000000000009 0.28749999403953558
decision_type=2 2 2 2 2 2 2 2 2 2 2 2 2 2 2 2 2 2 2 2 2 2 2 2 2 2 2 2 2 2
left_child=1 2 3 4 5 -1 9 14 -6 11 16 12 22 -4 18 21 -5 -12 24 -14 23 -9 -2 -15 -3 26 -11 -28 29 -13
right_child=6 7 13 10 8 -7 -8 15 -10 25 17 28 19 20 -16 -17 -18 -19 -20 -21 -22 -23 -24 -25 -26 -27 27 -29 -30 -31
leaf_value=-0.0036003872830764568 0.016835657589822087 0.018302573533071253 0.019362834027927042 0.051808000941397245 0.016517562705186277 0.022787274915489871 0.073626117213461198 0.034391157871941323 0.029863074256497257 0.028136279561550206 0.028620789098032316 0.022386866958934867 0.087534565080577831 0.029056866588061593 0.031548981172147821 0.067524503910803113 0.013807614975597527 0.0073946378386239766 0.050009157694032046 0.033080284061049139 0.052074942342206498 0.091133000423471971 0.035772297140626824 0.0096400288997476446 0.023982844016858174 0.052674273984057295 0.057199930640911438 0.026012040837713069 0.03609798481402015 0.030641080313479414
leaf_weight=571196.47531116009 11767.529618054628 7089.0438508689404 9534.9688957035542 140.46666207909584 6278.5100502371788 6321.026333540678 270.54532554745674 1389.6446241140366 3145.6425330042839 8063.8622491657734 6645.6215400993824 2742.3807714879513 45.733436584472656 3766.4600908756256 2664.1853834688663 235.16802072525024 3390.7523057758808 463.86754506826401 227.05021607875824 1379.6054533421993 234.20234146714211 33.456157684326172 292.6199631690979 277.50236061215401 5223.2922867536545 154.68793004751205 330.75688600540161 391.78331193327904 1034.4856241643429 2426.7515885829926
leaf_count=863999 4252 3124 3601 50 2848 2702 14 307 1039 1661 2309 540 1 1062 454 16 1634 223 25 231 28 1 44 65 1721 15 51 62 154 355
internal_value=-3.72356e-05 -0.00117848 -0.00189381 -0.00245477 -0.00292153 -0.00331153 0.0247707 0.0247573 0.0209751 0.0243063 0.0232894 0.0219195 0.0191603 0.0223724 0.023056 0.0403305 0.0153343 0.0272375 0.0212489 0.0348898 0.0290733 0.0357903 0.0172983 0.0277279 0.0207143 0.0295589 0.0291457 0.0403524 0.027913 0.0262677
internal_weight=657158 628257 611395 597582 586942 577518 28900.7 16861.8 9424.15 28630.2 10640.7 19689.1 13485.5 13813.1 15203.6 1658.27 3531.22 7109.49 12539.4 1425.34 4278.16 1423.1 12060.1 4043.96 12312.3 8941.09 8786.4 722.54 6203.62 5169.13
internal_count=892588 885208 879560 874804 870588 866701 7380 5648 3887 7366 4216 5577 4528 4756 5324 324 1684 2532 4870 232 1155 308 4296 1127 4845 1789 1774 113 1049 895
is_linear=0
shrinkage=0.03


Tree=23
num_leaves=31
num_cat=0
split_feature=11 11 11 4 7 8 8 3 2 13 11 6 11 5 9 7 3 13 15 2 11 15 15 11 2 15 0 11 15 11
split_gain=33240 95809.5 19046.3 6923.36 3885.91 3544.6 3530.32 3139.75 2831.81 2810.31 2496.84 2132.81 1986.46 1680.18 1576.22 1371.22 1023.44 1092.7 926.524 828.625 553.144 446.398 313.017 282.452 262.29 288.516 262.031 231.765 220.913 213.173
threshold=7.5000000000000009 18.500000000000004 9.5000000000000018 0.20833333581686023 0.20833333581686023 0.20833333581686023 0.20833333581686023 0.29166667163372045 0.20833333581686023 1.0000000180025095e-35 20.500000000000004 0.38750000298023229 17.500000000000004 0.20833333581686023 0.18333333730697635 0.20833333581686023 0.20833333581686023 1.0000000180025095e-35 0.84999999403953563 0.43750000000000006 15.500000000000002 0.25000000745058065 0.57499998807907116 19.500000000000004 0.43750000000000006 0.57499998807907116 4.5625000000000009 19.500000000000004 0.25000000745058065 11.500000000000002
decision_type=2 2 2 2 2 2 2 2 2 2 2 2 2 2 2 2 2 2 2 2 2 2 2 2 2 2 2 2 2 2
left_child=3 2 15 5 7 8 12 9 11 10 -3 13 14 -1 -4 16 17 -2 -14 -11 29 23 -13 -6 26 -26 -5 -9 -22 -8
right_child=1 4 6 24 21 -7 20 27 -10 19 -12 22 18 -15 -16 -17 -18 -19 -20 -21 28 -23 -24 -25 25 -27 -28 -29 -30 -31
leaf_value=0.0037530667050067051 -0.015752889596325773 0.00050271791573490681 -0.038577045901763703 0.021447888795944271 0.055784031317812413 0.022967137964766782 0.011830247409371386 0.041535617756147766 0.021099258412558441 -0.0025601333488911664 0.0094166913986187609 0.016574637808137713 -0.028025876203466079 0.020573328482115887 0.010087519318321003 0.02103525726813826 0.020527201086582986 -0.0048541687028335143 -0.0028032534203279976 0.026902855833778595 0.050745401071759309 0.022502488071531691 0.031062660720412735 0.031579286023874553 0.02280021245587693 0.037020957082389609 0.042712660385236599 0.025101496475505039 0.015358519532530392 -0.028669538611210455
leaf_weight=291989.47949129343 24795.699831217527 40158.500004976988 71534.649042636156 12003.843880146742 614.50846460461617 10094.680063486099 244.38721466064453 941.34403082728386 9424.9668425619602 42793.61476919055 95622.928048491478 3035.6859193742275 9851.3912131488323 5443.6197584867477 603.595717638731 1212.759437918663 884.15182638168335 12432.378968328238 1512.4673379659653 875.69633311033249 364.40269017219543 5754.3324043750763 2414.3273334801197 1503.8757607340813 2410.2053266167641 2770.8084382414818 545.742336332798 4390.146410793066 283.43474480509758 222.53182390332222
leaf_count=305029 50440 51593 273965 2892 73 2517 316 209 2415 54160 83601 883 31515 1612 1013 473 415 21110 2969 227 115 1384 594 298 378 335 60 1056 373 568
internal_value=-3.63913e-05 -0.00703206 -0.0276076 0.00647518 0.00620498 0.00547139 -0.0356248 0.00532543 0.0049058 0.00465127 0.00678035 0.00440182 -0.0363328 0.00406099 -0.0381697 -0.0103562 -0.0113557 -0.0121136 -0.0246697 -0.00196864 0.0173949 0.0268455 0.0229978 0.0386251 0.024726 0.0304117 0.0223762 0.028011 0.0353155 -0.0074854
internal_weight=656730 316597 123942 340133 192655 322403 84616.9 184782 312308 179451 135781 302883 83502.1 297433 72138.2 39325 38112.2 37228.1 11363.9 43669.3 1114.76 7872.72 5450.01 2118.38 17730.6 5181.01 12549.6 5331.49 647.837 466.919
internal_count=892588 575873 383272 316715 192601 313050 310834 190846 310533 189581 135194 308118 309462 306641 274978 72438 71965 71550 34484 54387 1372 1755 1477 371 3665 713 2952 1265 488 884
is_linear=0
shrinkage=0.03


Tree=24
num_leaves=31
num_cat=0
split_feature=9 2 7 3 4 6 2 10 9 7 4 1 3 4 7 1 6 6 10 7 15 14 14 6 10 9 14 12 14 3
split_gain=18702.2 11812.1 7989.8 6850.98 5155.35 4610.57 551.357 369.461 361.944 341.106 299.271 296.565 287.387 250.019 208.661 176.723 166.396 145.645 140.102 157.733 157.702 137.063 129.924 129.503 119.563 152.836 115.268 113.386 127.922 114.561
threshold=0.18333333730697635 0.20833333581686023 0.14583333581686023 0.20833333581686023 0.14583333581686023 0.18333333730697635 2.9583333730697636 5.8750000000000009 1.4375000000000002 2.5416666269302373 7.3125000000000009 0.17708333581686023 1.8958333134651186 8.5625000000000018 1.5625000000000002 3.6458333730697636 2.9375000000000004 15.604166507720949 0.29166667163372045 0.29166667163372045 0.57499998807907116 155.50000000000003 156.50000000000003 4.0625000000000009 0.45833332836627966 0.34166666865348821 126.50000000000001 5.5000000000000009 71.500000000000014 3.1875000000000004
decision_type=2 2 2 2 2 2 2 2 2 2 2 2 2 2 2 2 2 2 2 2 2 2 2 2 2 2 2 2 2 2
left_child=1 2 3 4 5 -1 15 9 11 -4 17 14 -5 -6 -2 27 -9 18 19 -10 -20 23 -14 -13 -16 -26 -12 29 -29 -3
right_child=8 6 7 12 13 -7 -8 16 10 -11 26 21 22 -15 24 -17 -18 -19 20 -21 -22 -23 -24 -25 25 -27 -28 28 -30 -31
leaf_value=-0.0034787762860146311 0.016241530533429468 0.016424000779341419 0.018092433355272379 0.018500865294597095 0.018286471433184341 0.019503654066292883 0.031290757165712342 0.032144549548815134 0.025904283378189535 0.030253164728590087 0.05295756224220647 0.026223033249277883 0.027520984187417087 0.044590006482894663 0.019047092121857144 0.034315183145740016 0.073003089330281282 0.055118878902326592 0.023188839175013021 0.015663673460656533 0.033974379397497943 0.040123365084755773 0.049247368182915308 0.0066130015495419149 0.057996140991779993 0.027425790211605485 0.010514316287895854 0.015084430133617623 0.029729680579924336 0.027112967661252207
leaf_weight=566520.34302265942 9401.371771633625 11222.05297061801 9864.0530191361904 7760.0305282175541 9064.9006727039814 7965.5280280709267 4325.4987754821777 196.28607478737831 5261.6695787608624 2634.1748771965504 524.20701944828033 4095.9802530705929 2591.2464723885059 337.08348849415779 537.30271551012993 662.02926060557365 169.49514526128769 156.69781875610352 2013.466410368681 1833.2207972407341 3152.6787120699883 597.1416412293911 275.62633204460144 328.61180889606476 228.82347124814987 422.63236343860626 65.517602026462555 840.34088358283043 1508.6940537393093 984.48887100815773
leaf_count=863264 3542 3909 3989 3159 3882 3453 878 31 1511 726 51 712 812 77 105 113 11 12 353 366 440 78 54 59 19 68 14 301 423 176
internal_value=-3.7431e-05 -0.00112011 -0.00185879 -0.00236495 -0.00279943 -0.00316008 0.0218361 0.0215315 0.0236783 0.0206579 0.0273773 0.0205947 0.0215053 0.0192345 0.017743 0.0191466 0.0512331 0.0263809 0.026009 0.0232613 0.0297767 0.0266031 0.0296273 0.0247691 0.0295912 0.0382406 0.048273 0.0184542 0.0245004 0.0172885
internal_weight=655541 626922 607379 594515 583888 574486 19543.1 12864 28619.3 12498.2 13007.5 15611.9 10626.9 9401.98 10590.1 15217.6 365.781 12417.7 12261 7094.89 5166.15 5021.73 2866.87 4424.59 1188.76 651.456 589.725 14555.6 2349.03 12206.5
internal_count=892588 885258 879458 874701 870676 866717 5800 4757 7330 4715 2747 4583 4025 3959 3734 4922 42 2682 2670 1877 793 849 866 771 192 87 65 4809 724 4085
is_linear=0
shrinkage=0.03


Tree=25
num_leaves=31
num_cat=0
split_feature=11 11 11 1 10 4 10 12 11 11 15 11 11 6 12 10 7 15 8 12 1 2 10 8 8 4 7 15 8 10
split_gain=31290.3 72385.5 37710.6 5514.99 3680.39 3385.35 3055.14 2556.23 2449.16 2425.65 2287.4 2236.86 2106.11 1420.51 1221.8 1218.66 1214.35 1146.23 981.639 950.601 766.278 743.473 627.814 560.037 493.104 436.85 383.058 352.422 348.017 286.036
threshold=6.5000000000000009 18.500000000000004 9.5000000000000018 1.0000000180025095e-35 0.20833333581686023 0.20833333581686023 1.0000000180025095e-35 5.5000000000000009 1.5000000000000002 8.5000000000000018 0.17500000447034839 17.500000000000004 20.500000000000004 0.38750000298023229 1.0000000180025095e-35 0.20833333581686023 0.29166667163372045 0.84999999403953563 0.54166665673255932 4.5000000000000009 25.375000000000004 0.20833333581686023 0.45833332836627966 0.43750000000000006 0.20833333581686023 0.28749999403953558 0.20833333581686023 0.25000000745058065 0.20833333581686023 0.70833334326744091
decision_type=2 2 2 2 2 2 2 2 2 2 2 2 2 2 2 2 2 2 2 2 2 2 2 2 2 2 2 2 2 2
left_child=3 2 9 6 7 11 8 10 14 18 26 15 -12 16 28 -4 -10 -13 19 -2 29 25 24 -16 -11 -9 -3 -7 -1 -5
right_child=1 4 5 20 -6 27 -8 21 13 22 12 17 -14 -15 23 -17 -18 -19 -20 -21 -22 -23 -24 -25 -26 -27 -28 -29 -30 -31
leaf_value=-0.011995890050854004 -0.0061818409353380892 0.019121051345297856 -0.038478070968556571 0.020400431590522135 0.026656923932249624 0.035468868386996005 0.022478147231436672 -0.0066870184541172302 0.0062615305842204519 -0.018073258119409543 0.00011007986948286901 -0.027562401180388229 0.0077619988984806987 0.022926079090314123 0.0014349689324474691 0.0059638547642155825 0.02336691240182753 6.8641407244562843e-05 0.021352047927687141 0.0022012225454530287 0.076682834282951848 0.026055806693515704 0.019928486707087297 0.022767708698853143 0.022646014584241692 0.025729006891797374 0.053820672366202749 0.0018815409539945029 0.033824980110153467 0.029432391941282034
leaf_weight=7273.8347966372967 36202.196129411459 9960.8940587341785 69491.162784844637 12836.432743787766 7467.4607753753662 461.96758922934532 9708.4255123138428 18905.856333136559 204388.20290383697 14347.444065719843 46014.844781190157 9674.8402473032475 109202.15797176957 4893.1102214455605 60104.859735459089 559.42019021511078 3804.0795766115189 1570.2647486031055 1484.7367558479309 18340.58319863677 238.58189582824707 670.93396800756454 418.1734002828598 1127.3804086446762 271.86915871500969 380.71272966265678 294.25971066951752 716.79665264487267 151.33318409323692 4197.2980037331581
leaf_count=10681 52555 7850 273938 2744 1729 263 2399 26509 194481 35039 59518 31527 96651 1139 65080 1041 1029 2971 398 22342 9 165 166 319 160 132 47 1094 57 555
internal_value=-3.65751e-05 -0.00622564 -0.0215961 0.00690852 0.00600873 -0.035397 0.00593234 0.00517705 0.00536211 -0.00557913 0.00640033 -0.0361289 0.00549358 0.00694981 0.000434444 -0.038123 0.0065742 -0.0237041 -0.00270753 -0.0033629 0.023379 -0.00496508 -0.0162772 0.00182815 -0.0173143 -0.00604568 0.0201222 0.0150661 -0.0110572 0.0226278
internal_weight=655160 346437 153539 308724 192897 82474.5 291451 185430 281743 71065 165472 81295.7 155217 213085 68657.4 70050.6 208192 11245.1 56027.5 54542.8 17272.3 19957.5 15037.5 61232.2 14619.3 19286.6 10255.2 1178.76 7425.17 17033.7
internal_count=892588 614095 421494 278493 192601 310834 275185 190872 272786 110660 164066 309477 156169 196649 76137 274979 195510 34498 75295 74897 3308 26806 35365 65399 35199 26641 7897 1357 10738 3299
is_linear=0
shrinkage=0.03


Tree=26
num_leaves=31
num_cat=0
split_feature=11 11 11 4 10 8 8 0 15 3 11 12 11 1 9 1 9 11 15 11 11 12 11 0 3 9 10 6 11 15
split_gain=29506 87991.5 18622.5 5677.2 3434.81 3366.81 2984.35 2694.81 2488.61 2410.97 2327.87 2186.8 2041.24 1865.87 1535 1223.98 997.514 914.069 871.283 854.455 500.717 373.471 257.862 232.277 227.275 222.215 216.596 220.341 202.079 192.377
threshold=7.5000000000000009 18.500000000000004 9.5000000000000018 0.20833333581686023 0.20833333581686023 0.20833333581686023 0.20833333581686023 0.78749999403953563 0.17500000447034839 0.20833333581686023 20.500000000000004 1.0000000180025095e-35 17.500000000000004 4.8125000000000009 0.18333333730697635 0.29166667163372045 1.0000000180025095e-35 8.5000000000000018 0.84999999403953563 1.5000000000000002 15.500000000000002 1.5000000000000002 19.500000000000004 25.72500038146973 1.2083333134651186 1.4375000000000002 9.9375000000000018 2.9375000000000004 11.500000000000002 0.25000000745058065
decision_type=2 2 2 2 2 2 2 2 2 2 2 2 2 2 2 2 2 2 2 2 2 2 2 2 2 2 2 2 2 2
left_child=3 2 15 6 7 12 9 8 21 11 -10 19 14 -13 -4 16 17 -2 -14 -1 28 -3 -6 -9 -11 -5 -24 -28 -7 -22
right_child=1 4 5 25 22 20 -8 23 10 24 -12 13 18 -15 -16 -17 -18 -19 -20 -21 29 -23 26 -25 -26 -27 27 -29 -30 -31
leaf_value=-0.012002106087041328 -0.007827815510183975 0.025525817649518241 -0.038245391882066763 0.0206749342056721 0.03744944935121395 0.011493450531940171 0.021098686435858084 0.028620690408409429 -0.0017757183362566084 0.01458216557130307 0.0058740765159522547 0.0049606374521098213 -0.027264545255017522 0.054267116887643102 0.0097823058728702637 0.020828465262346555 0.02062176031089866 -0.017531952328971308 -0.0027236752009817825 -0.00046486155945577615 0.048019920584800355 0.014099196464202803 0.022136465191266823 0.079753239267133264 0.023515583198518 0.028694697625846401 0.017677852878495558 0.089025989571264619 -0.02823827268995226 0.015017631984320164
leaf_weight=7185.6878657639027 22673.211409568787 3963.0990661978722 67818.69240437448 13967.078981757164 1377.0927986204624 243.96788477897644 10223.488122075796 3812.0991450846195 51139.008583396673 5300.8279032707214 119362.88070216775 265491.21067145467 9515.6905412971973 691.56682294607162 603.78406125307083 1132.402097761631 886.31011462211609 14215.875221669674 1509.000402867794 29463.867508172989 365.86904752254486 7369.0837597250938 5975.043325483799 81.0921271443367 4982.8751970529556 4015.4476543664932 70.556544035673141 88.0296630859375 216.52047571539879 283.35220053792
leaf_count=10678 36587 2621 273965 3125 276 316 2517 752 69275 1475 111684 263880 31515 93 1013 440 415 34996 2969 33378 115 6536 1433 4 1029 540 19 1 568 373
internal_value=-3.75539e-05 -0.00669481 -0.0269343 0.00606149 0.00581783 -0.0351659 0.005149 0.00501341 0.00448453 0.00462816 0.00357964 0.004143 -0.0358908 0.00508895 -0.0378214 -0.0098906 -0.0108121 -0.0115679 -0.0239063 -0.00272726 0.0167131 0.0180975 0.0257061 0.0297067 0.0189129 0.0224674 0.0230634 0.057611 -0.00720251 0.033666
internal_weight=654025 312703 119465 341322 193238 80556.9 323340 185727 181834 313116 170502 302832 79447.2 266183 68422.5 38907.8 37775.4 36889.1 11024.7 36649.6 1109.71 11332.2 7510.72 3893.19 10283.7 17982.5 6133.63 158.586 460.488 649.221
internal_count=892588 575873 383272 316715 192601 310834 313050 190872 190116 310533 180959 308029 309462 263973 274978 72438 71998 71583 34484 44056 1372 9157 1729 756 2504 3665 1453 20 884 488
is_linear=0
shrinkage=0.03


Tree=27
num_leaves=31
num_cat=0
split_feature=0 3 7 8 4 6 4 0 8 7 3 8 0 10 4 2 0 14 15 2 10 9 2 4 4 14 14 14 8 3
split_gain=16146.2 9307.75 8227.02 5635.93 4894.77 4231.33 539.025 451.105 393.832 355.069 281.846 275.585 233.188 166.658 168.444 199 184.523 151.265 148.585 147.852 140.518 215.632 136.455 136.269 135.748 123.498 122.379 119.076 109.906 108.948
threshold=0.18333333730697635 0.20833333581686023 0.14583333581686023 0.20833333581686023 0.14583333581686023 1.0000000180025095e-35 9.3125000000000018 2.6458333730697636 1.1458333134651186 1.1458333134651186 1.5625000000000002 2.5625000000000004 21.125000000000004 1.3874999880790713 2.6458333730697636 2.1458333730697636 0.51249998807907116 42.500000000000007 0.17500000447034839 10.187500000000002 9.9375000000000018 6.0833332538604745 3.2916666269302373 0.68750000000000011 3.1458333730697636 76.500000000000014 26.500000000000004 29.500000000000004 0.20833333581686023 1.0000000180025095e-35
decision_type=2 2 2 2 2 2 2 2 2 2 2 2 2 2 2 2 2 2 2 2 2 2 2 2 2 2 2 2 2 2
left_child=1 2 3 4 5 -1 -6 13 9 18 24 27 17 14 15 16 -2 -9 -4 -11 21 -10 25 -14 -3 -16 -22 -5 -17 -19
right_child=7 10 8 11 6 -7 -8 12 20 19 -12 -13 23 -15 22 28 -18 29 -20 -21 26 -23 -24 -25 -26 -27 -28 -29 -30 -31
leaf_value=-0.0032772452548894965 0.012539244566520651 0.016989073091683477 0.034864740747359069 0.023441485801760503 0.017675212960407697 0.019061866443269401 0.056067665121010551 0.01851271385616424 0.027329043802665091 0.023744153654135514 0.025517026102456142 0.029022110746122043 0.068358095669880478 0.025699398932343728 0.041610034169986279 0.020456501461932272 0.019256138182650435 0.032584024549750762 0.013114158710785211 0.073295641801166725 0.08319773855310679 0.061680388764452726 0.0041763965904443546 0.018329384231943368 0.035566727130922161 0.022201057299041066 0.028390692614066217 0.015024608420992038 0.035142932704181541 0.024347044685332362
leaf_weight=564141.24244865775 6471.0143391191959 11018.922633677721 295.38256448507309 2003.9339543282986 8835.395305454731 7734.7333056479692 341.20811846852303 1541.1907659173012 1538.5707766413689 5766.4909422397614 6272.9221712350845 2203.0002387464046 195.0953862965107 3281.2975109219551 609.06440734863281 1089.8265186548233 8578.1025873422623 3432.0537160336971 6399.0631740987301 54.012331008911133 90.961665630340576 184.35468292236328 181.39594221115112 66.780010759830475 366.02463337779045 582.73094195127487 63.809004247188568 6254.3065526485443 802.3667111992836 2540.0496730208397
leaf_count=863509 2353 3848 124 693 3751 3377 57 312 310 1814 1558 635 16 516 73 214 2495 671 2730 2 2 13 33 9 55 100 8 2846 101 363
internal_value=-3.84027e-05 -0.00106228 -0.001688 -0.00223331 -0.00262625 -0.00297507 0.019109 0.0216984 0.0207217 0.018796 0.0204073 0.0195898 0.0278979 0.019465 0.0183465 0.0175248 0.0163691 0.0269201 0.0140794 0.024217 0.033538 0.0310401 0.0284618 0.0557301 0.0175897 0.0321491 0.0609484 0.01707 0.026701 0.0290858
