tree
version=v4
num_class=1
num_tree_per_iteration=1
label_index=0
max_feature_idx=14
objective=poisson
feature_names=recent_h1 recent_h2 recent_h3 recent_h4 same_hour_d1 same_hour_d2 same_hour_d3 same_hour_d4 same_hour_wd_w1 same_hour_wd_w2 same_hour_wd_w3 hour weekday is_weekend horizon
feature_infos=[0:84] [0:85] [0:121] [0:49] [0:88] [0:121] [0:76] [0:107] [0:58] [0:85] [0:60] [0:23] [0:6] [0:1] [0:168]
tree_sizes=1720 1741 1726 1747 1731 1728 1755 1761 1759 1761 1757 1777 1779 1786 1797 1784 1793 1794 1786 1797 1789 1802 1799 1787 1803 1786 1805 1797 1807 1794 1813 1807 1817 1796 1810 1800 1815 1816 1802 1809 1829 1806 1825 1827 1820 1815 1820 1813 1831 1828 1816 1812 1816 1814 1805 1810 1827 1824 1810 1796 1825 1806 1793 1811 1806 1818 1794 1811 1808 1829 1791 1825 1813 1808 1818 1827 1810 1825 1814 1814 1816 1798 1828 1831 1789 1829 1795 1824 1819 1788 1832 1793 1813 1828 1793 1820 1802 1831 1817 1805 1821 1791 1816 1823 1789 1790 1795 1818 1824 1811 1793 1811 1793 1803 1814 1794 1799 1824 1808 1803 1816 1818 1799 1800 1798 1799 1800 1795 1825 1799 1804 1827 1824 1796 1809 1800 1804 1790 1803 1809 1824 1815 1797 1799 1812 1796 1804 1820 1789 1802 1809 1812 1802 1822 1791 1799 1786 1792 1821 1794 1819 1788 1794 1794 1815 1801 1812 1792 1816 1787 1808 1780 1828 1785 1813 1805 1794 1817 1797 1803 1775 1792 1588 1781 1782 1784 1793 1793 1808 1777 1773 1588 1769 1805 1776 1817 1784 1777 1793 1811 1771 1692 1782 1791 1682 1794 1674 1779 1795 1684 1812 1787 1684 1794 1805 1791 1585 1772 1790 1778 1691 1793 1803 1690 1773 1788 1808 1791 1814 1778 1803 1780 1810 1779 1689 1694 1800 1697 1795 1803 1790 1774 1809 1798 1798 1798 1811 1788 1798 1771 1814 1573 1811 1559 1789 1801 1792 1684 1795 1797 1793 1805 1786 1787 1598 1813 1778 1570 1781 1699 1808 1809 1235 1791 1802 1780 1790 1789 1783 1579 1811 1685 1244 1324 1773 1590 1238 1806 1803 1211 1322 1775 1236 1787 1322 1794 1646 1234 1781

Tree=0
num_leaves=15
num_cat=0
split_feature=0 4 9 3 11 11 4 2 11 9 3 9 11 11
split_gain=159467 59754.2 58433.5 40485.2 27691.6 27146.6 21847.4 20968.4 13090.4 13004 12651.3 12241.4 7175.06 6425.73
threshold=1.0000000180025095e-35 1.0000000180025095e-35 1.0000000180025095e-35 1.0000000180025095e-35 7.5000000000000009 6.5000000000000009 2.5000000000000004 2.5000000000000004 6.5000000000000009 1.0000000180025095e-35 5.5000000000000009 1.0000000180025095e-35 6.5000000000000009 18.500000000000004
decision_type=2 2 2 2 2 2 2 2 2 2 2 2 2 2
left_child=2 7 3 4 -1 9 8 11 -4 -3 -5 -2 -8 -7
right_child=1 5 6 10 -6 13 12 -9 -10 -11 -12 -13 -14 -15
leaf_value=-2.0569407089741092 -1.904737447605489 -1.2035436572652938 -1.6920954706249649 -1.8980988707403925 -2.0836806702629946 -1.7787703612648249 -0.89973882337095401 -1.3084998730413542 -1.9561270002944844 -0.50618108199408463 -1.5319706087062999 -1.5193595447589154 -1.5672990859973805 -1.3185866048282358
leaf_weight=147375.35462883115 1694.4896004498005 137.75511676073074 744.18262338638306 1689.660546541214 282244.73043808341 156.56301093101501 75.739898145198822 190.87470975518227 1271.5661423504353 129.87613406777382 274.23942986130714 234.59035566449165 85.906327426433563 147.15906384587288
leaf_count=579851 6667 542 2928 6648 1110497 616 298 751 5003 511 1079 923 338 579
internal_value=-2.06979 -1.6861 -2.07217 -2.07347 -2.07451 -1.23228 -1.8138 -1.80841 -1.85865 -0.865127 -1.84697 -1.85787 -1.25451 -1.5558
internal_weight=436453 2691.31 433761 431584 429620 571.353 2177.39 2119.95 2015.75 267.631 1963.9 1929.08 161.646 303.722
internal_count=1717231 10589 1706642 1698075 1690348 2248 8567 8341 7931 1053 7727 7590 636 1195
is_linear=0
shrinkage=1


Tree=1
num_leaves=15
num_cat=0
split_feature=1 7 11 3 11 11 11 10 11 2 1 11 8 8
split_gain=109657 50335.7 29202.8 23740.5 17904.1 15977.3 13175.1 10964.5 6261.5 4723.24 3619.12 3346.38 3044.02 2569.48
threshold=1.0000000180025095e-35 1.0000000180025095e-35 6.5000000000000009 1.0000000180025095e-35 20.500000000000004 6.5000000000000009 18.500000000000004 1.0000000180025095e-35 6.5000000000000009 1.5000000000000002 1.5000000000000002 8.5000000000000018 1.5000000000000002 18.500000000000004
decision_type=2 2 2 2 2 2 2 2 2 2 2 2 2 2
left_child=1 2 3 -1 -4 9 11 8 -3 12 -8 -7 -2 -9
right_child=5 7 4 -5 -6 6 10 13 -10 -11 -12 -13 -14 -15
leaf_value=0.014115420226079384 0.28371637933197907 0.2777472977480494 -0.018136113389923585 0.26827281095482669 0.013446409748388372 0.21062897043595419 0.19742692390058295 0.40639458607335116 0.099378950941763369 0.49508704928248631 0.41392447110565955 0.013320603729322103 0.50369124969507595 0.96690541753404635
leaf_weight=131442.84111624956 902.94581991434097 800.45855996012688 243704.31756752729 925.27491962909698 55002.295655280352 289.22326570749283 318.5513086616993 469.82558861374855 1276.8881506323814 616.63769772648811 489.91035690903664 836.1758676469326 190.43726250529289 21.376685053110123
leaf_count=508450 2797 2667 968061 2748 218646 963 1073 1213 4802 1090 1406 2950 329 36
internal_value=-4.73803e-05 -0.00234258 -0.00365753 0.015892 -0.0123207 0.273095 0.174642 0.218343 0.168109 0.384435 0.32862 0.0640281 0.32203 0.430788
internal_weight=437287 433643 431075 132368 298707 3643.88 1933.86 2568.55 2077.35 1710.02 808.462 1125.4 1093.38 491.202
internal_count=1717231 1706623 1697905 511198 1186707 10608 6392 8718 7469 4216 2479 3913 3126 1249
is_linear=0
shrinkage=0.05


Tree=2
num_leaves=15
num_cat=0
split_feature=5 2 11 8 11 11 11 11 11 9 2 5 4 4
split_gain=86933.5 47296.5 27433 20059 18805.3 7563.88 10624.9 5438.33 6738.95 2141.75 1894.6 1629.66 1592.46 1149.07
threshold=1.0000000180025095e-35 1.0000000180025095e-35 7.5000000000000009 1.0000000180025095e-35 18.500000000000004 7.5000000000000009 18.500000000000004 6.5000000000000009 18.500000000000004 14.500000000000002 41.500000000000007 1.5000000000000002 1.5000000000000002 19.500000000000004
decision_type=2 2 2 2 2 2 2 2 2 2 2 2 2 2
left_child=1 2 3 -1 -4 11 -7 10 -9 -8 -3 13 -13 -2
right_child=5 7 4 -5 -6 6 9 8 -10 -11 -12 12 -14 -15
leaf_value=0.01180886865456912 0.22208561028631643 0.25478733446137042 -0.022127767599400744 0.23108542939902674 0.0056386854192635241 0.03551705398073305 0.26109928534017252 0.043780625590097336 0.24430757293702832 0.66959140917501225 1.1680613729511304 0.3627477108619539 0.25990281381352481 0.77557251394051696
leaf_weight=152072.42515921593 754.10604473948479 1494.1888284087181 186637.28024145961 1050.1546231806278 90570.584452927113 942.89097860455513 856.33281373977661 997.66957104206085 722.30914744734764 33.337141364812851 5.7004386186599723 872.08482739329338 662.2014653980732 9.4952311813831312
leaf_count=579790 1888 3425 756063 3038 358878 3372 2437 3442 2073 55 9 2118 634 9
internal_value=-6.96662e-05 -0.00224469 -0.0036732 0.0133127 -0.0130558 0.22823 0.152464 0.188673 0.127992 0.276406 0.258258 0.288654 0.31836 0.228968
internal_weight=437681 433550 430330 153123 277208 4130.45 1832.56 3219.87 1719.98 889.67 1499.89 2297.89 1534.29 763.601
internal_count=1717231 1706718 1697769 582828 1114941 10513 5864 8949 5515 2492 3434 4649 2752 1897
is_linear=0
shrinkage=0.05


Tree=3
num_leaves=15
num_cat=0
split_feature=6 2 11 11 10 11 11 6 11 11 11 11 2 3
split_gain=68480.8 39955.2 26403.1 18360.3 18091.8 3982.61 5133.48 3625.43 2382.87 2256.93 1768.46 3518.79 1367.55 934.594
threshold=1.0000000180025095e-35 1.0000000180025095e-35 7.5000000000000009 18.500000000000004 1.0000000180025095e-35 7.5000000000000009 18.500000000000004 2.5000000000000004 6.5000000000000009 18.500000000000004 18.500000000000004 8.5000000000000018 3.5000000000000004 5.5000000000000009
decision_type=2 2 2 2 2 2 2 2 2 2 2 2 2 2
left_child=1 2 4 -4 -1 12 -7 8 13 -10 11 -9 -3 -2
right_child=7 5 3 -5 -6 6 -8 10 9 -11 -12 -13 -14 -15
leaf_value=0.011372939641990255 0.18323239185051726 0.17171305344759716 -0.022103201840611705 0.0053635689556326823 0.209924122432912 0.016557056752454519 0.18471080160914977 0.24328497617748104 0.039756388550097506 0.1774642308342039 0.31831661824007185 0.056372222084514971 0.25455939121753957 0.34369789247045079
leaf_weight=154331.76064771414 1133.5582118034363 1322.6159152090549 182571.00857818127 91251.785109952092 1155.8938643336296 892.80704802274704 923.21245667338371 1476.6093661189079 709.13581371307373 512.62152314186096 494.25042872130871 303.56586840748787 799.06608453392982 98.635877817869186
leaf_count=579809 2346 2777 755977 358923 3028 3004 2073 2056 2573 1432 1015 1040 1102 76
internal_value=-8.63863e-05 -0.00215185 -0.00360605 -0.0129499 0.012849 0.156393 0.102042 0.189166 0.147016 0.0975355 0.234643 0.211412 0.202915 0.196077
internal_weight=437977 433248 429310 273823 155488 3937.7 1816.02 4728.38 2453.95 1221.76 2274.43 1780.18 2121.68 1232.19
internal_count=1717231 1706693 1697737 1114900 582837 8956 5077 10538 6427 4005 4111 3096 3879 2422
is_linear=0
shrinkage=0.05


Tree=4
num_leaves=15
num_cat=0
split_feature=8 3 11 11 6 3 11 11 8 0 2 11 11 4
split_gain=57895.2 35788.7 24987.5 17946.6 14474.1 2639.05 2336.13 1819.9 1653.02 2142.23 3649.25 1672.44 2972.15 876.546
threshold=1.0000000180025095e-35 1.0000000180025095e-35 7.5000000000000009 20.500000000000004 1.0000000180025095e-35 3.5000000000000004 21.500000000000004 8.5000000000000018 7.5000000000000009 1.0000000180025095e-35 22.500000000000004 5.5000000000000009 18.500000000000004 1.0000000180025095e-35
decision_type=2 2 2 2 2 2 2 2 2 2 2 2 2 2
left_child=1 2 4 -4 -1 7 -7 -3 11 10 -10 -2 -13 -11
right_child=8 5 3 -5 -6 6 -8 -9 9 13 -12 12 -14 -15
leaf_value=0.010769420260789885 0.17701831821899483 0.15000960765460788 -0.01945041002616266 0.012171035674449666 0.17017493293484742 0.17407380454795737 0.37666565187876144 0.067421658643978519 0.29343632598352232 0.26321409352513353 2.0452915111988337 0.070246593615424957 0.18673391722708327 0.12991217322401594
leaf_weight=156286.67428255081 2228.4140953123569 1483.6517471671104 213855.89702545106 56784.670423030853 1437.1485478878021 1370.5168060660362 158.7815865278244 1211.9119838476181 398.88069316744804 161.08685848116875 2.9949943125247946 1388.365055128932 904.22160117328167 526.03879791498184
leaf_count=579765 3079 2945 896246 218598 3120 2135 251 3572 810 201 4 4104 2103 298
internal_value=-9.89631e-05 -0.00216862 -0.00359687 -0.0128157 0.0122219 0.142644 0.195108 0.112878 0.159493 0.214794 0.306492 0.146173 0.11619 0.161163
internal_weight=438199 432589 428364 270641 157724 4224.86 1529.3 2695.56 5610 1089 401.876 4521 2292.59 687.126
internal_count=1717231 1706632 1697729 1114844 582885 8903 2386 6517 10599 1313 814 9286 6207 499
is_linear=0
shrinkage=0.05


Tree=5
num_leaves=15
num_cat=0
split_feature=4 1 11 11 5 11 11 11 11 11 0 4 4 1
split_gain=49297 28163.9 24168.3 15596 13112.2 1851.86 3341.72 1314.2 2306.34 1899 1660.9 968.376 4884.56 955.566
threshold=1.0000000180025095e-35 1.0000000180025095e-35 6.5000000000000009 20.500000000000004 1.0000000180025095e-35 6.5000000000000009 18.500000000000004 20.500000000000004 8.5000000000000018 18.500000000000004 1.0000000180025095e-35 19.500000000000004 21.500000000000004 6.5000000000000009
decision_type=2 2 2 2 2 2 2 2 2 2 2 2 2 2
left_child=1 2 4 -4 -1 13 -7 8 10 -10 -2 -9 -13 -3
right_child=7 5 3 -5 -6 6 -8 11 9 -11 -12 12 -14 -15
leaf_value=0.012019408571114628 0.17770967302213703 0.14271056731431508 -0.017656061645996115 0.01147464499607021 0.17290874875773193 0.030091704218221705 0.15527185929035228 0.17925612987821499 0.022407230219366196 0.14593934453972324 0.11626140928578566 1.6812011818686383 0.1979145586643023 0.22834045491075505
leaf_weight=139676.66263103485 1948.761079788208 1716.9051456749439 229005.05992731452 57478.655379891396 1277.9535630941391 1061.5253255665302 1071.0649383366108 847.43937796354294 840.4518446624279 493.94323989748955 2523.9088323414326 6.5356394052505484 36.813590824604034 402.10179921984673
leaf_count=508574 3894 2842 968136 218605 2628 3367 1970 1563 3030 878 1263 8 37 436
internal_value=-0.000109599 -0.00219809 -0.0034718 -0.0118114 0.0134781 0.125855 0.0929618 0.134498 0.125823 0.0681342 0.143035 0.191047 0.421545 0.15896
internal_weight=438388 431690 427438 286484 140955 4251.6 2132.59 6697.85 5807.06 1334.4 4472.67 890.789 43.3492 2119.01
internal_count=1717231 1706558 1697943 1186741 511202 8615 5337 10673 9065 3908 5157 1608 45 3278
is_linear=0
shrinkage=0.05


Tree=6
num_leaves=15
num_cat=0
split_feature=10 11 11 3 5 9 11 10 11 3 1 6 11 11
split_gain=43241.3 26034.7 19698.3 16034.5 11455.7 8717.37 1599.86 1105.12 861.425 773.555 583.785 795.023 567.966 515.659
threshold=1.0000000180025095e-35 7.5000000000000009 18.500000000000004 1.0000000180025095e-35 1.0000000180025095e-35 1.0000000180025095e-35 8.5000000000000018 1.5000000000000002 1.5000000000000002 2.5000000000000004 9.5000000000000018 1.0000000180025095e-35 8.5000000000000018 21.500000000000004
decision_type=2 2 2 2 2 2 2 2 2 2 2 2 2 2
left_child=1 3 6 4 -1 -4 -3 10 -9 -5 12 -12 -2 -10
right_child=7 2 5 9 -6 -7 -8 8 13 -11 11 -13 -14 -15
leaf_value=0.0099426363670058141 0.11223805246089039 -0.0067512298098952629 0.0052094349457952214 0.10326642493655801 0.13077866170484811 0.15771201984579844 -0.023252272406791882 0.092241407088540894 0.14384961471783894 0.1540785189862027 0.37873101241218282 0.093952639938110538 0.059200863791848024 0.20457668289158795
leaf_weight=159916.47575134039 1292.4306270927191 16204.747933477163 92720.390836924314 1530.4964599311352 1985.7600199878216 946.63516908884048 157071.15339395404 773.46442386507988 3314.28569842875 1466.9568514823914 42.620646610856056 57.668716490268707 828.27434691786766 390.79195827245712
leaf_count=579759 2067 70665 359090 2342 3151 1913 688337 660 4566 1498 38 24 2550 571
internal_value=-0.0001183 -0.00207387 -0.0117229 0.0135462 0.0114247 0.00675069 -0.0217091 0.125935 0.140236 0.128134 0.0970981 0.214977 0.0915236 0.150255
internal_weight=438542 431843 266943 164900 161902 93667 173276 6699.54 4478.54 2997.45 2220.99 100.289 2120.7 3705.08
internal_count=1717231 1706755 1120005 586750 582910 361003 759002 10476 5797 3840 4679 62 4617 5137
is_linear=0
shrinkage=0.05


Tree=7
num_leaves=15
num_cat=0
split_feature=7 11 11 3 8 3 11 11 11 4 4 0 10 3
split_gain=37508.1 24953.4 19168.3 14098.8 10574.8 8954.52 1584.43 980.663 3167.16 1002.52 717.005 379.83 1646.15 353.487
threshold=1.0000000180025095e-35 7.5000000000000009 18.500000000000004 1.0000000180025095e-35 1.0000000180025095e-35 1.0000000180025095e-35 8.5000000000000018 18.500000000000004 9.5000000000000018 1.0000000180025095e-35 13.500000000000002 1.0000000180025095e-35 14.500000000000002 2.5000000000000004
decision_type=2 2 2 2 2 2 2 2 2 2 2 2 2 2
left_child=1 3 6 4 -1 -4 -3 8 9 -2 -10 12 -9 -5
right_child=7 2 5 13 -6 -7 -8 11 10 -11 -12 -13 -14 -15
leaf_value=0.009529889486028115 0.13989843421550896 -0.0067546866949167901 0.004642585020528253 0.097106283951426606 0.12352695470780801 0.13830659242207277 -0.023240973318224934 0.15961444934489347 0.0030968562099536051 0.095265422707317193 0.31540869505244684 0.12019482952541541 0.68989487569086505 0.1292818869616176
leaf_weight=161824.41016635299 2387.5765956789255 16102.726997286081 93061.68480938673 1666.4541383981705 2060.2439216077328 1270.1070341169834 153466.70203819871 820.84662461280823 798.53552976250648 2659.5680939257145 18.810364544391632 758.14987775683403 14.900853723287581 1750.0355847775936
leaf_count=579764 4101 70661 358848 2333 3163 2132 688325 1931 2635 1269 39 521 11 1498
internal_value=-0.000124981 -0.00204785 -0.0116247 0.0130587 0.010963 0.00644227 -0.0216754 0.111045 0.101593 0.116379 0.0102844 0.145822 0.169069 0.113588
internal_weight=438661 431202 263901 167301 163885 94331.8 169569 7458.39 5864.49 5047.14 817.346 1593.9 835.747 3416.49
internal_count=1717231 1706724 1119966 586758 582927 360980 758986 10507 8044 5370 2674 2463 1942 3831
is_linear=0
shrinkage=0.05


Tree=8
num_leaves=15
num_cat=0
split_feature=9 11 11 4 3 3 11 11 11 4 4 6 2 3
split_gain=33517.7 23282.3 18480.7 12279.5 9318.9 6441.38 1639.84 858.564 2322.02 886.124 475.36 445.961 414.354 683.525
threshold=1.0000000180025095e-35 7.5000000000000009 18.500000000000004 1.0000000180025095e-35 1.0000000180025095e-35 1.0000000180025095e-35 8.5000000000000018 18.500000000000004 9.5000000000000018 1.0000000180025095e-35 3.5000000000000004 1.0000000180025095e-35 1.5000000000000002 18.500000000000004
decision_type=2 2 2 2 2 2 2 2 2 2 2 2 2 2
left_child=1 3 6 4 -1 -4 -3 8 9 -2 -5 -10 13 -9
right_child=7 2 5 10 -6 -7 -8 12 11 -11 -12 -13 -14 -15
leaf_value=0.0091110386986157556 0.11707003061827109 -0.006367108208226252 0.004489365844174681 0.10770312292507576 0.10065165847748354 0.1126143674737054 -0.023208966671320039 0.13530472913107616 -0.0085907401705696707 0.079771889865376824 0.1545100819038262 0.087168457796773124 0.088831524318814248 0.50236800968410722
leaf_weight=163438.43043169379 2869.6407442986965 15994.880119159818 93447.40694129467 1669.4032567441463 2828.318353921175 1398.0276532173157 149941.49877971411 1343.8745520710945 695.87599688768387 3577.876357793808 803.50465515255928 147.32442498207092 598.71130794286728 12.80355644226074
leaf_count=579638 4237 70616 358843 2630 3397 2117 688272 2161 2420 1322 925 331 316 6
internal_value=-0.000130995 -0.00215857 -0.0115225 0.0123132 0.0106682 0.00608314 -0.0215856 0.0940586 0.086168 0.0963724 0.122912 0.00814036 0.123479 0.138769
internal_weight=438768 429521 260782 168740 166267 94845.4 165936 9246.11 7290.72 6447.52 2472.91 843.2 1955.39 1356.68
internal_count=1717231 1706438 1119848 586590 583035 360960 758888 10793 8310 5559 3555 2751 2483 2167
is_linear=0
shrinkage=0.05


Tree=9
num_leaves=15
num_cat=0
split_feature=10 11 11 2 6 9 11 11 11 0 10 9 14 14
split_gain=29538.3 22453.2 15985.8 9266.5 7425.28 4508.7 3434.53 559.468 2250.38 730.091 677.571 418.927 321.733 874.465
threshold=1.0000000180025095e-35 6.5000000000000009 20.500000000000004 1.0000000180025095e-35 1.0000000180025095e-35 1.0000000180025095e-35 8.5000000000000018 18.500000000000004 9.5000000000000018 1.0000000180025095e-35 47.500000000000007 2.5000000000000004 36.500000000000007 21.500000000000004
decision_type=2 2 2 2 2 2 2 2 2 2 2 2 2 2
left_child=1 3 6 4 -1 -4 -3 8 9 -2 -10 -5 13 -9
right_child=7 2 5 11 -6 -7 -8 12 10 -11 -12 -13 -14 -15
leaf_value=0.010196619343045193 0.11297918040649453 -0.0025397913043850029 0.01062224370954324 0.098401401337838784 0.10965312987193823 0.12420443341770038 -0.019549106376732017 0.11098049819705472 0.003634972563227824 0.07815952135013815 1.0599238424916306 0.055644867599325604 0.10593663073575879 0.30152968435541938
leaf_weight=146638.68879744411 2876.8193268626928 35467.414646178484 59618.052412778139 3101.0949716567993 1900.9923205673695 886.71220654249191 181812.68822468817 225.68333092331886 801.00510756671429 3158.1108120679855 1.5210834443569172 702.71027427911758 1578.7755571007729 82.1181700527668
leaf_count=508428 4085 142836 218734 3223 2706 1211 829395 294 2677 1271 3 222 2023 123
internal_value=-0.000135769 -0.00198318 -0.0104431 0.0134428 0.0114695 0.0122868 -0.0167726 0.0909486 0.0842976 0.0947579 0.00563703 0.0905026 0.115054 0.161817
internal_weight=438852 430128 277785 152343 148540 60504.8 217280 8724.03 6837.46 6034.93 802.526 3803.81 1886.58 307.802
internal_count=1717231 1706755 1192176 514579 511134 219945 972231 10476 8036 5356 2680 3445 2440 417
is_linear=0
shrinkage=0.05


Tree=10
num_leaves=15
num_cat=0
split_feature=5 11 11 2 0 0 11 0 5 2 6 4 0 2
split_gain=26852.8 21044.4 18022.4 8740.4 6714.44 6050.72 1633.8 418.229 1221.3 671.311 440.659 348.841 308.843 296.381
threshold=1.0000000180025095e-35 7.5000000000000009 18.500000000000004 1.0000000180025095e-35 1.0000000180025095e-35 1.0000000180025095e-35 8.5000000000000018 1.0000000180025095e-35 6.5000000000000009 22.500000000000004 1.5000000000000002 1.0000000180025095e-35 1.5000000000000002 1.0000000180025095e-35
decision_type=2 2 2 2 2 2 2 2 2 2 2 2 2 2
left_child=1 3 6 4 -1 -4 -3 8 9 -2 -10 13 -5 -9
right_child=7 2 5 12 -6 -7 -8 11 10 -11 -12 -13 -14 -15
leaf_value=0.0085667691877600802 0.078127762182231622 -0.006213209738223327 0.0044614178726863421 0.091001925902475952 0.1008145718441989 0.1078587307605634 -0.023100866914070851 0.11523446356776455 0.17176073816755144 0.28460164121172576 0.10019053695598104 0.061901855209568424 0.060875958308567561 0.070682514987351092
leaf_weight=167373.1604115665 4082.7713288068771 15905.624275237322 94340.581730127335 3031.9985157549381 1996.11859151721 1436.45247605443 143832.63696870208 685.40228697657585 558.01413075625896 39.750392079353333 349.94456294178963 3284.2882555425167 1182.5416905283928 819.79416367411613
leaf_count=580022 7307 70650 359024 3397 2806 1927 688418 725 779 13 219 1084 474 386
internal_value=-0.000139521 -0.00201041 -0.0111369 0.0114238 0.00965396 0.00601216 -0.0214193 0.081612 0.0916805 0.0801186 0.144176 0.071037 0.082549 0.0909696
internal_weight=438919 429099 255515 173584 169369 95777 159738 9819.97 5030.48 4122.52 907.959 4789.48 4214.54 1505.2
internal_count=1717231 1706718 1120019 586699 582828 360951 759068 10513 8318 7320 998 2195 3871 1111
is_linear=0
shrinkage=0.05


Tree=11
num_leaves=15
num_cat=0
split_feature=8 11 11 9 3 3 11 9 8 4 4 0 0 0
split_gain=24239.4 20180.2 15274.7 7622.17 5870.71 5549.22 4830.15 681.253 1089.8 592.227 582.942 560.776 512.713 236.376
threshold=1.0000000180025095e-35 6.5000000000000009 18.500000000000004 1.0000000180025095e-35 1.0000000180025095e-35 1.0000000180025095e-35 8.5000000000000018 1.0000000180025095e-35 5.5000000000000009 1.0000000180025095e-35 21.500000000000004 1.0000000180025095e-35 1.0000000180025095e-35 15.500000000000002
decision_type=2 2 2 2 2 2 2 2 2 2 2 2 2 2
left_child=1 3 6 4 -1 -4 -3 8 10 13 -2 -5 -10 -9
right_child=7 2 5 11 -6 -7 -8 9 12 -11 -12 -13 -14 -15
leaf_value=0.0092257164684000168 0.075015951746427459 -0.0024633215920494955 0.0041960141565825851 0.10067254841386673 0.076550827572397562 0.094590290199648597 -0.023097231049334324 0.093531377241472535 0.16656676575550311 0.052173448991368998 0.27211269864529047 0.060018374665072177 0.096148542155657504 0.02549181252149816
leaf_weight=149216.05724993348 3830.4288540929556 35531.700421944261 94789.787168741226 2161.7217544317245 3309.8213791251183 1728.7788299322128 140557.34928570688 1549.9239991307259 568.45483857393265 3684.9350410699844 37.886191010475159 1396.0317608118057 474.05388769507408 139.10671898722649
leaf_count=508307 6977 142830 358899 2657 3067 2107 688290 1258 943 1085 21 475 262 53
internal_value=-0.000142723 -0.00196257 -0.0101712 0.0123742 0.0106867 0.0058151 -0.0189337 0.0757124 0.089174 0.063411 0.0769463 0.0847202 0.134546 0.0879277
internal_weight=438976 428691 272608 156084 152526 96518.6 176089 10284.8 4910.82 5373.97 3868.32 3557.75 1042.51 1689.03
internal_count=1717231 1706632 1192126 514506 511374 361006 831120 10599 8203 2396 6998 3132 1205 1311
is_linear=0
shrinkage=0.05


Tree=12
num_leaves=15
num_cat=0
split_feature=7 11 11 1 4 3 11 0 7 5 4 2 11 2
split_gain=22328.7 19479.9 17177.4 7933.48 5425.85 4714.25 1575.42 580.813 1057.75 687.546 384.957 332.43 303.157 279.03
threshold=1.0000000180025095e-35 7.5000000000000009 18.500000000000004 1.0000000180025095e-35 1.0000000180025095e-35 1.0000000180025095e-35 8.5000000000000018 1.0000000180025095e-35 3.5000000000000004 1.0000000180025095e-35 1.0000000180025095e-35 8.5000000000000018 2.5000000000000004 1.0000000180025095e-35
decision_type=2 2 2 2 2 2 2 2 2 2 2 2 2 2
left_child=1 3 6 4 -1 -4 -3 8 11 -10 -9 -2 -12 -5
right_child=7 2 5 13 -6 -7 -8 10 9 -11 12 -13 -14 -15
leaf_value=0.0079215465207687647 0.064663148748131505 -0.0063661219475737787 0.0039796773590704132 0.088363802521963769 0.082847817624610298 0.083127885699205581 -0.023054952014045938 0.080286311618737172 0.14310809236499564 0.081053821467258313 0.028056561293164063 0.14785969639434871 0.060234631277199691 0.063892379886901871
leaf_weight=171110.25769624114 3372.3528928607702 15763.8379304111 95203.080452024937 2065.9392346441746 2450.8465003073215 1919.2799917161465 137377.20679968596 1620.1214413046837 978.63871569931507 820.71653521060944 1032.4127185344696 124.50129964947701 2515.1681096851826 2670.7124264836311
leaf_count=579917 6227 70661 358848 2690 3061 2132 688325 1099 1624 508 194 60 795 1090
internal_value=-0.000145481 -0.00190745 -0.0109051 0.0107219 0.00897958 0.00554376 -0.0213371 0.0720179 0.083654 0.114804 0.0600924 0.0676253 0.0508702 0.0745658
internal_weight=439025 428561 250263 178298 173561 97122.4 153141 10463.9 5296.21 1799.36 5167.7 3496.85 3547.58 4736.65
internal_count=1717231 1706724 1119966 586758 582978 360980 758986 10507 8419 2132 2088 6287 989 3780
is_linear=0
shrinkage=0.05


Tree=13
num_leaves=15
num_cat=0
split_feature=11 11 5 6 10 11 3 4 2 0 6 4 11 11
split_gain=21187.4 16451.6 8171.19 6213.15 5466.51 5322.85 4534.86 4397.29 1947.11 760.702 748.123 649.042 303.646 273.883
threshold=6.5000000000000009 18.500000000000004 1.0000000180025095e-35 1.0000000180025095e-35 1.0000000180025095e-35 8.5000000000000018 1.0000000180025095e-35 1.0000000180025095e-35 1.0000000180025095e-35 1.0000000180025095e-35 1.0000000180025095e-35 1.5000000000000002 2.5000000000000004 1.5000000000000002
decision_type=2 2 2 2 2 2 2 2 2 2 2 2 2 2
left_child=2 5 4 7 6 8 -1 -3 -2 -5 -7 -4 -13 -6
right_child=1 3 11 9 13 10 -8 -9 -10 -11 -12 12 -14 -15
leaf_value=0.0086906311167871137 -0.0026271009103418703 0.004068283509960237 0.076531534560569645 0.11450678460145483 0.048883059961419 -0.023031696338874256 0.064179456906872698 0.093541171632135947 0.089494263545580585 0.059026300319565461 0.023517973536154146 0.02677067141256876 0.058911945823162719 0.080737039288878112
leaf_weight=152430.36743927002 35602.385568469763 96329.969577103853 4499.7671834230423 1183.4697479009628 904.19071355462074 134403.72548529506 3773.2257340550423 1393.0843268036842 582.99460157752037 1292.6989349424839 868.7155858874321 1172.4820588827133 1968.5648003816605 2659.9396610856056
leaf_count=508327 142839 359085 3420 1917 838 688330 3063 1911 920 530 3036 291 477 2247
internal_value=-0.000147759 -0.00877005 0.0138438 0.00732567 0.0114281 -0.0181763 0.010031 0.00534376 -0.0011429 0.0855429 -0.0227328 0.0643563 0.0469143 0.0726559
internal_weight=439066 271657 167409 100199 159768 171458 156204 97723.1 36185.4 2476.17 135272 7640.81 3141.05 3564.13
internal_count=1717231 1198568 518663 363443 514475 835125 511390 360996 143759 2447 691366 4188 768 3085
is_linear=0
shrinkage=0.05


Tree=14
num_leaves=15
num_cat=0
split_feature=11 11 1 7 7 11 6 9 0 6 3 9 4 11
split_gain=20045.8 15956.5 7163.97 5667.75 5365.57 5281.55 4224.72 4010.9 1837.32 727.824 476.833 461.642 434.942 286.83
threshold=6.5000000000000009 18.500000000000004 1.0000000180025095e-35 1.0000000180025095e-35 1.0000000180025095e-35 8.5000000000000018 1.0000000180025095e-35 1.0000000180025095e-35 1.0000000180025095e-35 1.0000000180025095e-35 1.0000000180025095e-35 1.0000000180025095e-35 1.0000000180025095e-35 2.5000000000000004
decision_type=2 2 2 2 2 2 2 2 2 2 2 2 2 2
left_child=2 5 3 6 7 8 -1 -3 -2 -7 -6 13 -5 -4
right_child=1 4 11 12 10 9 -8 -9 -10 -11 -12 -13 -14 -15
leaf_value=0.0084659839171447662 -0.0026204599427188131 0.0038653421510296058 0.053948876698594855 0.083128800993128638 0.092582584965595793 -0.022989815123196037 0.077839419826058687 0.082438564736351694 0.083429422244521295 0.022394209937326597 0.048347703812972445 0.046620600836070822 0.050172584200778116 0.080678880372329953
leaf_weight=155026.62132671475 35515.193708613515 96627.910898387432 1667.9753671586514 2344.4288128018379 1730.660062789917 131343.55568435788 2226.0925960540771 1651.939820677042 631.35810634493828 889.38817326724529 940.18651980161667 4235.1374055743217 1747.2902483940125 2519.710666000843
leaf_count=508596 142827 359040 1335 2680 2117 688330 2602 1940 932 3036 346 914 569 1967
internal_value=-0.00014955 -0.0086313 0.0133065 0.0109597 0.00708631 -0.0180547 0.00944804 0.00518604 -0.00111746 -0.0226846 0.0770111 0.0582604 0.0690555 0.0700322
internal_weight=439097 269330 169767 161344 100951 168379 157253 98279.9 36146.6 132233 2670.85 8422.82 4091.72 4187.69
internal_count=1717231 1198568 518663 514447 363443 835125 511198 360980 143759 691366 2463 4216 3249 3302
is_linear=0
shrinkage=0.05


Tree=15
num_leaves=15
num_cat=0
split_feature=11 11 5 2 6 4 2 11 1 6 0 4 1 11
split_gain=19011.3 18137.8 7221.46 5148.81 4868.29 4471.73 3759 1806.3 1032.27 708.809 572.834 474.053 305.596 260.644
threshold=7.5000000000000009 18.500000000000004 1.0000000180025095e-35 1.0000000180025095e-35 1.0000000180025095e-35 1.0000000180025095e-35 1.0000000180025095e-35 8.5000000000000018 1.0000000180025095e-35 1.0000000180025095e-35 1.0000000180025095e-35 1.5000000000000002 1.0000000180025095e-35 2.5000000000000004
decision_type=2 2 2 2 2 2 2 2 2 2 2 2 2 2
left_child=2 7 3 5 6 -1 -3 8 -2 -9 -6 -4 -5 -13
right_child=1 4 11 12 10 -7 -8 9 -10 -11 -12 13 -14 -15
leaf_value=0.006980805498940321 -0.0062654218818385919 0.0036120297943587512 0.064826784586642913 0.069023426406001467 0.09445711979615494 0.068962494425198292 0.073383265735261008 -0.022947036087155485 0.10223843379975364 0.02134843102176898 0.049531216880591478 0.023079210447292997 0.04551037453504899 0.051268670828465958
leaf_weight=174877.00754237175 15608.297968715429 96871.469186991453 5374.9858674108982 2702.6395849585533 1382.3874350190163 2959.2152006030083 1969.7079188227654 128358.43612910807 222.32243311405182 909.5299946218729 1457.7635437548161 1262.8245730996132 2827.7085449695587 2338.433993935585
leaf_count=579771 70640 358923 3793 2825 1917 3057 2073 688330 434 3036 530 291 1046 565
internal_value=-0.000150971 -0.0093357 0.0116332 0.00948969 0.00685699 0.00801219 0.00500243 -0.0206831 -0.00474161 -0.0226354 0.071398 0.0554214 0.057001 0.0413837
internal_weight=439123 246780 192343 183367 101681 177836 98841.2 145099 15830.6 129268 2840.15 8976.24 5530.35 3601.26
internal_count=1717231 1125883 591348 586699 363443 582828 360996 762440 71074 691366 2447 4649 3871 856
is_linear=0
shrinkage=0.05


Tree=16
num_leaves=15
num_cat=0
split_feature=11 11 8 9 7 3 3 11 0 9 4 0 3 4
split_gain=18039.5 17656.5 6514.32 5039.65 4289.46 4076.35 3477.11 1803.1 937.948 786.767 710.607 453.38 376.658 326.885
threshold=7.5000000000000009 18.500000000000004 1.0000000180025095e-35 1.0000000180025095e-35 1.0000000180025095e-35 1.0000000180025095e-35 1.0000000180025095e-35 8.5000000000000018 1.0000000180025095e-35 1.0000000180025095e-35 1.0000000180025095e-35 1.0000000180025095e-35 1.0000000180025095e-35 3.5000000000000004
decision_type=2 2 2 2 2 2 2 2 2 2 2 2 2 2
left_child=2 7 3 5 6 -1 -3 8 -2 -4 -9 -5 -6 -11
right_child=1 4 9 11 12 -7 -8 10 -10 13 -12 -13 -14 -15
leaf_value=0.0066186679214878062 -0.00618673959870747 0.0034192254292971683 0.069174363772650085 0.071682918190425424 0.078251590700787244 0.054776995382300624 0.065804688174829082 -0.022886813018619997 0.092053820877973369 0.050311505455253903 0.024016586046281735 0.040410765495877396 0.041102294675000643 0.024987132499834825
leaf_weight=176076.74902501702 15510.238064557314 97091.913061320782 3950.9113021790981 2953.5131319463253 1971.2680709958076 4506.5550921559334 2286.118963599205 125562.92078690231 246.82784327864647 3013.0114221572876 812.76094979047775 1907.571143746376 1043.5063304305077 2208.1082845926285
leaf_count=579717 70644 358848 3434 3002 2117 3439 2132 688336 430 898 3030 529 346 329
internal_value=-0.000152053 -0.00919286 0.0112073 0.00917284 0.00663681 0.00782049 0.00485436 -0.0205966 -0.00464784 0.0523401 -0.0225852 0.0594112 0.0653931 0.0396014
internal_weight=439142 244526 194616 185444 102393 180583 99378 142133 15757.1 9172.03 126376 4861.08 3014.77 5221.12
internal_count=1717231 1125883 591348 586687 363443 583156 360980 762440 71074 4661 691366 3531 2463 1227
is_linear=0
shrinkage=0.05


Tree=17
num_leaves=15
num_cat=0
split_feature=11 11 10 11 10 1 7 5 10 6 4 4 2 0
split_gain=17152.8 14587 5130.43 5089.83 3958.35 3839.5 3520.99 3102.1 1418.5 698.446 657.613 378.399 329.65 258.506
threshold=6.5000000000000009 18.500000000000004 1.0000000180025095e-35 8.5000000000000018 1.0000000180025095e-35 1.0000000180025095e-35 1.0000000180025095e-35 1.0000000180025095e-35 1.0000000180025095e-35 1.0000000180025095e-35 1.0000000180025095e-35 1.0000000180025095e-35 1.0000000180025095e-35 1.0000000180025095e-35
decision_type=2 2 2 2 2 2 2 2 2 2 2 2 2 2
left_child=2 3 5 8 7 6 -1 -3 -2 -5 -4 -6 -7 -12
right_child=1 4 10 9 11 12 -8 -9 -10 -11 13 -13 -14 -15
leaf_value=0.0076099743870268761 -0.0026447911200905439 0.0035846051305911657 0.065670455644194214 -0.022859208782775149 0.081271110064234167 0.064608517629101303 0.065335418686937305 0.072535885323824392 0.068625180453864995 0.020911433577136443 0.054552118673263719 0.045774200903604172 0.040141365787380402 0.030123869382078686
leaf_weight=159186.84016898274 35635.281156286597 98420.241736531258 3625.425555229187 122636.12152585387 1455.2257685959339 2400.5514506697655 2686.1958581805229 1658.7043667733669 712.11165389418602 918.21947288513184 1574.6764989495277 1550.9153552949429 3227.61217045784 3468.4099650382996
leaf_count=508563 142836 359052 3024 688330 1904 2384 2667 1951 923 3036 545 536 965 515
internal_value=-0.00015287 -0.0082406 0.0119205 -0.0176955 0.0064255 0.00997944 0.0085679 0.0047274 -0.00124848 -0.0225339 0.049428 0.0629577 0.0505772 0.0377515
internal_weight=439157 262987 176170 159902 103085 167501 161873 100079 36347.4 123554 8668.51 3006.14 5628.16 5043.09
internal_count=1717231 1198568 518663 835125 363443 514579 511230 361003 143759 691366 4084 2440 3349 1060
is_linear=0
shrinkage=0.05


Tree=18
num_leaves=15
num_cat=0
split_feature=11 11 5 2 8 0 0 11 1 4 0 4 1 11
split_gain=16275.1 16736.4 5287.15 3888.27 3624.89 3518.05 3149.31 1788.27 815.183 697.724 606.75 358.433 279.539 198.647
threshold=7.5000000000000009 18.500000000000004 1.0000000180025095e-35 1.0000000180025095e-35 1.0000000180025095e-35 1.0000000180025095e-35 1.0000000180025095e-35 8.5000000000000018 1.0000000180025095e-35 1.0000000180025095e-35 1.0000000180025095e-35 1.5000000000000002 1.0000000180025095e-35 2.5000000000000004
decision_type=2 2 2 2 2 2 2 2 2 2 2 2 2 2
left_child=2 7 3 5 6 -1 -3 8 -2 -9 -6 -4 -5 -13
right_child=1 4 11 12 10 -7 -8 9 -10 -11 -12 13 -14 -15
leaf_value=0.0063092761900915839 -0.0060128080149214232 0.0032846808630084753 0.052946903219971558 0.058012684064205601 0.082374672256361234 0.061901534955487253 0.065501643213727451 -0.022796406589889778 0.082885432385368954 0.023389560436253887 0.038399919719505606 0.018546724217781703 0.03691341085716706 0.041829404689511608
leaf_weight=179507.45071536303 15398.754433229566 98532.947704583406 6195.9853489398956 3061.854555785656 1478.4904749393463 2891.7062832713127 2076.8085225820541 119978.8491537869 262.26690140366554 823.32987640798092 1670.9056097567081 1394.780867099762 3221.4347101449966 2669.5702086687088
leaf_count=580022 70640 359072 3793 2825 1893 2806 1934 688336 434 3030 544 291 1046 565
internal_value=-0.000153353 -0.00891276 0.0104236 0.0085228 0.00622245 0.00719062 0.00456898 -0.0204208 -0.00452408 -0.0224816 0.059044 0.045378 0.0471951 0.0338394
internal_weight=439165 240222 198943 188682 103759 182399 100610 136463 15661 120802 3149.4 10260.3 6283.29 4064.35
internal_count=1717231 1125883 591348 586699 363443 582828 361006 762440 71074 691366 2437 4649 3871 856
is_linear=0
shrinkage=0.05


Tree=19
num_leaves=15
num_cat=0
split_feature=11 11 11 8 9 6 4 4 4 0 9 0 0 4
split_gain=15467.2 13735 4974.15 4174.43 3455.05 3339.02 2941.19 2838.27 1291.66 699.847 669.814 482.622 414.233 225.846
threshold=6.5000000000000009 18.500000000000004 8.5000000000000018 1.0000000180025095e-35 1.0000000180025095e-35 1.0000000180025095e-35 1.0000000180025095e-35 1.0000000180025095e-35 1.0000000180025095e-35 1.0000000180025095e-35 1.0000000180025095e-35 1.0000000180025095e-35 1.0000000180025095e-35 1.5000000000000002
decision_type=2 2 2 2 2 2 2 2 2 2 2 2 2 2
left_child=3 2 8 4 6 7 -1 -3 -2 -4 -5 -7 -6 -12
right_child=1 5 9 10 12 11 -8 -9 -10 -11 13 -13 -14 -15
leaf_value=0.0071439917125550329 -0.0026446100759248505 0.0032431810090370427 -0.022764403904756307 0.057775719862613019 0.06047412285355374 0.073657982141827824 0.060747241840854532 0.066500622113423905 0.064216879745441255 0.021638612560011455 0.042954063728598155 0.036237087071223716 0.031822634740285086 0.022794701911171805
leaf_weight=162467.02983754873 35675.560828372836 99161.293207883835 117223.34446211159 4215.8472536206245 3180.4129387140274 1674.3284429311752 2600.0126357674599 1805.5425741970539 737.25819325447083 894.16608247160912 2436.4397877454758 1775.1183129549026 2090.8389675617218 3232.6160407066345
leaf_count=508773 142785 359085 688366 3053 2657 1917 2601 1911 974 3000 675 530 475 429
internal_value=-0.000153616 -0.00798178 -0.0174475 0.011094 0.00926084 0.00602703 0.00798831 0.00437438 -0.00129085 -0.0224283 0.0426828 0.0544008 0.0491095 0.0314588
internal_weight=439170 258947 154530 180223 170338 104416 165067 100967 36412.8 118118 9884.9 3449.45 5271.25 5669.06
internal_count=1717231 1198568 835125 518663 514506 363443 511374 360996 143759 691366 4157 2447 3132 1104
is_linear=0
shrinkage=0.05


Tree=20
num_leaves=15
num_cat=0
split_feature=11 11 10 8 3 9 2 11 4 4 4 4 0 11
split_gain=14698.7 15863.2 4400.65 3446.65 3068.8 3066.15 2886.57 1786.05 1109.95 581.011 564.19 362.489 281.764 198.131
threshold=7.5000000000000009 18.500000000000004 1.0000000180025095e-35 1.0000000180025095e-35 1.0000000180025095e-35 1.0000000180025095e-35 1.0000000180025095e-35 9.5000000000000018 1.0000000180025095e-35 8.5000000000000018 1.0000000180025095e-35 1.0000000180025095e-35 1.5000000000000002 1.5000000000000002
decision_type=2 2 2 2 2 2 2 2 2 2 2 2 2 2
left_child=2 7 3 4 -1 6 -3 8 -2 -9 13 -7 -5 -4
right_child=1 5 10 12 -6 11 -8 9 -10 -11 -12 -13 -14 -15
leaf_value=0.0057755582878371769 -0.010018639040745887 0.002888336195134544 0.035956767250644783 0.05495726895174953 0.044195766520633124 0.064311987495078549 0.060321990713833068 -0.023343737591825287 0.078359572127453966 0.10081192795562846 0.031339014842736372 0.033878444179497487 0.030017092558957199 0.060801589085655749
leaf_weight=181987.65488791466 26909.731905505061 98904.665316134691 1050.4057847857475 3763.1663515865803 5350.2329545915127 1978.320860683918 2237.1954297423363 103700.49728560448 360.01956114172935 94.316201999783516 5879.6530649662018 1935.8616028428078 1619.9799520969391 3399.475595831871
leaf_count=579802 139938 358911 811 3112 3456 1930 2049 621509 786 207 1175 553 380 2612
internal_value=-0.000153693 -0.00863627 0.00971041 0.00800628 0.00687281 0.00583913 0.00415873 -0.0202392 -0.00885186 -0.0232309 0.0415048 0.0492603 0.0474519 0.0549369
internal_weight=439171 236121 203051 192721 187338 105056 101142 131065 27269.8 103795 10329.5 3914.18 5383.15 4449.88
internal_count=1717231 1125883 591348 586750 583258 363443 360960 762440 140724 621716 4598 2483 3492 3423
is_linear=0
shrinkage=0.05


Tree=21
num_leaves=15
num_cat=0
split_feature=11 11 1 6 6 7 3 11 3 4 4 0 9 2
split_gain=13966.2 15441.2 4009.39 3417.21 2774.31 2662.42 2473.82 1790.6 1044.74 523.571 466.461 400.738 322.206 207.401
threshold=7.5000000000000009 18.500000000000004 1.0000000180025095e-35 1.0000000180025095e-35 1.0000000180025095e-35 1.0000000180025095e-35 1.0000000180025095e-35 9.5000000000000018 1.0000000180025095e-35 8.5000000000000018 1.0000000180025095e-35 1.0000000180025095e-35 1.0000000180025095e-35 1.0000000180025095e-35
decision_type=2 2 2 2 2 2 2 2 2 2 2 2 2 2
left_child=2 7 3 5 6 -1 -3 8 -2 -9 -5 -6 13 -4
right_child=1 4 12 10 11 -7 -8 9 -10 -11 -12 -13 -14 -15
leaf_value=0.0056933336962215163 -0.009832862159988175 0.0028464927021721997 0.055943059315545475 0.060073392775757295 0.064441305964594978 0.049949372285024447 0.052438726383600191 -0.023308650502633355 0.077390731306834271 0.088763322076561124 0.030717211445073191 0.031796248005892515 0.029293386751525125 0.037239737905771016
leaf_weight=184284.76135495305 26683.064835265279 99337.840767383575 2729.2764003872871 2961.6269448697567 1847.1932882964611 3462.2187415659428 2579.9816553592682 101307.77594235539 347.77931123971939 104.32018928229809 2491.6071772575378 1914.3314348161221 5873.6959222555161 3243.9702562093735
leaf_count=580031 139966 358866 2695 2921 1917 2943 2130 621509 758 207 708 530 1015 1035
internal_value=-0.000153596 -0.00849806 0.00937409 0.00764275 0.00565824 0.00650945 0.00410189 -0.0201455 -0.00871064 -0.0231934 0.0466604 0.0478274 0.0376088 0.0457856
internal_weight=439169 234122 205047 193200 105679 187747 101918 128443 27030.8 101412 5453.23 3761.52 11846.9 5973.25
internal_count=1717231 1125883 591348 586603 363443 582974 360996 762440 140724 621716 3629 2447 4745 3730
is_linear=0
shrinkage=0.05


Tree=22
num_leaves=15
num_cat=0
split_feature=11 11 11 5 8 2 0 4 2 6 1 0 1 9
split_gain=13299.7 12552.7 4815.46 3141.6 2593.66 2440.11 2451.54 2400.01 1098.08 708.698 502.214 359.324 270.101 162.332
threshold=6.5000000000000009 18.500000000000004 8.5000000000000018 1.0000000180025095e-35 1.0000000180025095e-35 1.0000000180025095e-35 1.0000000180025095e-35 1.0000000180025095e-35 1.0000000180025095e-35 1.0000000180025095e-35 1.0000000180025095e-35 1.0000000180025095e-35 1.0000000180025095e-35 1.0000000180025095e-35
decision_type=2 2 2 2 2 2 2 2 2 2 2 2 2 2
left_child=3 2 8 5 7 6 -1 -3 -2 -4 -6 13 -7 -5
right_child=1 4 9 11 10 12 -8 -9 -10 -11 -12 -13 -14 -15
leaf_value=0.0063312491499486166 -0.0026301877570634492 0.0029043392308692162 -0.022626615473023328 0.052760555174918622 0.064257165729680474 0.048171443970855869 0.051051800664509754 0.057304790164958333 0.055588040687695454 0.022001786707658746 0.027360348911764837 0.027209986952836759 0.028200454147615975 0.035064450142286617
leaf_weight=164669.94381856918 35607.334532558918 100520.6544816792 109686.09969255328 2991.3717983365059 1930.7092899680138 3243.8041035532951 3122.6498596072197 2069.1782341599464 828.80170431733131 896.84084434807301 1765.676974773407 6003.1608473658562 3541.41040122509 2286.5504269599915
leaf_count=508557 142839 359098 688330 2580 1973 2499 2484 1908 920 3036 464 1038 935 570
internal_value=-0.0001533 -0.00760657 -0.0170704 0.0100047 0.00548417 0.00835222 0.00716351 0.00400157 -0.00130592 -0.0222647 0.0466324 0.0355772 0.037748 0.0450941
internal_weight=439164 253305 147019 185859 106286 174578 167793 102590 36436.1 110583 3696.39 11281.1 6785.21 5277.92
internal_count=1717231 1198568 835125 518663 363443 514475 511041 361006 143759 691366 2437 4188 3434 3150
is_linear=0
shrinkage=0.05


Tree=23
num_leaves=15
num_cat=0
split_feature=11 11 10 8 3 7 3 11 0 0 0 3 0 11
split_gain=12629 14632.4 3366.05 2717.47 2470.87 2412.09 2172.49 1803.82 989.909 481.343 471.707 328.933 242.773 192.817
threshold=7.5000000000000009 18.500000000000004 1.0000000180025095e-35 1.0000000180025095e-35 1.0000000180025095e-35 1.0000000180025095e-35 1.0000000180025095e-35 9.5000000000000018 1.0000000180025095e-35 4.5000000000000009 1.0000000180025095e-35 1.0000000180025095e-35 1.5000000000000002 1.5000000000000002
decision_type=2 2 2 2 2 2 2 2 2 2 2 2 2 2
left_child=2 7 3 4 -1 6 -3 8 -2 -9 -4 -7 -5 -12
right_child=1 5 10 12 -6 11 -8 9 -10 -11 13 -13 -14 -15
leaf_value=0.0051794684780578186 -0.0096691757861704017 0.0026003228983158913 0.046118616949954283 0.047071758180295631 0.038143171083154834 0.054136732326220342 0.046448790329183753 -0.02327116567983837 0.065173039984170358 0.057576737943860694 0.010303060386411881 0.024069588449236082 0.025028220931052104 0.030810237511512614
leaf_weight=185602.62438955903 26071.744411304593 99990.565024882555 5268.6562098860741 4175.8793653249741 5864.4705889225006 2573.2594563066959 2906.9255378246307 96720.507983028889 449.43293222784996 184.45258143544197 1522.814080119133 1406.9859485626221 1782.07942456007 4635.1959859132767
leaf_count=579802 139923 358848 3482 3112 3456 2117 2132 621223 801 493 282 346 380 834
internal_value=-0.000152818 -0.00822729 0.00875102 0.00722391 0.00618912 0.0053164 0.00383907 -0.0199551 -0.00840089 -0.0231173 0.0351357 0.0435082 0.0404783 0.025739
internal_weight=439156 230304 208852 197425 191467 106878 102897 123426 26521.2 96905 11426.7 3980.25 5957.96 6158.01
internal_count=1717231 1125883 591348 586750 583258 363443 360980 762440 140724 621716 4598 2463 3492 1116
is_linear=0
shrinkage=0.05


Tree=24
num_leaves=15
num_cat=0
split_feature=11 11 11 1 6 10 9 11 4 6 4 4 9 2
split_gain=12025.7 11814.2 4713.32 2628.85 2413.36 2246.41 2074.99 2074.9 957.804 696.06 423.239 385.029 289.456 223.872
threshold=6.5000000000000009 18.500000000000004 8.5000000000000018 1.0000000180025095e-35 1.0000000180025095e-35 1.0000000180025095e-35 1.0000000180025095e-35 20.500000000000004 1.0000000180025095e-35 1.0000000180025095e-35 1.0000000180025095e-35 1.0000000180025095e-35 1.0000000180025095e-35 1.0000000180025095e-35
decision_type=2 2 2 2 2 2 2 2 2 2 2 2 2 2
left_child=3 2 8 4 6 7 -1 -3 -2 -4 -6 -7 13 -5
right_child=1 5 9 12 10 11 -8 -9 -10 -11 -12 -13 -14 -15
leaf_value=0.0058821799632418209 -0.0025660310492208287 -0.0056993920038206454 -0.022526773500568819 0.049701013088913087 0.052379761739433997 0.058886762208305216 0.042683148062469284 0.0090508595071500369 0.050484250005564606 0.021451655146532942 0.025031136053445063 0.027544916232869816 0.023963680297105425 0.030611200676652451
leaf_weight=167414.7776325345 35549.64163801074 37234.955966293812 104929.8625549227 2802.8876993656158 3077.3603808283806 1844.3302279114723 3920.0198699235916 66283.700665742159 871.68949320912361 907.50140312314034 2618.3102613091469 2090.7248007059097 6201.7161759138107 3397.3379780054092
leaf_count=508489 142785 141058 688330 2378 2581 1904 2743 219945 974 3036 634 536 914 924
internal_value=-0.000152212 -0.00735877 -0.0168108 0.00934757 0.00778857 0.00515481 0.00672416 0.00374529 -0.00129635 -0.0221497 0.0398075 0.0422346 0.0316014 0.039241
internal_weight=439145 249712 142259 189432 177030 107454 171335 103519 36421.3 105837 5695.67 3935.06 12401.9 6200.23
internal_count=1717231 1198568 835125 518663 514447 363443 511232 361003 143759 691366 3215 2440 4216 3302
is_linear=0
shrinkage=0.05


Tree=25
num_leaves=15
num_cat=0
split_feature=11 11 5 7 3 9 5 11 7 4 0 4 9 1
split_gain=11428 13862.9 2836.15 2269.36 2285.76 2133.93 2194.88 1815.39 915.772 478.82 440.691 336.29 279.773 161.11
threshold=7.5000000000000009 18.500000000000004 1.0000000180025095e-35 1.0000000180025095e-35 1.0000000180025095e-35 1.0000000180025095e-35 1.0000000180025095e-35 9.5000000000000018 1.0000000180025095e-35 8.5000000000000018 1.0000000180025095e-35 1.0000000180025095e-35 1.0000000180025095e-35 33.500000000000007
decision_type=2 2 2 2 2 2 2 2 2 2 2 2 2 2
left_child=2 7 3 4 -1 6 -3 8 -2 -9 -5 -7 13 -4
right_child=1 5 12 10 -6 11 -8 9 -10 -11 -12 -13 -14 -15
leaf_value=0.0048242332104453563 -0.0093032293470636553 0.0025034903895925073 0.038686019529883847 0.049805145424047619 0.03600262973452277 0.051869340940005816 0.055782792176692145 -0.023163898736266068 0.064617339431410639 0.079615643571132627 0.021440720339446176 0.024799470041788001 0.024397257924462346 0.1715263378715606
leaf_weight=187831.13199061155 25608.597506329417 101455.19518601894 5623.0559633374214 3287.3576303720474 6068.3626533150673 2299.2595142126083 1970.5488827526569 92502.16536013782 425.95244830846786 113.45694181323051 2347.0938867926598 2290.0039551258087 7286.7222147583961 22.917604327201843
leaf_count=579850 139944 359020 3447 2872 3446 1930 1940 621509 780 207 531 553 1197 5
internal_value=-0.000151481 -0.00796077 0.00817968 0.00670898 0.00580001 0.004999 0.00351861 -0.0197589 -0.00809381 -0.023038 0.0379896 0.0383617 0.0308706 0.0392252
internal_weight=439132 226665 212467 199534 193899 108015 103426 118650 26034.5 92615.6 5634.45 4589.26 12932.7 5645.97
internal_count=1717231 1125883 591348 586699 583296 363443 360960 762440 140724 621716 3403 2483 4649 3452
is_linear=0
shrinkage=0.05


Tree=26
num_leaves=15
num_cat=0
split_feature=11 11 11 10 8 1 4 0 0 0 0 1 4 0
split_gain=10881.5 11115.5 4611.48 2200.91 1939.36 1998.53 1914.01 2116.56 883.33 709.321 563.603 421.206 387.675 152.046
threshold=6.5000000000000009 18.500000000000004 8.5000000000000018 1.0000000180025095e-35 1.0000000180025095e-35 1.0000000180025095e-35 1.0000000180025095e-35 1.0000000180025095e-35 1.0000000180025095e-35 1.0000000180025095e-35 1.0000000180025095e-35 1.0000000180025095e-35 1.0000000180025095e-35 1.0000000180025095e-35
decision_type=2 2 2 2 2 2 2 2 2 2 2 2 2 2
left_child=3 2 8 6 5 -3 7 -1 -2 -4 -8 -6 -5 -14
right_child=1 4 9 12 11 -7 10 -9 -10 -11 -12 -13 13 -15
leaf_value=0.0055880450100838468 -0.0025677494826573943 0.0023712817292225038 -0.022419630480562707 0.040134889700437854 0.053258420628631765 0.045567769100693739 0.049747758031110791 0.043219243067814467 0.045875268638167946 0.022916896936179366 0.019628913304702782 0.021514920585064323 0.032728063943026839 0.016672128181014677
leaf_weight=170988.16499739885 35431.100590750575 101621.11953121424 100450.92669504881 5050.4774854779243 2202.6520426869392 2750.1158455908298 3098.8096563220024 3820.0690450668335 966.69897094368935 870.22700752317905 3114.1626752614975 1988.3831847906113 2171.7477496266365 4592.6168806552887
leaf_count=508827 142827 358991 688366 3024 1973 2015 2585 2629 932 3000 538 464 545 515
internal_value=-0.000150664 -0.00711537 -0.0165465 0.00874433 0.00484863 0.00350948 0.00737967 0.0064104 -0.00128114 -0.0220302 0.0346511 0.0381981 0.0296531 0.021827
internal_weight=439117 246281 137719 192836 108562 104371 181021 174808 36397.8 101321 6212.97 4191.04 11814.8 6764.36
internal_count=1717231 1198568 835125 518663 363443 361006 514579 511456 143759 691366 3123 2437 4084 1060
is_linear=0
shrinkage=0.05


Tree=27
num_leaves=15
num_cat=0
split_feature=11 11 1 6 4 11 11 7 4 2 6 4 8 2
split_gain=10348.1 13130.3 2407.36 2170.18 1942.38 1825.08 1823.02 1203.17 1020.55 845.475 480.029 344.47 254.594 180.16
threshold=7.5000000000000009 18.500000000000004 1.0000000180025095e-35 1.0000000180025095e-35 1.0000000180025095e-35 9.5000000000000018 20.500000000000004 1.0000000180025095e-35 1.0000000180025095e-35 1.0000000180025095e-35 1.5000000000000002 1.0000000180025095e-35 2.5000000000000004 1.5000000000000002
decision_type=2 2 2 2 2 2 2 2 2 2 2 2 2 2
left_child=2 5 3 4 -1 9 7 -3 -8 -2 -7 -5 13 -4
right_child=1 6 12 11 -6 10 8 -9 -10 -11 -12 -13 -14 -15
leaf_value=0.0045793787707044172 -0.0089295077870884098 -0.0058168123881916977 0.038296502756705611 0.044907463169166488 0.039448039183590723 -0.023215095521105074 0.0082258143932354248 0.038000836540953341 0.037676205973507709 0.064794968868467362 0.029238755896621199 0.021895027540813978 0.016887783868670594 0.024957665219870889
leaf_weight=191152.98376023769 25176.483793154359 37283.459472596645 5222.1146823465824 3605.7040020525455 4079.2003211379051 88094.835920065641 67100.126777976751 1635.3626181483269 3076.5306851863861 394.98245403170586 438.33673551678658 2962.0566000342369 3966.0043976902962 4912.9359503388405
leaf_count=579988 139999 141023 3272 2921 2986 620340 219866 946 1608 725 1376 708 530 943
internal_value=-0.000149756 -0.0076989 0.0076546 0.00625895 0.00530793 -0.0195569 0.00470358 -0.0039756 0.00951691 -0.00779074 -0.0229554 0.0345289 0.0276278 0.0318305
internal_weight=439101 223200 215901 201800 195232 114105 109095 38918.8 70176.7 25571.5 88533.2 6567.76 14101.1 10135.1
internal_count=1717231 1125883 591348 586603 582974 762440 363443 141969 221474 140724 621716 3629 4745 4215
is_linear=0
shrinkage=0.05


Tree=28
num_leaves=15
num_cat=0
split_feature=11 11 11 5 11 2 7 2 4 10 4 0 1 9
split_gain=9854.53 10454.8 4507.74 1852.33 1715.84 1598.71 1741.46 1112.4 916.779 792.126 709.18 271.154 257.179 152.238
threshold=6.5000000000000009 18.500000000000004 8.5000000000000018 1.0000000180025095e-35 20.500000000000004 1.0000000180025095e-35 1.0000000180025095e-35 1.0000000180025095e-35 1.0000000180025095e-35 1.0000000180025095e-35 1.0000000180025095e-35 1.0000000180025095e-35 1.0000000180025095e-35 1.0000000180025095e-35
decision_type=2 2 2 2 2 2 2 2 2 2 2 2 2 2
left_child=3 2 9 5 7 6 -1 -3 -6 -2 -4 13 -7 -5
right_child=1 4 10 11 8 12 -8 -9 -10 -11 -12 -13 -14 -15
leaf_value=0.0051444422869094449 -0.0024953766342070216 -0.0056661044498359358 -0.022294596838701337 0.040537727328505531 0.0079550250365806301 0.038367638801849964 0.039685481246034618 0.036573797211329702 0.035365047848147292 0.04307339328722451 0.025138908286133483 0.019427728244112555 0.020308789293470395 0.024875037215843773
leaf_weight=171069.91987425089 35396.88268455863 37138.966525524855 96225.575190991163 3550.7217254042625 67654.353443473577 3747.0189816951752 3728.6048838496208 1626.9546826183796 3194.6539543867111 980.07944640517235 794.50571756064892 7058.7714078426361 4160.5692178010941 2755.2946690320969
leaf_count=508392 142836 141087 688336 2580 219866 2499 2649 882 1608 923 3030 1038 935 570
internal_value=-0.000148731 -0.00687706 -0.0162781 0.00819042 0.00456363 0.00687602 0.00588123 -0.00389335 0.00919097 -0.00126765 -0.0219062 0.0261592 0.028866 0.0336942
internal_weight=439083 243012 133397 196071 109615 182706 174799 38765.9 70849 36377 97020.1 13364.8 7907.59 6306.02
internal_count=1717231 1198568 835125 518663 363443 514475 511041 141969 221474 143759 691366 4188 3434 3150
is_linear=0
shrinkage=0.05


Tree=29
num_leaves=15
num_cat=0
split_feature=11 11 1 6 11 8 9 2 6 6 4 4 8 2
split_gain=9374.48 12432.2 2065.37 1856.09 1833.35 1772.37 1637.59 1831.75 800.221 467.191 338.753 294.492 224.295 158.739
threshold=7.5000000000000009 18.500000000000004 1.0000000180025095e-35 1.0000000180025095e-35 9.5000000000000018 1.0000000180025095e-35 1.0000000180025095e-35 1.0000000180025095e-35 1.0000000180025095e-35 1.5000000000000002 1.0000000180025095e-35 1.0000000180025095e-35 2.5000000000000004 1.5000000000000002
decision_type=2 2 2 2 2 2 2 2 2 2 2 2 2 2
left_child=2 4 3 5 8 -1 7 -3 -2 -6 -8 -5 13 -4
right_child=1 6 12 11 9 -7 10 -9 -10 -11 -12 -13 -14 -15
leaf_value=0.0042608227919250273 -0.0086653972587800842 0.0019905229036442044 0.03494371325392661 0.040499044369758257 -0.023140430123861071 0.036556219698153286 0.045147775870382427 0.042888611803294986 0.060187729262996627 0.028038550075866021 0.019354502111035232 0.019794965190102171 0.015315459886305081 0.022732139234744611
leaf_weight=193093.26166859269 24697.058140441775 102215.57041364908 5515.0338621139526 3849.020445972681 84200.018184199929 4343.8607665300369 2520.1122747659683 2813.1419385075569 429.32592596113682 448.28786562383175 2572.2116288542747 3101.4540514349937 4121.3384810090065 5142.8254227638245
leaf_count=579973 139944 358911 3272 2921 620340 3001 1930 2049 780 1376 553 708 530 943
internal_value=-0.000147587 -0.00744148 0.00717056 0.00586536 -0.0193489 0.00497136 0.00442854 0.00308596 -0.00748893 -0.0228694 0.0321192 0.0312604 0.0252208 0.0290512
internal_weight=439063 219896 219167 204388 109775 197437 110121 105029 25126.4 84648.3 5092.32 6950.47 14779.2 10657.9
internal_count=1717231 1125883 591348 586603 762440 582974 363443 360960 140724 621716 2483 3629 4745 4215
is_linear=0
shrinkage=0.05


Tree=30
num_leaves=15
num_cat=0
split_feature=11 11 11 11 11 1 7 12 7 2 8 9 4 9
split_gain=8930.39 9829.5 4403.67 1641.65 1607.37 1100.97 1036.12 824.156 788.434 738.253 718.258 715.487 710.731 338.963
threshold=6.5000000000000009 18.500000000000004 8.5000000000000018 3.5000000000000004 20.500000000000004 1.0000000180025095e-35 1.0000000180025095e-35 4.5000000000000009 1.0000000180025095e-35 1.0000000180025095e-35 1.0000000180025095e-35 1.0000000180025095e-35 1.0000000180025095e-35 1.0000000180025095e-35
decision_type=2 2 2 2 2 2 2 2 2 2 2 2 2 2
left_child=3 2 9 5 6 10 -3 -6 12 -2 -1 -4 -5 -10
right_child=1 4 11 8 7 -7 -8 -9 13 -11 -12 -13 -14 -15
leaf_value=0.0014932079646555146 -0.0024595133028605335 -0.0056852992896224315 -0.022191554845926061 0.010573426223588383 0.012135148305476247 0.021749681269582804 0.033592681642829268 0.00031040482288085722 0.04358551103535737 0.040769587077239357 0.023433078914824247 0.024700679046146406 0.034531487543017728 0.019731463092317852
leaf_weight=100176.75243988633 35335.662807539105 37027.333654373884 92106.407073482871 77999.716877311468 51126.199142545462 7831.8645691871643 1758.7568578124046 20702.33957067132 2663.1673721671104 1016.0238724946976 3874.6563785076141 820.71563722193241 3223.5103464722633 3378.5354523658752
leaf_count=289522 142839 141023 688272 221706 157344 2320 946 64130 1407 920 1759 3094 1477 472
internal_value=-0.000146413 -0.00664369 -0.0160057 0.00768019 0.00429798 0.00367097 -0.00390424 0.00872703 0.0128205 -0.00125127 0.0023102 -0.0217774 0.0115243 0.0302463
internal_weight=439042 239893 129279 199148 110615 111883 38786.1 71828.5 87264.9 36351.7 104051 92927.1 81223.2 6041.7
internal_count=1717231 1198568 835125 518663 363443 293601 141969 221474 225062 143759 291281 691366 223183 1879
is_linear=0
shrinkage=0.05


Tree=31
num_leaves=15
num_cat=0
split_feature=11 11 11 10 8 4 11 10 0 3 0 4 0 2
split_gain=8496.06 11766.6 1839.95 1803.42 1602.18 1619.92 1514.6 964.129 782.821 755.879 464.832 376.727 192.904 161.3
threshold=7.5000000000000009 18.500000000000004 9.5000000000000018 1.0000000180025095e-35 1.0000000180025095e-35 1.0000000180025095e-35 20.500000000000004 1.0000000180025095e-35 1.0000000180025095e-35 1.0000000180025095e-35 1.0000000180025095e-35 1.0000000180025095e-35 1.5000000000000002 1.0000000180025095e-35
decision_type=2 2 2 2 2 2 2 2 2 2 2 2 2 2
left_child=3 2 9 4 5 -1 7 -3 -8 -2 -4 13 -6 -5
right_child=1 6 10 11 12 -7 8 -9 -10 -11 -12 -13 -14 -15
leaf_value=0.0040453756817180669 -0.008346023568613711 -0.0055310980900946721 -0.02313509543234829 0.039237874139712567 0.033894254341406339 0.034559667162597521 0.0072473843093847539 0.032701946518076605 0.031177505882818504 0.058980200802258381 0.017633150761236564 0.016896184453512795 0.016103841130124127 0.022025895263678024
leaf_weight=196534.04682275653 24276.172110214829 36910.242348462343 80245.865518733859 4038.7319049239159 5112.9428614974022 4447.7984161376953 68863.180021375418 1726.0196149349213 3595.9937750995159 424.17642657458782 705.32963544130325 7914.8338216543198 2170.6146436929703 2053.1356447935104
leaf_count=580279 139966 141058 619087 2984 3112 2979 219844 911 1630 758 2629 1175 380 439
internal_value=-0.000145144 -0.00718888 -0.0191351 0.0067235 0.00555552 0.00472067 0.00417193 -0.00382309 0.00843499 -0.00718984 -0.0227799 0.0240902 0.0285924 0.0334369
internal_weight=439019 216747 105652 222272 208265 200982 111095 38636.3 72459.2 24700.3 80951.2 14006.7 7283.56 6091.87
internal_count=1717231 1125883 762440 591348 586750 583258 363443 141969 221474 140724 621716 4598 3492 3423
is_linear=0
shrinkage=0.05


Tree=32
num_leaves=15
num_cat=0
split_feature=11 11 11 11 6 0 10 7 8 1 0 8 12 4
split_gain=8098.34 9237.97 4298.09 1525.9 1429.4 1516.95 1120.01 1112.47 711.949 670.803 383.587 361.874 377.732 255.268
threshold=6.5000000000000009 18.500000000000004 8.5000000000000018 1.5000000000000002 1.0000000180025095e-35 1.0000000180025095e-35 1.0000000180025095e-35 1.0000000180025095e-35 1.0000000180025095e-35 1.0000000180025095e-35 1.0000000180025095e-35 1.0000000180025095e-35 1.0000000180025095e-35 1.0000000180025095e-35
decision_type=2 2 2 2 2 2 2 2 2 2 2 2 2 2
left_child=3 2 9 11 5 -3 7 -5 -4 -2 -6 12 -1 -8
right_child=1 4 8 6 10 -7 13 -9 -10 -11 -12 -13 -14 -15
leaf_value=-0.011327472833357388 -0.0024347525425068464 0.0018274861183326368 -0.022069942881722534 0.0078161003107860057 0.044846148499561256 0.038328422840514548 0.034882512283388616 0.032042438352353507 0.02527062779793009 0.037276722502716478 0.017002622592758598 0.015182783967583166 0.00083468631225062516 0.018953467757446624
leaf_weight=7450.8617382049561 35231.844433739781 103679.17600598931 88228.208041802049 131116.61979106069 2366.688494592905 2926.8012456893921 4425.4251253604889 4916.3289046287537 801.39891661703587 1096.5126290023327 2591.3245962560177 3746.3714838027954 44591.727481484413 5826.4978506565094
leaf_count=20891 142796 359048 688290 367120 1917 1948 2213 2301 3076 963 530 1108 124264 766
internal_value=-0.000143835 -0.00641561 -0.0157297 0.00720952 0.00405013 0.0028296 0.00989271 0.00869166 -0.0216438 -0.00123613 0.0302936 0.000173888 -0.000906552 0.0258295
internal_weight=438996 236922 125358 202074 111564 106606 146285 136033 89029.6 36328.4 4958.01 55789 52042.6 10251.9
internal_count=1717231 1198568 835125 518663 363443 360996 372400 369421 691366 143759 2447 146263 145155 2979
is_linear=0
shrinkage=0.05


Tree=33
num_leaves=15
num_cat=0
split_feature=11 11 11 5 3 6 11 7 12 4 6 6 4 2
split_gain=7703.08 11132.2 1844.67 1552.72 1476.83 1629.79 1420.9 888.152 757.513 709.033 461.763 251.996 228.383 171.352
threshold=7.5000000000000009 18.500000000000004 9.5000000000000018 1.0000000180025095e-35 1.0000000180025095e-35 1.0000000180025095e-35 20.500000000000004 1.0000000180025095e-35 4.5000000000000009 1.0000000180025095e-35 1.5000000000000002 1.0000000180025095e-35 1.5000000000000002 1.0000000180025095e-35
decision_type=2 2 2 2 2 2 2 2 2 2 2 2 2 2
left_child=3 2 9 4 5 -1 7 -3 -8 -2 -4 -6 13 -5
right_child=1 6 10 12 11 -7 8 -9 -10 -11 -12 -13 -14 -15
leaf_value=0.0036185865607598921 -0.0080983637987056371 -0.0055446597443877185 -0.022982096299323192 0.031414324853999809 0.029773372353322908 0.034155009344601771 0.011232646690257643 0.029629771686348241 -1.1941706147407664e-05 0.053730763545300667 0.027794400510006836 0.0098322322203988066 0.014060939056023875 0.017250618632184304
leaf_weight=196350.51004332304 23821.192791968584 36757.298855274916 76982.654335260391 6112.6965678930283 6813.7734287381172 4468.9877429902554 52405.707793504 1886.739204287529 20971.23741415143 472.88679066300392 450.36771275103092 2064.2501105666161 6131.3640393614769 3281.8531736135483
leaf_count=579879 139938 141023 620340 3258 3444 3038 157344 946 64130 786 1376 338 856 535
internal_value=-0.00014247 -0.00694139 -0.0189154 0.00631004 0.00518039 0.00429814 0.00393231 -0.00382732 0.00801893 -0.00689485 -0.0226868 0.0251368 0.0215674 0.0264664
internal_weight=438972 213748 101727 225223 209698 200819 112021 38644 73376.9 24294.1 77433 8878.02 15525.9 9394.55
internal_count=1717231 1125883 762440 591348 586699 582917 363443 141969 221474 140724 621716 3782 4649 3793
is_linear=0
shrinkage=0.05


Tree=34
num_leaves=15
num_cat=0
split_feature=11 11 11 11 11 1 2 12 9 0 3 6 2 0
split_gain=7345.98 8677.34 4192.96 1432.94 1340.24 874.318 842.779 706.424 704.121 603.65 591.536 548.549 631.347 298.172
threshold=6.5000000000000009 18.500000000000004 8.5000000000000018 3.5000000000000004 20.500000000000004 1.0000000180025095e-35 1.0000000180025095e-35 4.5000000000000009 1.0000000180025095e-35 1.0000000180025095e-35 1.0000000180025095e-35 1.0000000180025095e-35 1.0000000180025095e-35 1.0000000180025095e-35
decision_type=2 2 2 2 2 2 2 2 2 2 2 2 2 2
left_child=3 2 9 5 6 10 -3 -6 -4 -2 -1 12 -5 -13
right_child=1 4 8 11 7 -7 -8 -9 -10 -11 -12 13 -14 -15
leaf_value=0.0011164144435652718 -0.0023849196381338536 -0.0054093584700465012 -0.021953922867558803 0.0093843115818055441 0.010829842248190009 0.018576074751373232 0.029183200045407531 -1.1646059908096858e-05 0.02448010947924965 0.034352523110690772 0.021606172852204768 0.0366567811419597 0.029426448951467732 0.015498934103252943
leaf_weight=102309.90301284194 35142.480641618371 36647.961101084948 84494.266216948628 79665.743097871542 52997.681156396866 8404.4958738088608 1849.5730504989624 20970.987502127886 824.38684837520123 1154.9160968959332 3648.0758572816849 3085.252847969532 4133.2052021622658 3617.8159008622169
leaf_count=289671 142827 141087 688272 221500 157344 2320 882 64130 3094 932 1610 1480 1608 474
internal_value=-0.000141077 -0.00619223 -0.0154497 0.00677309 0.00381845 0.00305313 -0.0037474 0.00775615 -0.0215053 -0.001216 0.00182187 0.0114738 0.0103728 0.0252374
internal_weight=438947 234082 121616 204864 112466 114362 38497.5 73968.7 85318.7 36297.4 105958 90502 83798.9 6703.07
internal_count=1717231 1198568 835125 518663 363443 293601 141969 221474 691366 143759 291281 225062 223108 1954
is_linear=0
shrinkage=0.05


Tree=35
num_leaves=15
num_cat=0
split_feature=11 11 11 10 2 0 11 7 7 7 0 0 0 7
split_gain=6986.36 10527.2 1847.47 1365.58 1298.54 1444.57 1264.54 805.091 680.336 665.671 467.184 310.019 220.96 149.306
threshold=7.5000000000000009 18.500000000000004 9.5000000000000018 1.0000000180025095e-35 1.0000000180025095e-35 1.0000000180025095e-35 20.500000000000004 1.0000000180025095e-35 52.000000000000007 1.0000000180025095e-35 1.0000000180025095e-35 1.0000000180025095e-35 1.5000000000000002 1.0000000180025095e-35
decision_type=2 2 2 2 2 2 2 2 2 2 2 2 2 2
left_child=3 2 9 4 5 -1 7 -3 -8 -2 -4 13 -6 -5
right_child=1 6 10 11 12 -7 8 -9 -10 -11 -12 -13 -14 -15
leaf_value=0.003411589061324603 -0.0078357586482108305 -0.0053510936974645509 -0.022976778510195847 0.03420727771904359 0.027790951111439782 0.032592062260908876 0.0074750150061369787 0.027525329940491502 0.79446252191841726 0.049925371661726746 0.018163042891220237 0.013744274027855684 0.011796509809051876 0.019453118045757556
leaf_weight=198696.18586543202 23397.171999335289 36392.021581858397 73387.821899950504 4133.8802823424339 6669.4898787736893 4333.7556012570858 74542.754789412022 1962.5784438848495 2.7462742924690238 509.66738563776016 696.63624908030033 8072.8915865421295 3193.1064974665642 2930.059108376503
leaf_count=580062 139944 141023 619087 2912 3380 2800 221472 946 2 780 2629 1116 508 570
internal_value=-0.000139615 -0.00669908 -0.0186899 0.00592686 0.00489512 0.00403446 0.00370835 -0.00366883 0.00750401 -0.00660436 -0.0225899 0.0204378 0.0226126 0.0280874
internal_weight=438921 210891 97991.3 228029 212893 203030 112900 38354.6 74545.5 23906.8 74084.5 15136.8 9862.6 7063.94
internal_count=1717231 1125883 762440 591348 586750 582862 363443 141969 221474 140724 621716 4598 3888 3482
is_linear=0
shrinkage=0.05


Tree=36
num_leaves=15
num_cat=0
split_feature=11 11 11 11 8 3 10 7 4 4 9 12 11 4
split_gain=6667.74 8147.25 4086.3 1346.16 1223.44 1446.73 822.817 874.42 706.957 559.962 414.786 316.19 219.66 204.324
threshold=6.5000000000000009 18.500000000000004 8.5000000000000018 1.5000000000000002 1.0000000180025095e-35 1.0000000180025095e-35 1.0000000180025095e-35 1.0000000180025095e-35 1.0000000180025095e-35 1.0000000180025095e-35 1.0000000180025095e-35 1.0000000180025095e-35 1.0000000180025095e-35 1.0000000180025095e-35
decision_type=2 2 2 2 2 2 2 2 2 2 2 2 2 2
left_child=3 2 9 11 5 -3 7 -5 -4 -2 -6 -1 -13 -8
right_child=1 4 8 6 10 -7 13 -9 -10 -11 -12 12 -14 -15
leaf_value=-0.0094606832778888414 -0.0023097039875035904 0.0014256553217807898 -0.021818317271286206 0.0070088839954894335 0.043858606250748076 0.034085178290409232 0.029636208618385586 0.027665328660524197 0.025962406157430978 0.03352575730097708 0.014937748276893868 0.0046492635117098297 -0.0020660242503930397 0.015962645760632704
leaf_weight=7931.7665097117424 35145.000224456191 104791.78648978472 81004.417376726866 134440.91040498018 2220.9161004126072 3504.2340597510338 4851.69745439291 5326.2627474069595 781.62421862781048 1125.0102788507938 2806.3460304737091 24448.302682518959 24262.801313638687 6253.6908482313156
leaf_count=21027 142785 358899 688336 367120 1843 2107 2213 2301 3030 974 594 62822 62414 766
internal_value=-0.000138153 -0.00597451 -0.0151669 0.00636938 0.00360179 0.00248245 0.00883689 0.00779606 -0.0213617 -0.00119817 0.0277142 -0.000203042 0.00130441 0.0219363
internal_weight=438895 231379 118056 207515 113323 108296 150873 139767 81786 36270 5027.26 56642.9 48711.1 11105.4
internal_count=1717231 1198568 835125 518663 363443 361006 372400 369421 691366 143759 2437 146263 125236 2979
is_linear=0
shrinkage=0.05


Tree=37
num_leaves=15
num_cat=0
split_feature=11 11 11 11 11 2 1 10 12 9 8 6 2 0
split_gain=6340.57 7887.19 4053.67 1267.83 1188.93 768.714 743.702 742.807 651.323 520.926 471.324 430.402 502.265 259.17
threshold=6.5000000000000009 18.500000000000004 9.5000000000000018 3.5000000000000004 20.500000000000004 1.0000000180025095e-35 1.0000000180025095e-35 1.0000000180025095e-35 4.5000000000000009 1.0000000180025095e-35 1.0000000180025095e-35 1.0000000180025095e-35 1.0000000180025095e-35 1.0000000180025095e-35
decision_type=2 2 2 2 2 2 2 2 2 2 2 2 2 2
left_child=3 2 5 6 7 -2 9 -3 -6 -1 -4 12 -5 -13
right_child=1 4 10 11 8 -7 -8 -9 -10 -11 -12 13 -14 -15
leaf_value=0.00079139728850834894 -0.0044649657756273813 -0.0052714892384481049 -0.022884429268334824 0.0086506583581842812 0.01005255606557515 0.034705051892615503 0.016661400047053517 0.0265328374349884 -0.00028415466139635717 0.017894596375248203 0.01956842151698002 0.032587645625838609 0.025966864472498505 0.013453430606253909
leaf_weight=102458.31622207165 44099.232161104679 36420.296507567167 70237.295185573399 81411.477489113808 54178.652556419373 1289.1724247485399 8792.3391664028168 1933.3320724368095 21203.81502699852 4654.3077313303947 659.94429768621922 3303.9046683907509 4414.7064185142517 3811.121372461319
leaf_count=289458 212166 141058 618979 221500 157344 1243 2320 911 64130 1823 2737 1480 1608 474
internal_value=-0.000136642 -0.00586323 -0.0150198 0.00617058 0.00349859 -0.00335241 0.00268207 -0.00366829 0.00714501 0.00153457 -0.0224893 0.010521 0.00954137 0.0223385
internal_weight=438868 230022 116286 208846 113736 45388.4 115905 38353.6 75382.5 107113 70897.2 92941.2 85826.2 7115.03
internal_count=1717231 1198568 835125 518663 363443 213409 293601 141969 221474 291281 621716 225062 223108 1954
is_linear=0
shrinkage=0.05


Tree=38
num_leaves=15
num_cat=0
split_feature=11 11 11 9 5 5 3 4 3 0 2 2 9 0
split_gain=6048.92 9677.8 1836.43 1138.88 1422.57 1138.66 1121.51 1361.31 600.012 465.442 316.413 233.694 222.399 134.967
threshold=7.5000000000000009 18.500000000000004 9.5000000000000018 1.0000000180025095e-35 1.0000000180025095e-35 1.0000000180025095e-35 1.0000000180025095e-35 1.0000000180025095e-35 1.0000000180025095e-35 1.0000000180025095e-35 1.5000000000000002 1.0000000180025095e-35 1.0000000180025095e-35 1.0000000180025095e-35
decision_type=2 2 2 2 2 2 2 2 2 2 2 2 2 2
left_child=5 2 8 4 -3 6 7 -1 -2 -4 -5 -8 13 -7
right_child=1 3 9 10 -6 12 11 -9 -10 -11 -12 -13 -14 -15
leaf_value=0.0029590618614276729 -0.0074074909488506578 0.0013675524782758351 -0.022848253747835029 0.03340446186119389 0.039864255490725746 0.029843078865678691 0.029752754846661952 0.027768720787115071 0.048981932965725179 0.018286613706238776 0.0089139198757921621 0.014108093928360564 0.012881931615489485 0.015910895525859781
leaf_weight=199733.14753967524 22968.384941577911 105854.45793035626 68626.552843607962 3811.3651896119118 2455.4236372113228 4505.9344820976257 4303.6149955391884 5686.5295217633247 481.63423736393452 694.63966563344002 2016.7035164833069 5359.8909893035889 9511.763875067234 2830.1312030553818
leaf_count=579772 139966 359020 619087 2167 1940 2877 2725 3145 758 2629 316 1057 1197 575
internal_value=-0.000135081 -0.00635014 -0.0183445 0.00339886 0.00224029 0.00540947 0.00442895 0.00364586 -0.00624932 -0.0224361 0.0249299 0.0210754 0.017927 0.0244683
internal_weight=438840 206909 92771.2 114138 108310 231931 215083 205420 23450 69321.2 5828.07 9663.51 16847.8 7336.07
internal_count=1717231 1125883 762440 363443 360960 591348 586699 582917 140724 621716 2483 3782 4649 3452
is_linear=0
shrinkage=0.05


Tree=39
num_leaves=15
num_cat=0
split_feature=11 11 11 11 5 9 0 3 12 6 6 0 9 0
split_gain=5760.11 9404.66 1831.4 1118.73 1052.39 1054.07 1369.06 691.969 609.628 576.289 465.651 450.253 199.82 119.441
threshold=7.5000000000000009 18.500000000000004 9.5000000000000018 20.500000000000004 1.0000000180025095e-35 1.0000000180025095e-35 1.0000000180025095e-35 1.0000000180025095e-35 5.5000000000000009 1.0000000180025095e-35 1.0000000180025095e-35 1.0000000180025095e-35 1.0000000180025095e-35 1.0000000180025095e-35
decision_type=2 2 2 2 2 2 2 2 2 2 2 2 2 2
left_child=4 2 9 7 5 6 -1 -3 -5 -2 -4 -7 13 -6
right_child=1 3 10 8 12 11 -8 -9 -10 -11 -12 -13 -14 -15
leaf_value=0.0029389568401447003 -0.0073136975934043032 -0.0052258506822975836 -0.022809694982171377 0.0085829037017840955 0.028235593122536352 0.031900476011382371 0.028502147192739385 0.025210894753402182 -0.0044629075858267737 0.046246690418405574 0.017752508192493226 0.0084037113427765028 0.01239925419653304 0.01526781261088592
leaf_weight=202353.61134296656 22791.152887091041 36376.316188663244 67068.696145325899 65820.329764932394 4642.4320656061172 4724.1533861160278 5376.7561571896076 1968.4189670085907 10365.132371723652 513.53513096272945 715.09468032419682 3586.7987922430038 9635.0863729119301 2875.5212629437447
leaf_count=580155 139944 141054 619037 189886 2877 3008 2983 915 31588 780 2679 553 1197 575
internal_value=-0.000133554 -0.00623416 -0.0182247 0.00330218 0.00524565 0.00429919 0.00360062 -0.00366339 0.006808 -0.00613346 -0.0223818 0.0217599 0.0171662 0.0232756
internal_weight=438813 205619 91088.5 114530 233194 216041 207730 38344.7 76185.5 23304.7 67783.8 8310.95 17153 7517.95
internal_count=1717231 1125883 762440 363443 591348 586699 583138 141969 221474 140724 621716 3561 4649 3452
is_linear=0
shrinkage=0.05


Tree=40
num_leaves=15
num_cat=0
split_feature=11 11 11 11 11 10 2 10 7 12 8 12 11 4
split_gain=5497.73 7169.87 3915.37 1193.14 1057.02 697.285 664.682 616.688 692.648 579.567 468.229 298.566 205.087 187.084
threshold=6.5000000000000009 18.500000000000004 9.5000000000000018 1.5000000000000002 20.500000000000004 1.0000000180025095e-35 1.0000000180025095e-35 1.0000000180025095e-35 1.0000000180025095e-35 4.5000000000000009 1.0000000180025095e-35 1.0000000180025095e-35 1.0000000180025095e-35 1.0000000180025095e-35
decision_type=2 2 2 2 2 2 2 2 2 2 2 2 2 2
left_child=3 2 5 11 6 -2 -3 8 -5 -6 -4 -1 -13 -9
right_child=1 4 10 7 9 -7 -8 13 -10 -11 -12 12 -14 -15
leaf_value=-0.009505663465346606 -0.0043364937233417158 -0.005151541319560908 -0.022747724121119698 0.0063062312240123267 0.0092891369643973258 0.031791761715940427 0.024199249775196822 0.02597985441960661 0.024066165563812043 -0.00041303106535628132 0.019589103901957283 0.0041292884753625393 -0.0023130744996356866 0.013334670675779032
leaf_weight=7955.0489081144333 43761.77339489758 36167.801059305668 65624.461905233562 137474.91883838177 55390.930258750916 1377.5801053792238 2037.5897613763809 5200.8380017876625 5718.3257465362549 21315.736587584019 659.6369995623827 24887.29260802269 24529.017425715923 6684.3210517168045
leaf_count=21027 212137 141087 618979 367120 157344 1272 882 2213 2301 64130 2737 62822 62414 766
internal_value=-0.000131992 -0.00555434 -0.0145917 0.00564476 0.0032087 -0.00323392 -0.00358619 0.00792384 0.00701546 0.00659304 -0.0223264 -0.000515739 0.000931461 0.0188681
internal_weight=438785 226336 111423 212450 114912 45139.4 38205.4 155078 143193 76706.7 66284.1 57371.4 49416.3 11885.2
internal_count=1717231 1198568 835125 518663 363443 213409 141969 372400 369421 221474 621716 146263 125236 2979
is_linear=0
shrinkage=0.05


Tree=41
num_leaves=15
num_cat=0
split_feature=11 11 11 6 9 1 9 4 1 0 9 4 6 2
split_gain=5236.26 8884.9 1812.58 1025.26 1225.83 944.988 1028.73 1197.21 539.978 463.297 345.399 307.27 196.724 142.453
threshold=7.5000000000000009 18.500000000000004 9.5000000000000018 1.0000000180025095e-35 1.0000000180025095e-35 1.0000000180025095e-35 1.0000000180025095e-35 1.0000000180025095e-35 1.0000000180025095e-35 1.0000000180025095e-35 1.0000000180025095e-35 1.0000000180025095e-35 1.0000000180025095e-35 1.0000000180025095e-35
decision_type=2 2 2 2 2 2 2 2 2 2 2 2 2 2
left_child=5 2 8 4 -3 6 7 -1 -2 -4 -5 -8 13 -7
right_child=1 3 9 10 -6 12 11 -9 -10 -11 -12 -13 -14 -15
leaf_value=0.0027201186780485046 -0.0071548205930782238 0.0011647913286727627 -0.02270929724188972 0.037579412699837111 0.033511488102653336 0.027286209253133426 0.028418397383686886 0.028513979635803616 0.042733537953483489 0.018397064833944789 0.012639625427210902 0.010408621012355125 0.010080628564394872 0.015311506659281514
leaf_weight=203278.59570705891 22526.875075429678 106674.3831512928 64128.329186156392 2547.7226091921329 3011.6169205904007 4417.1141642332077 5123.2295840978622 4600.3950591087341 555.77918979525566 692.86475022137165 3050.5306704640388 4404.350457072258 8070.7779403924942 5673.7822796106339
leaf_count=579836 139926 359048 619087 1912 1948 2687 3073 3024 798 2629 535 670 1003 1055
internal_value=-0.000130363 -0.00601173 -0.0179854 0.00311818 0.00205293 0.00494257 0.00402727 0.00329094 -0.00595362 -0.0222699 0.0239895 0.0200929 0.0158994 0.0205532
internal_weight=438756 203188 87903.8 115284 109686 235568 217407 207879 23082.7 64821.2 5598.25 9527.58 18161.7 10090.9
internal_count=1717231 1125883 762440 363443 360996 591348 586603 582860 140724 621716 2447 3743 4745 3742
is_linear=0
shrinkage=0.05


Tree=42
num_leaves=15
num_cat=0
split_feature=11 11 11 11 11 4 7 12 10 7 7 12 11 8
split_gain=4994.83 6720.6 3826.01 1111.54 995.61 644.825 614.749 547.902 527.384 604.814 466.357 284.863 193.616 175.858
threshold=6.5000000000000009 18.500000000000004 9.5000000000000018 1.5000000000000002 20.500000000000004 1.0000000180025095e-35 1.0000000180025095e-35 5.5000000000000009 1.0000000180025095e-35 1.0000000180025095e-35 1.0000000180025095e-35 1.0000000180025095e-35 1.0000000180025095e-35 1.0000000180025095e-35
decision_type=2 2 2 2 2 2 2 2 2 2 2 2 2 2
left_child=3 2 5 11 6 -2 -3 -6 9 -5 -4 -1 -13 -10
right_child=1 4 10 8 7 -7 -8 -9 13 -11 -12 12 -14 -15
leaf_value=-0.0094298286923720064 -0.0042226115415713921 -0.005140143179234659 -0.022643179068909069 0.0059867944761386079 0.0079387981789407949 0.030040635526948124 0.022165732652853799 -0.0044231432393735722 0.023743148468175976 0.022286522246773494 0.020470929856899349 0.0038708381233536443 -0.0023708363514567 0.01176296686334464
leaf_weight=7915.873902618885 43529.630597755313 36002.114038050175 62760.609699033201 138899.97532749176 67114.126876056194 1417.8994128257036 2186.4029062986374 10344.934357404709 5826.3524323105812 5934.3166198134422 633.55135826021433 25111.407101750374 24592.103175163269 6459.0211367607117
leaf_count=21027 212076 141023 619042 367120 189886 1333 946 31588 2231 2301 2674 62822 62414 748
internal_value=-0.000128785 -0.00535244 -0.0143005 0.00531989 0.00303038 -0.00314175 -0.0035768 0.00628782 0.00749832 0.00665465 -0.0222123 -0.000620399 0.000782607 0.0174446
internal_weight=438728 223989 108342 214739 115648 44947.5 38188.5 77459.1 157120 144834 63394.2 57619.4 49703.5 12285.4
internal_count=1717231 1198568 835125 518663 363443 213409 141969 221474 372400 369421 621716 146263 125236 2979
is_linear=0
shrinkage=0.05


Tree=43
num_leaves=15
num_cat=0
split_feature=11 11 11 11 11 5 2 3 4 7 6 12 11 4
split_gain=4761.02 8389.38 1792.16 941.356 842.663 667.627 689.948 591.454 522.06 511.533 466.467 273.469 183.695 174.79
threshold=7.5000000000000009 18.500000000000004 9.5000000000000018 20.500000000000004 1.5000000000000002 1.0000000180025095e-35 1.0000000180025095e-35 1.0000000180025095e-35 1.0000000180025095e-35 1.0000000180025095e-35 1.0000000180025095e-35 1.0000000180025095e-35 1.0000000180025095e-35 1.0000000180025095e-35
decision_type=2 2 2 2 2 2 2 2 2 2 2 2 2 2
left_child=4 2 9 7 11 6 -6 -3 -5 -2 -4 13 -13 -1
right_child=1 3 10 8 5 -7 -8 -9 -10 -11 -12 12 -14 -15
leaf_value=-0.011128745989977347 -0.0069879537569228758 -0.0050024702752641398 -0.022619450089877348 0.0051464570640987828 0.0047276738204619717 0.016814275996569508 0.019669692611219536 0.022379874332594817 0.023791260105905876 0.040419577049012743 0.01821664825777089 0.0037599585138470152 -0.0023175282184086095 0.020922549196192852
leaf_weight=7390.231470823288 22285.356274023652 35966.480182081461 61294.747667975724 73993.214095681906 158084.71024686098 14034.589347362518 8122.6621339321136 2086.4603918790817 3955.1197540163994 583.91840809583664 707.3842139095068 25208.797635257244 24533.869292795658 451.34822422266006
leaf_count=20897 139944 141054 619037 219866 438545 3574 2966 915 1608 780 2679 62822 62414 130
internal_value=-0.000127128 -0.00579482 -0.0177409 0.00294543 0.00465992 0.00634217 0.0054579 -0.00350108 0.0060925 -0.0057775 -0.0221535 -0.000605627 0.000762446 -0.00928393
internal_weight=438699 200873 84871.4 116001 237826 180242 166207 38052.9 77948.3 22869.3 62002.1 57584.2 49742.7 7841.58
internal_count=1717231 1125883 762440 363443 591348 445085 441511 141969 221474 140724 621716 146263 125236 21027
is_linear=0
shrinkage=0.05


Tree=44
num_leaves=15
num_cat=0
split_feature=11 11 11 11 11 5 10 1 12 8 3 12 6 9
split_gain=4546.68 6299.89 3729.98 1030.62 890.244 591.152 571.532 538.193 514.315 467.62 423.572 364.393 196.706 163.202
threshold=6.5000000000000009 18.500000000000004 9.5000000000000018 3.5000000000000004 20.500000000000004 1.0000000180025095e-35 1.0000000180025095e-35 1.0000000180025095e-35 4.5000000000000009 1.0000000180025095e-35 1.0000000180025095e-35 5.5000000000000009 1.0000000180025095e-35 1.0000000180025095e-35
decision_type=2 2 2 2 2 2 2 2 2 2 2 2 2 2
left_child=3 2 5 7 6 -2 -3 10 -6 -4 -1 12 -5 -13
right_child=1 4 9 11 8 -7 -8 -9 -10 -11 -12 13 -14 -15
leaf_value=0.00030172497193072477 -0.0040662639906267313 -0.0049254796049498784 -0.022552212368566912 0.0068315456035145539 0.0083965338234345301 0.030026369171754011 0.021713396230469802 0.013273178925218725 -0.00067436244106826727 0.019943590490468829 0.016727231974263613 0.01452872928507665 0.015771830949287878 0.033679341076820607
leaf_weight=105626.55584552884 43488.414071798325 35787.162163466215 59989.831965617836 76330.959448218346 56878.992812156677 1309.801642537117 2133.5264723300934 9574.1889516115189 21546.351445764303 654.41436745226383 4076.3782113790512 13367.04317253828 6691.9375704526901 1213.4966890215874
leaf_count=289671 212168 141058 618979 190220 157344 1241 911 2320 64130 2737 1610 32925 1627 290
internal_value=-0.000125448 -0.00515917 -0.014011 0.00502219 0.00286313 -0.00306947 -0.0034267 0.00190428 0.00590442 -0.0220936 0.000912069 0.00883246 0.00755216 0.0161226
internal_weight=438669 221788 105442 216881 116346 44798.2 37920.7 119277 78425.3 60644.2 109703 97603.4 83022.9 14580.5
internal_count=1717231 1198568 835125 518663 363443 213409 141969 293601 221474 621716 291281 225062 191847 33215
is_linear=0
shrinkage=0.05


Tree=45
num_leaves=15
num_cat=0
split_feature=11 11 11 6 5 11 10 8 3 0 4 12 8 11
split_gain=4329.39 7917.08 1770.32 871.252 1110.46 768.29 599.929 678.118 478.526 463.726 341.824 262.101 208.567 173.969
threshold=7.5000000000000009 18.500000000000004 9.5000000000000018 1.0000000180025095e-35 1.0000000180025095e-35 1.5000000000000002 1.0000000180025095e-35 1.0000000180025095e-35 1.0000000180025095e-35 1.0000000180025095e-35 1.0000000180025095e-35 1.0000000180025095e-35 1.0000000180025095e-35 1.0000000180025095e-35
decision_type=2 2 2 2 2 2 2 2 2 2 2 2 2 2
left_child=5 2 8 4 -3 11 7 -7 -2 -4 -5 -1 -8 -13
right_child=1 3 9 10 -6 6 12 -9 -10 -11 -12 13 -14 -15
leaf_value=-0.0091683736878419905 -0.0067405712812223023 0.0010048616072921401 -0.022510641204927372 0.03450821465692628 0.033847712379219554 0.004520213748313899 0.022471009878005266 0.020678180963035954 0.040840708336569664 0.018845933958099997 0.010362875328336452 0.0036012813301602325 0.010131772970903924 -0.002305815913066939
leaf_weight=7783.7200156748295 22121.552745699883 108147.64651328325 58633.922206297517 2722.562548905611 2636.4684433341026 161832.51578968763 6570.7863147258759 6764.826991558075 541.3432956635952 685.74386857450008 3175.4249261021614 25349.494512975216 7152.2475755214691 24521.109674215317
leaf_count=21027 139966 359094 619087 1872 1902 438906 2626 2686 758 2629 575 62822 867 62414
internal_value=-0.000123776 -0.00558327 -0.0174911 0.00278337 0.00178646 0.0043959 0.00598682 0.00516854 -0.00560401 -0.0220326 0.0215086 -0.00063507 0.01604 0.000696793
internal_weight=438639 198665 81982.6 116682 110784 239975 182320 168597 22662.9 59319.7 5897.99 57654.3 13723 49870.6
internal_count=1717231 1125883 762440 363443 360996 591348 445085 441592 140724 621716 2447 146263 3493 125236
is_linear=0
shrinkage=0.05


Tree=46
num_leaves=15
num_cat=0
split_feature=11 11 11 11 11 9 2 12 1 7 3 12 6 6
split_gain=4140.22 5902.37 3632.92 932.458 840.497 555.492 532.925 490.617 490.51 463.603 390.862 332.699 169.055 157.523
threshold=6.5000000000000009 18.500000000000004 9.5000000000000018 3.5000000000000004 20.500000000000004 1.0000000180025095e-35 1.0000000180025095e-35 5.5000000000000009 1.0000000180025095e-35 1.0000000180025095e-35 1.0000000180025095e-35 5.5000000000000009 1.0000000180025095e-35 1.0000000180025095e-35
decision_type=2 2 2 2 2 2 2 2 2 2 2 2 2 2
left_child=3 2 5 8 6 -2 -3 -6 10 -4 -1 12 -5 -10
right_child=1 4 9 11 7 -7 -8 -9 13 -11 -12 -13 -14 -15
leaf_value=0.00023366262798533481 -0.0039885554039956203 -0.0048906708422577772 -0.022438877719803737 0.0064447519734639157 0.007169444041652661 0.028427543311947235 0.020424311570787553 -0.0044927403166177687 0.018158461288952384 0.020653385998249521 0.015850287502497246 0.01521725205957866 0.014619942902854434 0.0053714938524392943
leaf_weight=105913.40657451749 43290.271216467023 35694.592482686043 57396.558121174574 77275.011828780174 68727.772949129343 1363.2059816122055 2207.5603092610836 10380.337854683399 5457.3716447353363 631.00983254611492 4164.2542519569397 14910.160966932774 6887.3372474908829 4311.1499158143997
leaf_count=289671 212086 141087 619042 190220 189886 1323 882 31588 1838 2674 1610 33215 1627 482
internal_value=-0.000122122 -0.0049714 -0.0137201 0.00474427 0.00270593 -0.00299894 -0.00341623 0.00563917 0.00177734 -0.0219703 0.000824442 0.00833332 0.00711376 0.0125152
internal_weight=438610 219691 102681 218919 117010 44653.5 37902.2 79108.1 119846 58027.6 110078 99072.5 84162.3 9768.52
internal_count=1717231 1198568 835125 518663 363443 213409 141969 221474 293601 621716 291281 225062 191847 2320
is_linear=0
shrinkage=0.05


Tree=47
num_leaves=15
num_cat=0
split_feature=11 11 11 11 8 1 2 6 1 0 8 12 6 6
split_gain=3939.61 5705.27 3592.83 873.439 809.552 1066.94 540.466 465.269 459.249 391.984 376.12 306.624 156.198 144.389
threshold=6.5000000000000009 18.500000000000004 9.5000000000000018 3.5000000000000004 1.0000000180025095e-35 1.0000000180025095e-35 1.0000000180025095e-35 1.0000000180025095e-35 1.0000000180025095e-35 1.0000000180025095e-35 1.0000000180025095e-35 5.5000000000000009 1.0000000180025095e-35 1.0000000180025095e-35
decision_type=2 2 2 2 2 2 2 2 2 2 2 2 2 2
left_child=3 2 6 8 5 -3 -2 -4 10 -6 -1 12 -5 -10
right_child=1 4 7 11 9 -7 -8 -9 13 -11 -12 -13 -14 -15
leaf_value=0.00018331736063493718 -0.003958982627388352 0.00078698586656436587 -0.022413324412804681 0.0062438461193900108 0.035041071715300263 0.028293858912352171 0.026667642534458681 0.018545824403142314 0.017384914641425275 0.0089054814280871922 0.014572336214679016 0.014612466220200834 0.014047393252203439 0.0052097056643111818
leaf_weight=105422.93947699666 43030.083085492253 107906.11338549852 56065.150440774858 77774.635798633099 2647.3878020346165 3644.3639763593674 1490.3807530552149 702.01583571732044 5557.3743315935135 3131.7857816815376 4745.9999954104424 15138.787784934044 6988.7693712711334 4334.3695361614227
leaf_count=289522 212166 358991 619037 190220 1893 2015 1243 2679 1838 544 1759 33215 1627 482
internal_value=-0.000120441 -0.00487384 -0.0135673 0.00460388 0.00263097 0.00168564 -0.00293372 -0.0219068 0.0017298 0.020878 0.000803186 0.0080579 0.00688725 0.01205
internal_weight=438580 218617 101288 219963 117330 111550 44520.5 56767.2 120061 5779.17 110169 99902.2 84763.4 9891.74
internal_count=1717231 1198568 835125 518663 363443 361006 213409 621716 293601 2437 291281 225062 191847 2320
is_linear=0
shrinkage=0.05


Tree=48
num_leaves=15
num_cat=0
split_feature=11 11 11 11 11 10 7 7 8 12 7 12 8 11
split_gain=3759.98 7253.46 1731.29 794.116 680.548 508.828 616.258 492.879 465.018 460.641 432.283 250.735 191.769 164.621
threshold=7.5000000000000009 18.500000000000004 9.5000000000000018 20.500000000000004 1.5000000000000002 1.0000000180025095e-35 1.0000000180025095e-35 1.0000000180025095e-35 1.0000000180025095e-35 5.5000000000000009 1.0000000180025095e-35 1.0000000180025095e-35 1.0000000180025095e-35 1.0000000180025095e-35
decision_type=2 2 2 2 2 2 2 2 2 2 2 2 2 2
left_child=4 2 10 7 11 6 -6 -3 -4 -5 -2 -1 -7 -13
right_child=1 3 8 9 5 12 -8 -9 -10 -11 -12 13 -14 -15
leaf_value=-0.009077012160890921 -0.0065587427962010524 -0.0048728556495626716 -0.022340489720764911 0.0068569062006364149 0.0041475995067545386 0.020635033064210773 0.019539023153858449 0.018729051191584124 0.020158733376679623 -0.0044471521397479686 0.035355490665943935 0.0034049687312708906 0.0090151852284447286 -0.0023298994440125293
leaf_weight=7738.576360732317 21761.830470517278 35519.916796416044 54886.389738440514 69405.674156218767 164168.89678016305 6836.1332284808159 6771.7284512519836 2358.9065933823586 651.28481131792068 10357.120365977287 633.05067138373852 25525.750812828541 7388.2127425670624 24547.3577709198
leaf_count=21027 139944 141023 618979 189886 438917 2626 2675 946 2737 31588 780 62822 867 62414
internal_value=-0.000118789 -0.00527914 -0.0171098 0.00255815 0.00403482 0.00551341 0.00475732 -0.00340305 -0.0218421 0.00538909 -0.00537393 -0.000700925 0.0145996 0.000593562
internal_weight=438551 195574 77932.6 117642 242977 185165 170941 37878.8 55537.7 79762.8 22394.9 57811.7 14224.3 50073.1
internal_count=1717231 1125883 762440 363443 591348 445085 441592 141969 621716 221474 140724 146263 3493 125236
is_linear=0
shrinkage=0.05


Tree=49
num_leaves=15
num_cat=0
split_feature=11 11 11 11 11 4 3 4 12 5 7 12 4 11
split_gain=3588.04 5340.17 3494.95 792.597 751.751 505.642 475.988 462.488 440.652 340.162 422.569 240.685 160.713 156.283
threshold=6.5000000000000009 18.500000000000004 9.5000000000000018 1.5000000000000002 20.500000000000004 1.0000000180025095e-35 1.0000000180025095e-35 1.0000000180025095e-35 4.5000000000000009 1.0000000180025095e-35 1.5000000000000002 1.0000000180025095e-35 1.0000000180025095e-35 1.0000000180025095e-35
decision_type=2 2 2 2 2 2 2 2 2 2 2 2 2 2
left_child=3 2 5 11 6 -2 -3 -4 -6 10 -5 12 -1 -13
right_child=1 4 7 9 8 -7 -8 -9 -10 -11 -12 13 -14 -15
leaf_value=-0.01077317471408855 -0.0038817002237879782 -0.0047432678952442318 -0.022255670771098301 0.0049766121794425529 0.0074846427354172372 0.025120089883062125 0.018979440277352197 0.022599844517240852 -0.0008567447645781226 0.013513954259058601 0.021174257403329629 0.0033089956226097701 0.019544237712481413 -0.0022774160983548551
leaf_weight=7203.2829908132553 42821.205784142017 35502.346498668194 53757.477994196117 145717.90491315722 58484.103578746319 1557.5776670873165 2248.4115563035011 580.86690517514944 21710.274296313524 14228.069734036922 4140.9872321486473 25612.812098264694 465.36781591176987 24490.232345640659
leaf_count=20897 212076 141054 619045 368064 157344 1333 915 2671 64130 3113 1223 62822 130 62414
internal_value=-0.000117103 -0.00469378 -0.013274 0.00435238 0.00248767 -0.00286381 -0.00333036 -0.0217762 0.00522646 0.00612566 0.00542419 -0.000684223 -0.00893338 0.000578373
internal_weight=438521 216662 98717.1 221859 117945 44378.8 37750.8 54338.3 80194.4 164087 149859 57771.7 7668.65 50103
internal_count=1717231 1198568 835125 518663 363443 213409 141969 621716 221474 372400 369287 146263 21027 125236
is_linear=0
shrinkage=0.05


Tree=50
num_leaves=15
num_cat=0
split_feature=11 11 11 9 8 11 0 10 6 1 5 12 4 5
split_gain=3420.19 6835.29 1705.73 734.109 1077.95 606.246 465.913 445.945 568.282 409.617 302.001 231.03 182.221 156.585
threshold=7.5000000000000009 18.500000000000004 9.5000000000000018 1.0000000180025095e-35 1.0000000180025095e-35 1.5000000000000002 1.0000000180025095e-35 1.0000000180025095e-35 1.0000000180025095e-35 1.0000000180025095e-35 1.0000000180025095e-35 1.0000000180025095e-35 1.0000000180025095e-35 1.5000000000000002
decision_type=2 2 2 2 2 2 2 2 2 2 2 2 2 2
left_child=5 2 9 4 -3 11 -4 8 -7 -2 -5 13 -9 -1
right_child=1 3 6 10 -6 7 -8 12 -10 -11 -12 -13 -14 -15
leaf_value=-0.010270184948409049 -0.006373755086957267 0.00068971998827645545 -0.022239452969409854 0.029102788704423895 0.033050404067651765 0.0038885356596981046 0.019589755274168563 0.019799567847657275 0.018334881154433783 0.034404308308333846 0.0078597697237349096 0.00056358274343987897 0.0085641108305620026 0.026031792311493468
leaf_weight=7290.9824081659317 21573.502087473869 108913.02853795886 52494.168129041791 3353.2933851480484 2635.6404907405376 165440.94245490432 674.26070435345173 6522.6890459060669 7099.6423270702362 633.93102417886257 3339.0401582717896 50132.225974798203 8077.9493478536606 309.6671679019928
leaf_count=20957 139926 359117 619087 1931 1843 438896 2629 2612 2696 798 552 125236 881 70
internal_value=-0.000115415 -0.0050815 -0.0168479 0.00241932 0.00145433 0.00381117 -0.021709 0.00519298 0.00448297 -0.00520971 0.0185039 -0.000667988 0.0135834 -0.00879116
internal_weight=438491 193617 75375.9 118241 111549 244874 53168.4 187141 172541 22207.4 6692.33 57732.9 14600.6 7600.65
internal_count=1717231 1125883 762440 363443 360960 591348 621716 445085 441592 140724 2483 146263 3493 21027
is_linear=0
shrinkage=0.05


Tree=51
num_leaves=15
num_cat=0
split_feature=11 11 11 11 11 3 6 7 12 1 3 12 6 9
split_gain=3268.52 4995.54 3396.64 738.517 710.434 473.463 462.417 438.146 416.863 398.408 346.122 277.45 137.941 118.388
threshold=6.5000000000000009 18.500000000000004 9.5000000000000018 3.5000000000000004 20.500000000000004 1.0000000180025095e-35 1.0000000180025095e-35 1.0000000180025095e-35 5.5000000000000009 1.0000000180025095e-35 1.0000000180025095e-35 5.5000000000000009 1.0000000180025095e-35 1.0000000180025095e-35
decision_type=2 2 2 2 2 2 2 2 2 2 2 2 2 2
left_child=3 2 5 9 7 -2 -4 -3 -6 10 -1 -5 -11 -13
right_child=1 4 6 11 8 -7 -8 -9 -10 12 -12 13 -14 -15
leaf_value=4.5803145930606122e-05 -0.0037178572657796914 -0.0047326443197984978 -0.022190396457844208 0.0061380608310958014 0.0063720474649621916 0.026193901821157557 0.018770555167287303 0.017141665726091351 -0.0043850276845585632 0.016060294025557659 0.014503401359489987 0.012032849140195399 0.0043400354799813913 0.027486716493049481
leaf_weight=106713.27323538065 42874.923745065928 35272.097496390343 51328.813127860427 86814.085873425007 70484.215663135052 1365.0661922693253 698.3973738104105 2448.1229640841484 10325.648476094007 5737.4059397578239 4306.8526667356491 14272.105786681175 4463.5968897342682 1357.1378635168076
leaf_count=289671 212182 141023 619037 191847 189886 1227 2679 946 31588 1838 1610 32925 482 290
internal_value=-0.000113768 -0.00451895 -0.01298 0.00411677 0.00235286 -0.0027949 -0.0216405 -0.00331295 0.00499754 0.00147555 0.000606663 0.00724213 0.0109319 0.0133748
internal_weight=438462 214797 96267.2 223664 118530 44240 52027.2 37720.2 80809.9 121221 111020 102443 10201 15629.2
internal_count=1717231 1198568 835125 518663 363443 213409 621716 141969 221474 293601 291281 225062 2320 33215
is_linear=0
shrinkage=0.05


Tree=52
num_leaves=15
num_cat=0
split_feature=11 11 11 6 3 11 7 5 3 6 0 12 8 8
split_gain=3111.61 6437.37 1678.59 674.979 942.987 554.754 462.781 406.878 503.773 380.006 312.806 221.552 159.549 150.362
threshold=7.5000000000000009 18.500000000000004 9.5000000000000018 1.0000000180025095e-35 1.0000000180025095e-35 1.5000000000000002 1.0000000180025095e-35 1.0000000180025095e-35 1.0000000180025095e-35 1.0000000180025095e-35 1.0000000180025095e-35 1.0000000180025095e-35 2.5000000000000004 1.0000000180025095e-35
decision_type=2 2 2 2 2 2 2 2 2 2 2 2 2 2
left_child=5 2 9 4 -3 11 -4 8 -7 -2 -5 13 -9 -1
right_child=1 3 6 10 -6 7 -8 12 -10 -11 -12 -13 -14 -15
leaf_value=-0.010552798924788418 -0.0061754877719630303 0.00051556125332508898 -0.02210116984607037 0.029801751439631641 0.025307475497459209 0.0036008561221065683 0.021276441754978156 0.016103378598420461 0.016012361275641058 0.033282163192761241 0.0075978190547878232 0.00051428597056949246 0.0052446786949527906 0.017845851607415447
leaf_weight=7046.5614803433418 21400.490511417389 108473.81298080087 50291.498566016555 3018.4318430125713 3976.1260409355164 164705.5969902873 622.48258598893881 10633.322455942631 8602.7425892949104 628.10364209115505 3342.8845847845078 50229.739701509476 4961.1052286624908 499.11990070343018
leaf_count=20891 139944 358866 619042 1917 2130 438611 2674 3082 2900 780 530 125236 492 136
internal_value=-0.000112092 -0.00488964 -0.0165817 0.00228854 0.00139218 0.0036017 -0.0215708 0.00491302 0.00421694 -0.00505043 0.0181335 -0.000685781 0.0126489 -0.00867433
internal_weight=438432 191754 72942.6 118811 112450 246678 50914 188903 173308 22028.6 6361.32 57775.4 15594.4 7545.68
internal_count=1717231 1125883 762440 363443 360996 591348 621716 445085 441511 140724 2447 146263 3574 21027
is_linear=0
shrinkage=0.05


Tree=53
num_leaves=15
num_cat=0
split_feature=11 11 11 11 11 8 10 2 12 1 8 12 6 8
split_gain=2977.52 4670.08 3298.45 672.242 671.449 463.001 446.373 410.723 395.793 362.899 322.696 255.175 127.197 111.525
threshold=6.5000000000000009 18.500000000000004 9.5000000000000018 20.500000000000004 3.5000000000000004 1.0000000180025095e-35 1.0000000180025095e-35 1.0000000180025095e-35 4.5000000000000009 1.0000000180025095e-35 1.0000000180025095e-35 5.5000000000000009 1.0000000180025095e-35 47.500000000000007
decision_type=2 2 2 2 2 2 2 2 2 2 2 2 2 2
left_child=4 2 6 7 9 -4 -2 -3 -5 10 -1 -6 -11 -13
right_child=1 3 5 8 11 -7 -8 -9 -10 12 -12 13 -14 -15
leaf_value=-3.7919720844270973e-05 -0.0037120655019498823 -0.0046578383105059813 -0.022051870568513605 0.0068923314145464647 0.0057953525062994626 0.020579121093823375 0.022923863514801569 0.016693769933722156 -0.0009787212538242317 0.015174283944609993 0.013036584153258616 0.012543252090402621 0.0040092770320795173 0.14506197314887434
leaf_weight=106363.73124548793 42467.750610724092 35282.580535560846 49182.806731171906 59576.13104107976 87785.584883749485 645.25525304675102 1633.4008241444826 2405.8934913277626 21821.305904656649 5864.4796766042709 4938.4868796467781 15904.735361337662 4514.7913159132004 15.892520427703856
leaf_count=289522 212137 141087 618979 157344 191847 2737 1272 882 64130 1838 1759 33213 482 2
internal_value=-0.000110446 -0.00434903 -0.012685 0.00222599 0.00389546 -0.0214998 -0.00272553 -0.00329483 0.00478223 0.00137604 0.000542197 0.00685158 0.0103177 0.0126755
internal_weight=438403 213015 93929.2 119086 225388 49828.1 44101.2 37688.5 81397.4 121681 111302 103706 10379.3 15920.6
internal_count=1717231 1198568 835125 363443 518663 621716 213409 141969 221474 293601 291281 225062 2320 33215
is_linear=0
shrinkage=0.05


Tree=54
num_leaves=15
num_cat=0
split_feature=11 11 11 11 11 0 0 10 12 1 12 12 6 6
split_gain=2833.93 4508.85 3256.24 636.913 630.707 461.64 427.628 398.474 377.937 340.78 309.449 236.44 117.376 107.23
threshold=6.5000000000000009 18.500000000000004 9.5000000000000018 20.500000000000004 3.5000000000000004 1.0000000180025095e-35 1.0000000180025095e-35 1.0000000180025095e-35 5.5000000000000009 1.0000000180025095e-35 1.0000000180025095e-35 5.5000000000000009 1.0000000180025095e-35 28.500000000000004
decision_type=2 2 2 2 2 2 2 2 2 2 2 2 2 2
left_child=4 2 6 7 9 -4 -2 -3 -5 10 -1 -6 -11 -13
right_child=1 3 5 8 11 -7 -8 -9 -10 12 -12 13 -14 -15
leaf_value=-0.0061024020395806771 -0.0036582809344317536 -0.004570737843717379 -0.02200265390830921 0.0059303297273839602 0.0056183855318585095 0.019717491837591066 0.021818168644341582 0.016468040125727033 -0.0043176579300283364 0.014571841006420628 0.0015760227638185556 0.011994636301286641 0.0038938867795414787 0.09207092416080824
leaf_weight=15194.74956843257 42267.756907790899 35160.50226610899 48096.44732786715 71496.391715705395 88295.811084568501 672.32727868855 1713.9206457138062 2404.5152401328087 10291.734023839235 5954.1475538611412 96168.238785535097 16081.946625590324 4532.9287066459656 41.916099071502686
