tree
version=v4
num_class=1
num_tree_per_iteration=1
label_index=0
max_feature_idx=13
objective=poisson
feature_names=recent_h1 recent_h2 recent_h3 recent_h4 same_hour_d1 same_hour_d2 same_hour_d3 same_hour_d4 same_hour_wd_w1 same_hour_wd_w2 same_hour_wd_w3 hour weekday is_weekend
feature_infos=[0:55] [0:55] [0:60] [0:40] [0:60] [0:46] [0:52] [0:85] [0:84] [0:56] [0:57] [0:23] [0:6] [0:1]
tree_sizes=1717 1745 1744 1744 1739 1745 1745 1747 1743 1763 1768 1776 1768 1764 1778 1775 1769 1769 1785 1792 1790 1790 1788 1793 1791 1796 1808 1802 1793 1804 1800 1807 1803 1810 1807 1804 1810 1812 1803 1810 1804 1812 1815 1810 1805 1811 1814 1822 1810 1810 1819 1808 1817 1814 1812 1816 1825 1822 1816 1816 1819 1816 1825 1817 1813 1826 1793 1822 1810 1826 1819 1815 1810 1818 1818 1826 1798 1820 1817 1802 1823 1824 1818 1805 1819 1811 1811 1807 1821 1801 1833 1810 1818 1831 1808 1802 1834 1816 1809 1824 1818 1805 1816 1814 1801 1839 1797 1823 1809 1802 1809 1812 1800 1817 1806 1821 1801 1806 1802 1813 1809 1822 1813 1807 1830 1804 1814 1809 1798 1793 1809 1800 1808 1824 1794 1804 1799 1806 1800 1820 1813 1792 1793 1793 1792 1824 1796 1797 1798 1810 1812 1789 1797 1796 1798 1801 1815 1791 1798 1799 1813 1804 1792 1809 1804 1790 1785 1799 1788 1783 1810 1795 1797 1776 1788 1785 1789 1785 1828 1764 1786 1785 1789 1762 1807 1787 1753 1806 1755 1786 1756 1808 1757 1768 1756 1798 1649 1787 1759 1768 1762 1803 1553 1768 1795 1763 1760 1789 1774 1760 1771 1792 1642 1753 1807 1767 1781 1762 1750 1779 1796 1661 1783 1765 1773 1807 1771 1746 1762 1817 1760 1741 1814 1766 1765 1801 1765 1756 1775 1765 1763 1770 1758 1746 1781 1772 1772 1817 1777 1755 1766 1776 1747 1784 1774 1821 1820 1788 1755 1771 1785 1818 1759 1774 1747 1822 1744 1747 1783 1817 1669 1757 1797 1762 1781 1791 1760 1789 1799 1766 1781 1779 1784 1818 1664 1652 1781 1757 1654 1779 1758 1759 1733 1796 1792 1775 1746 1777 1799 1792

Tree=0
num_leaves=15
num_cat=0
split_feature=0 0 4 8 8 4 0 10 10 9 10 0 6 4
split_gain=1.43512e+06 407162 335614 146662 119022 101690 91086 59334.9 53778.6 45321.4 45099.1 33375.4 20918.7 20632.3
threshold=2.5000000000000004 14.500000000000002 1.0000000180025095e-35 1.0000000180025095e-35 3.5000000000000004 2.5000000000000004 1.0000000180025095e-35 1.0000000180025095e-35 10.500000000000002 1.5000000000000002 1.0000000180025095e-35 24.500000000000004 7.5000000000000009 10.500000000000002
decision_type=2 2 2 2 2 2 2 2 2 2 2 2 2 2
left_child=2 5 3 6 7 9 -1 -4 11 -2 -5 -3 -6 -7
right_child=1 8 4 10 12 13 -8 -9 -10 -11 -12 -13 -14 -15
leaf_value=-2.7546054274428236 -1.7719124253842784 0.3053170367892708 -2.3561985599265554 -2.4189426105243736 -1.1003052798073039 -0.65053581553899287 -2.3588034983509294 -1.6047095017294093 3.563181348064286 -0.80334277350178951 -1.7272314096225545 1.8701976833570093 0.47791710466717285 0.59532682148082472
leaf_weight=429251.41249164939 884.05071075260639 106.1794298440218 1900.3395392596722 1736.4679894149303 142.22079919278622 114.60636872053146 1458.5086517035961 304.7958969026804 19.965362876653671 139.88718535006046 272.6438839584589 50.172697618603706 24.632590562105179 46.80192206799984
leaf_count=3310970 6819 819 14658 13394 1097 884 11250 2351 154 1079 2103 387 190 361
internal_value=-2.74295 -1.12226 -2.74803 -2.75128 -2.1549 -1.45572 -2.75327 -2.25233 1.11952 -1.63959 -2.32507 0.80748 -0.867312 -0.289286
internal_weight=436453 1361.66 435091 432719 2371.99 1185.35 430710 2205.14 176.317 1023.94 2009.11 156.352 166.853 161.408
internal_count=3366516 10503 3356013 3337717 18296 9143 3322220 17009 1360 7898 15497 1206 1287 1245
is_linear=0
shrinkage=1


Tree=1
num_leaves=15
num_cat=0
split_feature=0 0 9 5 1 5 4 9 7 7 0 10 4 0
split_gain=115613 166079 136780 79346.5 47840.9 14441.4 14436.3 11687.5 10098.9 8180.33 7867.17 7411.92 6186.48 6178.77
threshold=1.0000000180025095e-35 14.500000000000002 1.0000000180025095e-35 1.0000000180025095e-35 1.0000000180025095e-35 4.5000000000000009 10.500000000000002 6.5000000000000009 1.0000000180025095e-35 1.0000000180025095e-35 2.5000000000000004 10.500000000000002 1.0000000180025095e-35 24.500000000000004
decision_type=2 2 2 2 2 2 2 2 2 2 2 2 2 2
left_child=2 6 3 4 -1 -5 8 9 -2 -4 -8 13 -9 -3
right_child=1 11 7 5 -6 -7 10 12 -10 -11 -12 -13 -14 -15
leaf_value=-0.012446145641551264 0.27263020353422096 0.12096133643014946 0.242293573964806 0.22352999098696766 0.25443751532565551 0.53915923699631718 0.47732648972143193 0.75418372150035162 0.41018141374867634 0.4701465139860358 0.094554212379950778 -0.01327479016199184 0.3912640798086508 0.021181848467997408
leaf_weight=424481.11067374051 5633.5405955165625 2238.1415312290192 2034.270095333457 1761.1584503799677 1685.8432007730007 456.30362962186337 149.455620855093 216.36353020370007 1748.5777571797371 488.50875177979469 1318.440407037735 10939.484558105469 256.79334071278572 5057.4739007949829
leaf_count=3298810 19543 819 13078 11656 11913 2352 220 1404 3623 1742 361 154 454 387
internal_value=-0.00119215 0.0990118 -0.00748367 -0.00983817 -0.0113904 0.288479 0.276735 0.329184 0.305212 0.286415 0.133527 0.0127576 0.557219 0.0517921
internal_weight=458465 27085.1 431380 428384 426167 2217.46 8850.01 2995.94 7382.12 2522.78 1467.9 18235.1 473.157 7295.62
internal_count=3366516 25107 3341409 3324731 3310723 14008 23747 16678 23166 14820 581 1360 1858 1206
is_linear=0
shrinkage=0.05


Tree=2
num_leaves=15
num_cat=0
split_feature=0 0 6 10 4 10 10 4 0 0 8 6 4 0
split_gain=98833.3 104205 101475 63312.5 41792.5 10027.1 6677.91 6411.16 5579.73 4803.22 3765.17 9299.39 7169.72 3402.89
threshold=1.0000000180025095e-35 14.500000000000002 1.0000000180025095e-35 1.0000000180025095e-35 1.0000000180025095e-35 11.500000000000002 10.500000000000002 10.500000000000002 6.5000000000000009 24.500000000000004 3.5000000000000004 5.5000000000000009 1.0000000180025095e-35 2.5000000000000004
decision_type=2 2 2 2 2 2 2 2 2 2 2 2 2 2
left_child=2 7 3 4 -1 -5 9 8 -2 -3 11 -4 -12 -9
right_child=1 6 10 5 -6 -7 -8 13 -10 -11 12 -13 -14 -15
leaf_value=-0.012452812982736559 0.20017645018162408 0.10435115546475476 0.24985918064787063 0.2011587635104661 0.18423136211844626 0.61848236656791733 -0.013120384388801452 0.2867282109125569 0.29608095192317929 0.020217498072384505 0.47738806018525415 0.50875682739476846 0.11609439844698832 0.083783249523169359
leaf_weight=419457.81366769969 8172.2368932068348 2525.9245748519897 2123.6786803752184 2755.0131739228964 2718.3502114266157 151.87040835618973 10795.224700927734 240.88653147220612 1862.2031017541885 5165.7430057525635 165.06798048317432 414.5535319596529 816.75424474477768 1449.1884179115295
leaf_count=3298494 20545 819 13126 13840 12465 532 154 220 2621 387 500 2047 405 361
internal_value=-0.00121014 0.0861967 -0.00737127 -0.00958519 -0.0111864 0.222962 0.0122457 0.202801 0.217975 0.0478468 0.259982 0.292143 0.176837 0.112709
internal_weight=458815 30211.4 428603 425083 422176 2906.88 18486.9 11724.5 10034.4 7691.67 3520.05 2538.23 981.822 1690.07
internal_count=3366516 25107 3341409 3325331 3310959 14372 1360 23747 23166 1206 16078 15173 905 581
is_linear=0
shrinkage=0.05


Tree=3
num_leaves=15
num_cat=0
split_feature=0 7 0 9 1 10 6 0 7 8 4 5 0 2
split_gain=86142.8 87191.5 72199.6 51205.7 34999.7 6045.97 4295.07 3819.98 3796.46 6640.97 3475.8 4389.16 2664.81 1697.28
threshold=1.0000000180025095e-35 1.0000000180025095e-35 14.500000000000002 1.0000000180025095e-35 1.0000000180025095e-35 10.500000000000002 47.000000000000007 24.500000000000004 3.5000000000000004 2.5000000000000004 5.5000000000000009 1.0000000180025095e-35 2.5000000000000004 1.0000000180025095e-35
decision_type=2 2 2 2 2 2 2 2 2 2 2 2 2 2
left_child=1 3 10 4 -1 7 -5 -4 13 -10 11 -2 -12 -3
right_child=2 8 5 6 -6 -7 -8 -9 9 -11 12 -13 -14 -15
leaf_value=-0.012081929799736175 0.15595957634176466 0.17343649144164935 0.091550523199544431 0.18198289887573052 0.18356521279670268 -0.012965747904483066 2.7876635804264343 0.019315909194335793 0.38826941679963278 0.17262755385091444 0.2118651293702016 0.22907615127572711 0.086917958232854239 0.29338964456203298
leaf_weight=416161.48596593738 8935.8391030430794 2114.5860414654016 2803.7514560222626 3420.7368835657835 2298.5253850668669 10654.511947631836 1.582226276397704 5271.2444400787354 802.10858848690987 643.4318180680275 526.20595625042915 2664.5749071240425 2257.3267787694931 342.68862377107143
leaf_count=3299074 19102 11119 819 14474 11918 154 4 387 3492 502 465 3453 727 826
internal_value=-0.00121446 -0.00725573 0.0764664 -0.00943196 -0.0110073 0.0117654 0.183188 0.0443968 0.227988 0.292284 0.160714 0.172754 0.110538 0.190165
internal_weight=458899 425785 33113.5 421882 418460 18729.5 3422.32 8075 3902.82 1445.54 14383.9 11600.4 2783.53 2457.27
internal_count=3366516 3341409 25107 3325470 3310992 1360 14478 1206 15939 3994 23747 22555 1192 11945
is_linear=0
shrinkage=0.05


Tree=4
num_leaves=15
num_cat=0
split_feature=0 5 0 10 8 10 2 0 5 8 4 1 0 1
split_gain=76032.5 72140.2 52962.4 44102.2 31595.3 5496.79 3411.2 3093.49 2849.48 3840.05 2364.5 3911.8 1939.83 1079.81
threshold=1.0000000180025095e-35 1.0000000180025095e-35 14.500000000000002 1.0000000180025095e-35 1.0000000180025095e-35 10.500000000000002 43.000000000000007 24.500000000000004 2.5000000000000004 3.5000000000000004 2.5000000000000004 4.5000000000000009 2.5000000000000004 1.5000000000000002
decision_type=2 2 2 2 2 2 2 2 2 2 2 2 2 2
left_child=1 3 10 4 -1 7 -5 -4 13 -10 11 -2 -12 -3
right_child=2 8 5 6 -6 -7 -8 -9 9 -11 12 -13 -14 -15
leaf_value=-0.012141456953245935 0.13425094340952134 0.13553279312930655 0.081369059638511404 0.15543094516532741 0.15518928511250812 -0.012810925762849402 2.2386902442918437 0.018471388241254737 0.26620748558862922 0.13418294665787367 0.16107228602900761 0.22168882241811771 0.085385492469572277 0.25665354168520804
leaf_weight=411142.71578088403 10721.00680410862 2398.9465155303478 3072.5531973838806 3967.5977177321911 2840.5406005978584 10517.260528564453 1.965964913368224 5374.0527563095093 1579.8692032545805 845.53254300355911 1104.0790083408356 1452.4289195239544 3629.7317086458206 199.30169278383255
leaf_count=3298382 19816 10175 819 14400 12451 154 4 387 5086 507 937 1749 1245 404
internal_value=-0.00121184 -0.00713904 0.0686791 -0.00940288 -0.0109933 0.0113132 0.156463 0.0413512 0.181206 0.220182 0.133023 0.144683 0.103038 0.144824
internal_weight=458848 422976 35871.1 417953 413983 18963.9 3969.56 8446.61 5023.65 2425.4 16907.2 12173.4 4733.81 2598.25
internal_count=3366516 3341409 25107 3325237 3310833 1360 14404 1206 16172 5593 23747 21565 2182 10579
is_linear=0
shrinkage=0.05


Tree=5
num_leaves=15
num_cat=0
split_feature=0 7 0 5 1 10 0 5 6 7 4 1 4 0
split_gain=67738.3 58906.7 40378.6 38466.6 28306.5 5015.74 2542.5 2518.97 1919.5 2567.06 1592.36 2209.79 1298.93 884.962
threshold=1.0000000180025095e-35 1.0000000180025095e-35 14.500000000000002 1.0000000180025095e-35 1.0000000180025095e-35 10.500000000000002 24.500000000000004 11.500000000000002 8.5000000000000018 5.5000000000000009 10.500000000000002 1.5000000000000002 1.0000000180025095e-35 2.5000000000000004
decision_type=2 2 2 2 2 2 2 2 2 2 2 2 2 2
left_child=1 3 10 4 -1 6 -4 -5 9 -3 11 -2 -10 -12
right_child=2 8 5 7 -6 -7 -8 -9 12 -11 13 -13 -14 -15
leaf_value=-0.011774849499077332 0.10780851562025917 0.14903527121647453 0.073070027087938375 0.13376453181432665 0.14605846677338766 -0.01265596984503811 0.017678907264256409 0.28974766321832662 0.22903404418657819 0.2389048469139548 0.13625349082226454 0.14873384466853493 0.05776920676703548 0.059244951167389759
leaf_weight=407846.67272786796 12506.617549806833 3612.8701863437891 3333.0169358253479 3753.9299200624228 2860.6500605493784 10383.383499145508 5474.2413997650146 277.99241635203362 132.1577356159687 1018.6395606994629 465.90958178043365 4479.9266455471516 682.21601429581642 1872.1554207801819
leaf_count=3299718 18932 13400 819 13321 11954 154 387 477 205 2145 220 4234 189 361
internal_value=-0.00120426 -0.00702152 0.0622596 -0.00916677 -0.0106755 0.0108861 0.0386411 0.144519 0.156353 0.168801 0.113277 0.118602 0.0855623 0.0745906
internal_weight=458700 420185 38515.3 414739 410707 19190.6 8807.26 4031.92 5445.88 4631.51 19324.6 16986.5 814.374 2338.07
internal_count=3366516 3341409 25107 3325470 3311672 1360 1206 13798 15939 15545 23747 23166 394 581
is_linear=0
shrinkage=0.05


Tree=6
num_leaves=15
num_cat=0
split_feature=0 6 9 0 4 10 8 0 4 1 1 4 6 0
split_gain=60802.1 52572.6 37394.5 31678.2 25904.9 4591.54 2813.25 2115.67 1933.72 1817.44 1541.99 1186.38 2375.26 980.721
threshold=1.0000000180025095e-35 1.0000000180025095e-35 1.0000000180025095e-35 14.500000000000002 1.0000000180025095e-35 10.500000000000002 3.5000000000000004 24.500000000000004 1.0000000180025095e-35 20.500000000000004 3.5000000000000004 2.5000000000000004 1.0000000180025095e-35 2.5000000000000004
decision_type=2 2 2 2 2 2 2 2 2 2 2 2 2 2
left_child=1 2 4 11 -1 7 10 -5 -8 -4 -3 12 -2 -13
right_child=3 6 9 5 -6 -7 8 -9 -10 -11 -12 13 -14 -15
leaf_value=-0.011932605730629976 0.095758430480660919 0.1526462287300358 0.13152972757190903 0.066171618612358402 0.11571071859996912 -0.0125009266726663 0.18244329577261095 0.016934011854460817 0.057725909778796373 0.78417007062721211 0.28153414067420335 0.11438898724782934 0.1438734864426903 0.067197550782670271
leaf_weight=402681.79951886833 12607.422273188829 4108.7362932413816 4565.775129199028 3585.6794543266296 4014.5159247517586 10252.799789428711 399.95646074414253 5571.8808631896973 1394.219076693058 10.69222144782543 245.94973939657211 1474.3038115501404 3220.1608789563179 4347.1024808883667
leaf_count=3298393 18574 14820 14502 819 12419 154 500 387 405 17 353 937 2991 1245
internal_value=-0.00119295 -0.00690363 -0.0090733 0.0568635 -0.0106726 0.0104818 0.138217 0.0362132 0.0855278 0.133055 0.159926 0.098449 0.105548 0.079149
internal_weight=458481 417422 411273 41059.3 406696 19410.4 6148.86 9157.56 1794.18 4576.47 4354.69 21649 15827.6 5821.41
internal_count=3366516 3341409 3325331 25107 3310812 1360 16078 1206 905 14519 15173 23747 21565 2182
is_linear=0
shrinkage=0.05


Tree=7
num_leaves=15
num_cat=0
split_feature=0 9 10 0 2 10 10 0 0 2 8 9 6 4
split_gain=54903 44370.3 32292.5 25396.4 25019.3 4215.25 3819.31 1779.13 1107.08 1215.18 1023.35 1720.23 1176.73 1020.91
threshold=1.0000000180025095e-35 1.0000000180025095e-35 1.0000000180025095e-35 14.500000000000002 1.0000000180025095e-35 10.500000000000002 31.000000000000004 24.500000000000004 9.5000000000000018 1.0000000180025095e-35 3.5000000000000004 3.5000000000000004 6.5000000000000009 1.5000000000000002
decision_type=2 2 2 2 2 2 2 2 2 2 2 2 2 2
left_child=1 2 4 8 -1 7 -4 -5 9 -2 11 -3 -12 -10
right_child=3 10 6 5 -6 -7 -8 -9 13 -11 12 -13 -14 -15
leaf_value=-0.011508712951164811 0.075943567820524679 0.10322157770799018 0.11617077646095196 0.060344856475668757 0.15875524089222726 -0.012345843144983668 0.69937842508136061 0.016232747310208934 0.15162322303221742 0.10233382929278004 0.11390492309370769 0.16123760188885908 0.035001906087110547 0.084838902518053372
leaf_weight=399942.12755392492 15535.437003105879 3969.126563757658 4792.9063842743635 3830.975802898407 2169.3007190227509 10125.428329467773 28.237755700945854 5667.0383176803589 1204.0068237781525 6065.0458557605743 1095.9807536005974 1884.268846437335 830.67068082094193 1090.562592625618
leaf_count=3298134 18489 12138 13974 819 12580 154 43 387 864 4100 837 3564 139 294
internal_value=-0.00118006 -0.00678653 -0.0090479 0.0522472 -0.0105902 0.0100983 0.119587 0.0340251 0.0868612 0.0833535 0.111494 0.121898 0.0798861 0.119882
internal_weight=458231 414713 406933 43518.5 402111 19623.4 4821.14 9498.01 23895.1 21600.5 7780.05 5853.4 1926.65 2294.57
internal_count=3366516 3341409 3324731 25107 3310714 1360 14017 1206 23747 22589 16678 15702 976 1158
is_linear=0
shrinkage=0.05


Tree=8
num_leaves=15
num_cat=0
split_feature=0 6 8 1 0 10 8 0 6 8 4 4 5 9
split_gain=49826.9 40834.9 30653.9 21247.1 20719.3 3879.74 1771.58 1509.8 1061.72 1001.96 862.985 801.15 1326.38 555.804
threshold=1.0000000180025095e-35 1.0000000180025095e-35 1.0000000180025095e-35 1.0000000180025095e-35 14.500000000000002 10.500000000000002 1.5000000000000002 24.500000000000004 2.5000000000000004 11.500000000000002 1.0000000180025095e-35 10.500000000000002 10.500000000000002 24.500000000000004
decision_type=2 2 2 2 2 2 2 2 2 2 2 2 2 2
left_child=1 2 3 -1 11 7 8 -6 -3 -4 -8 12 -2 -13
right_child=4 6 9 -5 5 -7 10 -9 -10 -11 -12 13 -14 -15
leaf_value=-0.011498077732627471 0.078089971139723269 0.10680983119863958 0.10093688204146639 0.11613864179972551 0.055357046451744933 -0.012190768419769288 0.11825039212780085 0.015571578689635962 0.1541223573449729 0.1794354163031664 0.056685093782879649 0.049216945152770128 0.13572004222970402 0.17150446601201819
leaf_weight=395647.40868328512 22041.554900169373 2786.786066904664 5184.2249670624733 3287.627721875906 4069.2730793952942 10001.190399169922 830.30671212077141 5759.7805652618408 2063.9656339436769 441.09436532855034 1810.1105359494686 2884.6850908994675 1045.7846453785896 96.009991884231567
leaf_count=3299074 22733 9845 13763 11952 819 154 910 387 4732 542 591 561 433 20
internal_value=-0.00116554 -0.00667001 -0.00881188 -0.0104462 0.0482508 0.0097341 0.109002 0.0320429 0.126941 0.107092 0.0760449 0.0775509 0.0807004 0.0531559
internal_weight=457950 412052 404560 398935 45898.3 19830.2 7491.17 9829.05 4850.75 5625.32 2640.42 26068 23087.3 2980.7
internal_count=3366516 3341409 3325331 3311026 25107 1360 16078 1206 14577 14305 1501 23747 23166 581
is_linear=0
shrinkage=0.05


Tree=9
num_leaves=15
num_cat=0
split_feature=0 5 7 10 0 10 0 4 5 8 7 0 2 4
split_gain=45413.4 37755.8 26224.5 20311.5 17147.2 3579.19 1291.47 1155.41 1633.81 1268.86 1014.08 718.433 812.088 586.711
threshold=1.0000000180025095e-35 1.0000000180025095e-35 1.0000000180025095e-35 1.0000000180025095e-35 14.500000000000002 10.500000000000002 24.500000000000004 1.0000000180025095e-35 9.5000000000000018 3.5000000000000004 5.5000000000000009 9.5000000000000018 1.0000000180025095e-35 1.5000000000000002
decision_type=2 2 2 2 2 2 2 2 2 2 2 2 2 2
left_child=1 2 3 -1 11 6 -6 8 -3 -9 -4 12 -2 -13
right_child=4 7 10 -5 5 -7 -8 9 -10 -11 -12 13 -14 -15
leaf_value=-0.011385614279594189 0.061586340050023815 0.10491251141141096 0.095614020858757753 0.094291048593107593 0.051038793884005708 -0.012035752755315446 0.014947346452976341 0.10355561151551176 0.20236446463303526 0.044897484532375104 0.15205669530768529 0.11493892685478412 0.081376170990947447 0.068949008579942142
leaf_weight=391638.39697010815 18116.519477546215 4187.163254737854 3788.089935451746 4600.3908359259367 4300.8876128196716 9880.0084533691406 5850.1714553833008 2084.7471027076244 479.32660803198814 1652.8807166814804 1007.4287355840206 1520.0168067216873 7261.8693315386772 1275.3487057685852
leaf_count=3298659 18489 13050 11859 13013 819 154 387 2021 687 414 1706 864 4100 294
internal_value=-0.00114969 -0.00655411 -0.00875209 -0.0101587 0.044754 0.00938758 0.0302389 0.0983306 0.114922 0.0776154 0.107471 0.069899 0.0672491 0.0939566
internal_weight=457643 409438 401034 396239 48204.8 20031.1 10151.1 8404.12 4666.49 3737.63 4795.52 28173.8 25378.4 2795.37
internal_count=3366516 3341409 3325237 3311672 25107 1360 1206 16172 13737 2435 13565 23747 22589 1158
is_linear=0
shrinkage=0.05


Tree=10
num_leaves=15
num_cat=0
split_feature=0 5 4 2 0 10 4 0 4 5 8 4 5 0
split_gain=41543.7 32966.3 24187 19864.6 14362.2 3308.84 2798.58 1112.49 808.594 1020.55 953.499 626.052 1177.32 555.772
threshold=1.0000000180025095e-35 1.0000000180025095e-35 1.0000000180025095e-35 1.0000000180025095e-35 14.500000000000002 10.500000000000002 4.5000000000000009 24.500000000000004 1.0000000180025095e-35 1.5000000000000002 3.5000000000000004 2.5000000000000004 1.0000000180025095e-35 2.5000000000000004
decision_type=2 2 2 2 2 2 2 2 2 2 2 2 2 2
left_child=1 2 3 -1 11 7 -4 -6 9 -3 -10 12 -2 -13
right_child=4 8 6 -5 5 -7 -8 -9 10 -11 -12 13 -14 -15
leaf_value=-0.011128042404774418 0.061700677282517193 0.07237917181640062 0.068262078431224962 0.12611296675917261 0.047263734461847687 -0.011880843489123553 0.14402509637436584 0.014357212321655691 0.090925861621657098 0.11752938009773893 0.04183616560618092 0.073601203519533462 0.089482687190943488 0.043538421646967619
leaf_weight=388498.17464198172 17395.712507724762 2068.7504750192165 4816.2372596263885 2654.6579922288656 4526.0982413291931 9761.8072967529297 1631.8796731829643 5938.2729921340942 2312.2086025476456 3168.4061027765274 1728.7820504903793 2085.2283087968826 4884.0037239193916 5851.4485433101654
leaf_count=3298836 18519 6894 11523 12572 819 154 2306 387 2021 6843 414 937 3046 1245
internal_value=-0.00113303 -0.00643916 -0.00861326 -0.0101966 0.0416671 0.00905751 0.0874361 0.0285901 0.0867286 0.0996944 0.0699247 0.0634953 0.0677909 0.0514369
internal_weight=457322 406879 397601 391153 50442.6 20226.2 6448.12 10464.4 9278.15 5237.16 4040.99 30216.4 22279.7 7936.68
internal_count=3366516 3341409 3325237 3311408 25107 1360 13829 1206 16172 13737 2435 23747 21565 2182
is_linear=0
shrinkage=0.05


Tree=11
num_leaves=15
num_cat=0
split_feature=0 9 8 4 0 10 10 9 0 8 10 10 4 4
split_gain=38124.5 30701.5 23249.2 18451.1 12152 3064.76 1237.55 1187.01 964.313 899.716 759.517 536.888 631.903 478.705
threshold=1.0000000180025095e-35 1.0000000180025095e-35 1.0000000180025095e-35 1.0000000180025095e-35 14.500000000000002 10.500000000000002 1.0000000180025095e-35 1.5000000000000002 24.500000000000004 1.0000000180025095e-35 1.0000000180025095e-35 6.5000000000000009 1.0000000180025095e-35 2.5000000000000004
decision_type=2 2 2 2 2 2 2 2 2 2 2 2 2 2
left_child=1 2 3 -1 11 8 7 -3 -6 -8 -4 13 -13 -2
right_child=4 6 10 -5 5 -7 9 -9 -10 -11 -12 12 -14 -15
leaf_value=-0.011362276240795631 0.059385407081191235 0.067340844828279026 0.098867026220779988 0.083850001440151645 0.043935618275143362 -0.011726087622158394 0.089208001378972515 0.11344485282324231 0.013798623476175081 0.042226386217961903 0.062801502316794933 0.11490749376805527 0.064184533885886061 0.044011548168074614
leaf_weight=382661.62222959101 22523.984743595123 2357.5972750633955 4124.6183980554342 5156.9174072742462 4745.1545133590698 9646.5152587890625 1607.807740598917 3423.2726022601128 6024.144965171814 2782.7632191181183 2259.4803919196129 836.5730032324791 2308.0691131353378 6531.7357423901558
leaf_count=3298273 20984 7093 12320 12531 819 154 1628 7005 387 952 1607 425 525 1813
internal_value=-0.00111585 -0.00632524 -0.00853828 -0.0100962 0.0389201 0.00874275 0.0794431 0.0946424 0.0270775 0.0594308 0.0861026 0.0580533 0.0776784 0.0559294
internal_weight=456990 404374 394203 387819 52616.2 20415.8 10171.4 5780.87 10769.3 4390.57 6384.1 32200.4 3144.64 29055.7
internal_count=3366516 3341409 3324731 3310804 25107 1360 16678 14098 1206 2580 13927 23747 950 22797
is_linear=0
shrinkage=0.05


Tree=12
num_leaves=15
num_cat=0
split_feature=0 6 8 7 0 10 8 0 10 6 0 1 6 1
split_gain=35086.1 28140.3 21069.5 16963.2 10373.5 2843.63 1465.71 840.569 793.12 515.328 490.892 594.218 404.916 301.317
threshold=1.0000000180025095e-35 1.0000000180025095e-35 1.0000000180025095e-35 1.0000000180025095e-35 14.500000000000002 10.500000000000002 1.5000000000000002 24.500000000000004 1.0000000180025095e-35 7.5000000000000009 9.5000000000000018 1.5000000000000002 1.5000000000000002 1.0000000180025095e-35
decision_type=2 2 2 2 2 2 2 2 2 2 2 2 2 2
left_child=1 2 3 -1 10 7 12 -6 -4 -8 11 -2 -3 -12
right_child=4 6 8 -5 5 -7 9 -9 -10 -11 13 -13 -14 -15
leaf_value=-0.010950616711099297 0.04687155310854519 0.075656219215344211 0.087501238940612791 0.096424476751178434 0.040979800904401432 -0.011571533933871411 0.070065443222166887 0.013269272273929154 0.053546393839772714 0.03162016603714659 0.086132337917720167 0.062150288060094983 0.10176244259669419 0.056605807853719686
leaf_weight=380984.48887252808 21659.445896685123 2392.8829220086336 4718.2197219729424 3714.1121692508459 4958.283326625824 9534.0600814819336 1803.0510084629059 6107.8460569381714 2706.1973370909691 1687.3509248793125 1712.7546352148056 9011.3132396936417 3916.1332814693451 1743.7204228639603
leaf_count=3299029 18457 7147 12545 11997 819 154 1187 387 1760 314 679 4132 7430 479
internal_value=-0.00109817 -0.00621237 -0.00830384 -0.00991395 0.0364608 0.00844227 0.0774778 0.0256852 0.0751247 0.05148 0.0533737 0.0513606 0.0918609 0.0712368
internal_weight=456650 401922 392123 384699 54727.4 20600.2 9799.42 11066.1 7424.42 3490.4 34127.2 30670.8 6309.02 3456.48
internal_count=3366516 3341409 3325331 3311026 25107 1360 16078 1206 14305 1501 23747 22589 14577 1158
is_linear=0
shrinkage=0.05


Tree=13
num_leaves=15
num_cat=0
split_feature=0 9 6 2 0 10 8 0 9 10 2 4 4 9
split_gain=32370.3 25569.4 19462.3 16109.7 8923.79 2642.67 1056.01 736.415 700.034 626.706 438.601 470.168 381.852 332.826
threshold=1.0000000180025095e-35 1.0000000180025095e-35 1.0000000180025095e-35 1.0000000180025095e-35 14.500000000000002 10.500000000000002 1.0000000180025095e-35 24.500000000000004 2.5000000000000004 1.0000000180025095e-35 21.000000000000004 10.500000000000002 1.0000000180025095e-35 27.500000000000004
decision_type=2 2 2 2 2 2 2 2 2 2 2 2 2 2
left_child=1 2 3 -1 10 7 8 -6 -3 -8 11 -2 -4 -12
right_child=4 6 12 -5 5 -7 9 -9 -10 -11 13 -13 -14 -15
leaf_value=-0.01068314938034676 0.050636917507166292 0.06671972985540997 0.086418545200636659 0.10204491996959393 0.038337468887362752 -0.011417231331748866 0.071775693059756604 0.01276707229088303 0.10022505608653656 0.03610487441223003 0.086658725731811242 0.032054485228998758 0.060918812556411621 0.28694332509671855
leaf_weight=378333.54612343013 31669.814518928528 3676.1736166030169 4242.7801361978054 3196.0796480327845 5165.6936144828796 9424.3718566894531 2059.4181055426598 6189.4327354431152 2706.8236901462078 3062.3227133750916 494.67211508750916 3813.9187189340591 2244.9482826590538 21.65039587020874
leaf_count=3298186 23032 9757 12308 12626 819 154 1634 387 4335 952 149 562 1611 4
internal_value=-0.00108006 -0.00610051 -0.00827859 -0.00973882 0.0342457 0.00815517 0.0673588 0.0243996 0.0809283 0.0504479 0.0493053 0.0486396 0.0775949 0.095057
internal_weight=456302 399522 388017 381530 56779.6 20779.5 11504.7 11355.1 6383 5121.74 36000.1 35483.7 6487.73 516.323
internal_count=3366516 3341409 3324731 3310812 25107 1360 16678 1206 14092 2586 23747 23594 13919 153
is_linear=0
shrinkage=0.05


Tree=14
num_leaves=15
num_cat=0
split_feature=0 5 10 1 0 10 4 4 5 0 10 2 0 0
split_gain=29930.9 24007.8 18151.6 16147.7 7728.83 2459.53 1346.47 972.007 744.006 648.13 599.866 393.261 491.098 464.192
threshold=1.0000000180025095e-35 1.0000000180025095e-35 1.0000000180025095e-35 1.0000000180025095e-35 14.500000000000002 10.500000000000002 1.0000000180025095e-35 1.0000000180025095e-35 35.000000000000007 24.500000000000004 1.0000000180025095e-35 1.0000000180025095e-35 7.5000000000000009 2.5000000000000004
decision_type=2 2 2 2 2 2 2 2 2 2 2 2 2 2
left_child=1 2 3 -1 11 9 -4 8 -3 -6 -9 12 -2 -13
right_child=4 7 6 -5 5 -7 -8 10 -10 -11 -12 13 -14 -15
leaf_value=-0.010751205181092745 0.039505271040227184 0.077164481714045274 0.083028075451913319 0.089239850256362108 0.035961646898315311 -0.011263224811974223 0.039844075164756826 0.068479826192528681 0.32139655170365872 0.012290127982559506 0.03416040758363411 0.068837284911937996 0.058595139730353824 0.046876879702811319
leaf_weight=373790.87571409345 22404.762504935265 6287.6403616964817 4973.2359113395214 4081.7358636558056 5367.5786890983582 9317.3836135864258 2833.4704621434212 2260.7657642960548 31.33792844414711 6268.9603614807129 2914.9169996976852 3439.3281288146973 3965.2665268182755 8011.8656643629074
leaf_count=3298955 17824 13711 12954 11878 819 154 1450 1630 26 387 805 2185 1458 2280
internal_value=-0.0010617 -0.00598979 -0.00811201 -0.00967111 0.0322399 0.0078806 0.0673543 0.0652169 0.0783757 0.0232091 0.0491513 0.0457356 0.0423758 0.0534726
internal_weight=455949 397174 385679 377873 58775.1 20953.9 7806.71 11494.7 6318.98 11636.5 5175.68 37821.2 26370 11451.2
internal_count=3366516 3341409 3325237 3310833 25107 1360 14404 16172 13737 1206 2435 23747 19282 4465
is_linear=0
shrinkage=0.05


Tree=15
num_leaves=15
num_cat=0
split_feature=0 7 4 10 0 10 4 4 0 7 10 10 4 4
split_gain=27730.6 21946.3 17933.9 15811.4 6734.19 2292.19 1607.12 1261.28 572.819 572.486 440.21 351.099 436.874 321.259
threshold=1.0000000180025095e-35 1.0000000180025095e-35 1.0000000180025095e-35 1.0000000180025095e-35 14.500000000000002 10.500000000000002 1.0000000180025095e-35 8.5000000000000018 24.500000000000004 6.5000000000000009 1.0000000180025095e-35 4.5000000000000009 1.0000000180025095e-35 2.5000000000000004
decision_type=2 2 2 2 2 2 2 2 2 2 2 2 2 2
left_child=1 2 3 -1 11 8 9 -4 -6 -3 -8 13 -13 -2
right_child=4 6 7 -5 5 -7 10 -9 -10 -11 -12 12 -14 -15
leaf_value=-0.010762572944690345 0.043248578981411115 0.073115565022342024 0.056431242900880231 0.075736255884852888 0.033814348018025207 -0.0111095643845093 0.060703838835855756 0.11384043182205419 0.011836718391750307 0.11238988616525442 0.030943547394459998 0.076963065106499973 0.045309134815594052 0.031425563225177616
leaf_weight=369767.11667715013 27047.713106393814 4881.8299031555653 7422.4246943891048 5359.6898401379585 5564.118194103241 9213.0283813476562 2048.9143053293228 1098.2933031618595 6346.4817123413086 1145.6126818060875 3157.4523804187775 1544.3206722736359 3705.5307854413986 7295.3737785816193
leaf_count=3298513 20679 12314 13101 12951 819 154 1471 905 387 1367 787 660 705 1703
internal_value=-0.00104338 -0.00588041 -0.00789745 -0.00952671 0.0304151 0.00761781 0.0630038 0.0638311 0.0221037 0.0805803 0.0426554 0.042578 0.0546206 0.0407371
internal_weight=455598 394881 383648 375127 60716.6 21123.6 11233.8 8520.72 11910.6 6027.44 5206.37 39592.9 5249.85 34343.1
internal_count=3366516 3341409 3325470 3311464 25107 1360 15939 14006 1206 13681 2258 23747 1365 22382
is_linear=0
shrinkage=0.05


Tree=16
num_leaves=15
num_cat=0
split_feature=0 9 4 10 0 10 4 10 9 0 8 0 1 4
split_gain=25738.4 20369.1 16424.7 14319.9 5899.39 2138.92 1531.61 1143.52 516.097 508.2 448.708 312.597 398.643 202.07
threshold=1.0000000180025095e-35 1.0000000180025095e-35 1.0000000180025095e-35 1.0000000180025095e-35 14.500000000000002 10.500000000000002 4.5000000000000009 1.0000000180025095e-35 1.5000000000000002 24.500000000000004 1.0000000180025095e-35 9.5000000000000018 1.5000000000000002 1.5000000000000002
decision_type=2 2 2 2 2 2 2 2 2 2 2 2 2 2
left_child=1 2 3 -1 11 9 -4 8 -3 -6 -9 12 -2 -13
right_child=4 7 6 -5 5 -7 -8 10 -10 -11 -12 13 -14 -15
leaf_value=-0.010703400487491823 0.034906265100879824 0.051438336045089898 0.045808494625623974 0.072883752431583945 0.03186450496566947 -0.010956294371294844 0.091656587664461442 0.055946826011575759 0.078542091189771193 0.01140527122810911 0.027506898815204118 0.061955509268875435 0.046251480835201655 0.040038512855001478
leaf_weight=365106.87470063567 25997.927682757378 2849.1783901751041 6551.7366811335087 5196.851082354784 5755.4824004173279 9111.2421264648438 2523.0531704723835 2269.8548199534416 4579.1215123534203 6422.049934387207 3565.4122552871704 2448.0100547075272 11026.896102964878 1843.7505203485489
leaf_count=3298138 18457 7093 11646 12563 819 154 2384 1628 7005 387 952 864 4132 294
internal_value=-0.00102507 -0.00577234 -0.00790171 -0.00953034 0.0287484 0.00736611 0.0585556 0.0551341 0.0681462 0.0210749 0.0385697 0.0397659 0.0382851 0.0525399
internal_weight=455247 392642 379379 370304 62605.4 21288.8 9074.79 13263.6 7428.3 12177.5 5835.27 41316.6 37024.8 4291.76
internal_count=3366516 3341409 3324731 3310701 25107 1360 14030 16678 14098 1206 2580 23747 22589 1158
is_linear=0
shrinkage=0.05


Tree=17
num_leaves=15
num_cat=0
split_feature=0 5 6 2 0 10 4 10 8 0 5 4 5 0
split_gain=23928.2 19128.7 15296.6 13321.2 5193.32 1998.21 1032.18 691.183 464.971 452.46 419.996 302.39 514.744 250.596
threshold=1.0000000180025095e-35 1.0000000180025095e-35 1.0000000180025095e-35 1.0000000180025095e-35 14.500000000000002 10.500000000000002 1.0000000180025095e-35 1.0000000180025095e-35 3.5000000000000004 24.500000000000004 8.5000000000000018 10.500000000000002 12.500000000000002 2.5000000000000004
decision_type=2 2 2 2 2 2 2 2 2 2 2 2 2 2
left_child=1 2 3 -1 11 9 10 -4 -8 -6 -3 12 -2 -13
right_child=4 6 7 -5 5 -7 8 -9 -10 -11 -12 13 -14 -15
leaf_value=-0.01013835961588775 0.037552055658870528 0.061376020811976129 0.075162773746428491 0.082314170872252235 0.03008646331531329 -0.010803462362722872 0.049784177320421348 0.043010104105749611 0.021630158005727162 0.010994354322517918 0.096060841096873129 0.046699571369350733 0.067799744722004215 0.018927975861222055
leaf_weight=365967.89273633063 36885.240069508553 6138.2546769082546 4740.3773843348026 3938.1787311136723 5941.8314251899719 9011.9619903564453 3587.1552265286446 2581.8341443240643 2480.6592969894409 6495.7144832611084 1017.4529896080494 1049.227192401886 1462.2848752737045 3597.1189308166504
leaf_count=3298808 22837 12885 12257 12711 819 154 2021 1461 414 387 852 220 329 361
internal_value=-0.00100663 -0.00566544 -0.00773749 -0.00915407 0.0272203 0.00712485 0.0534441 0.0638256 0.0382742 0.0201153 0.0663078 0.0372459 0.0387055 0.0251993
internal_weight=454895 390452 377228 369906 64443.4 21449.5 13223.5 7322.21 6067.81 12437.5 7155.71 42993.9 38347.5 4646.35
internal_count=3366516 3341409 3325237 3311519 25107 1360 16172 13718 2435 1206 13737 23747 23166 581
is_linear=0
shrinkage=0.05


Tree=18
num_leaves=15
num_cat=0
split_feature=11 11 1 7 1 3 0 8 8 11 0 4 0 10
split_gain=23155.5 18300.5 5452.66 5284.57 5081.61 5355.5 4691 4676.8 4134.65 2770.35 2130.67 1943.08 1215.25 911.296
threshold=6.5000000000000009 18.500000000000004 1.0000000180025095e-35 1.0000000180025095e-35 1.0000000180025095e-35 1.0000000180025095e-35 14.500000000000002 1.0000000180025095e-35 1.0000000180025095e-35 8.5000000000000018 1.0000000180025095e-35 1.0000000180025095e-35 2.5000000000000004 10.500000000000002
decision_type=2 2 2 2 2 2 2 2 2 2 2 2 2 2
left_child=4 2 9 8 5 7 11 -1 -3 -2 -7 -6 -5 -8
right_child=1 3 -4 12 6 10 13 -9 -10 -11 -12 -13 -14 -15
leaf_value=0.0051461739637449974 -0.0076108314768554694 0.0016244043847071126 0.028093878728911698 0.062252180769468181 0.066066710344174454 0.08955247528365981 0.021698994505959107 0.04283056968469319 0.046818156361334878 -0.023306288653056909 0.031322542395159698 0.033464252838270599 0.023458239034525524 -0.0088601899543211092
leaf_weight=123911.4440869391 34741.83522130549 85005.218604952097 6009.6581000089645 4823.071038454771 8189.0314332544804 2547.6094249561429 4501.5653915405273 8819.1170141100883 5381.212497651577 147375.825349994 4097.8200241327286 10341.630078434944 3471.91275370121 5325.9192504882812
leaf_count=969133 277640 695362 5865 5599 9028 6449 404 8805 5303 1378665 1186 2454 531 92
internal_value=-0.00098817 -0.00961843 -0.0187658 0.00782025 0.0137687 0.00984313 0.0330624 0.00765007 0.00431504 -0.0203121 0.0536457 0.0478719 0.0460148 0.00513771
internal_weight=454543 286809 188127 98681.4 167734 139376 28358.1 132731 90386.4 182118 6645.43 18530.7 8294.98 9827.48
internal_count=3366516 2368965 1662170 706795 997551 985573 11978 977938 700665 1656305 7635 11482 6130 496
is_linear=0
shrinkage=0.05


Tree=19
num_leaves=15
num_cat=0
split_feature=11 11 0 7 1 3 10 0 8 11 8 0 0 0
split_gain=21944.6 17767.1 5310.73 4732.23 4554.5 4728.75 4283.95 4197.61 3724.64 2628.09 2226.38 1690.53 1209.78 1009.02
threshold=6.5000000000000009 18.500000000000004 1.0000000180025095e-35 1.0000000180025095e-35 1.0000000180025095e-35 1.0000000180025095e-35 1.0000000180025095e-35 2.5000000000000004 1.0000000180025095e-35 8.5000000000000018 3.5000000000000004 1.0000000180025095e-35 14.500000000000002 2.5000000000000004
decision_type=2 2 2 2 2 2 2 2 2 2 2 2 2 2
left_child=4 2 9 8 5 6 -1 10 -3 -2 -6 -7 -9 -5
right_child=1 3 -4 13 7 11 -8 12 -10 -11 -12 -13 -14 -15
leaf_value=0.0048540773682063804 -0.0076746995703962945 0.0015814676018944384 0.01890976732753898 0.056996458233622177 0.072735171110988359 0.079754567621767539 0.038837857019347916 0.03035439716929977 0.043541068864655558 -0.023466753357325808 0.023786699342224892 0.029590985090345596 0.0049806871462436467 0.022338682515182832
leaf_weight=123731.00818048418 32274.208099290729 85143.412813812494 8954.2446769475937 5132.8602130115032 7011.2638047039509 2786.2815075963736 10024.797363489866 8956.4552134275436 5639.1416568160057 143411.61598213017 3474.1674211025238 4228.2054881453514 9879.2508850097656 3554.3204184770584
leaf_count=968913 278155 695362 4643 5599 8823 6449 9025 2001 5303 1379372 658 1186 496 531
internal_value=-0.000970237 -0.00947393 -0.0186513 0.00756149 0.0132338 0.00949971 0.00740111 0.0311611 0.00418787 -0.0205657 0.0565169 0.0495169 0.017046 0.0428164
internal_weight=454201 284110 184640 99469.7 170091 140770 133756 29321.1 90782.6 175686 10485.4 7014.49 18835.7 8687.18
internal_count=3366516 2368965 1662170 706795 997551 985573 977938 11978 700665 1657527 9481 7635 2497 6130
is_linear=0
shrinkage=0.05


Tree=20
num_leaves=15
num_cat=0
split_feature=11 11 1 7 1 7 3 0 8 11 8 0 0 10
split_gain=20805.6 17249.8 5162.74 4253.67 4093.52 4284.05 4507.78 3581.02 3367.21 2768.03 1808.37 1465.81 1090.49 863.303
threshold=6.5000000000000009 18.500000000000004 1.0000000180025095e-35 1.0000000180025095e-35 1.0000000180025095e-35 1.0000000180025095e-35 1.0000000180025095e-35 2.5000000000000004 1.0000000180025095e-35 8.5000000000000018 3.5000000000000004 14.500000000000002 14.500000000000002 1.0000000180025095e-35
decision_type=2 2 2 2 2 2 2 2 2 2 2 2 2 2
left_child=4 2 9 8 5 6 -1 10 -3 -2 -6 -7 -9 -5
right_child=1 3 -4 13 7 11 -8 12 -10 -11 -12 -13 -14 -15
leaf_value=0.0049630129836533664 -0.0073950674297094095 0.0015397339801478569 0.026166529733996198 0.055667111514505756 0.06589073710466592 0.045713486505183067 0.060018278633249725 0.028704498033641408 0.040628029349123664 -0.023233906623095244 0.022643931204211092 -0.0038665730768350165 0.0048325817974193795 0.024808402563324526
leaf_weight=126656.98050189018 34311.873500838876 85278.169586896896 6236.7887638062239 4456.1011790037155 7540.233508348465 9884.785927310586 3830.399625107646 9232.4912383556366 5890.0998473763466 140689.36711441725 3557.7970812916756 1755.4997234344482 9928.5793800354004 4612.4245987534523
leaf_count=969364 277640 695362 5865 5056 8823 9398 6710 2001 5303 1378665 658 101 496 1074
internal_value=-0.000952383 -0.00933019 -0.0185353 0.00731362 0.012727 0.00917186 0.00657914 0.0294255 0.00406511 -0.0201284 0.0520267 0.0382362 0.0163349 0.0399718
internal_weight=453862 281475 181238 100237 172387 142128 130487 30259.1 91168.3 175001 11098 11640.3 19161.1 9068.53
internal_count=3366516 2368965 1662170 706795 997551 985573 976074 11978 700665 1656305 9481 9499 2497 6130
is_linear=0
shrinkage=0.05


Tree=21
num_leaves=15
num_cat=0
split_feature=11 11 0 7 1 7 3 0 8 11 0 4 10 0
split_gain=19733.4 16747.6 5085.1 3836.41 3689.76 3852.68 3982.51 3145.02 3053.74 2632.42 1285.29 1281.52 842.644 797.076
threshold=6.5000000000000009 18.500000000000004 1.0000000180025095e-35 1.0000000180025095e-35 1.0000000180025095e-35 1.0000000180025095e-35 1.0000000180025095e-35 14.500000000000002 1.0000000180025095e-35 8.5000000000000018 14.500000000000002 1.0000000180025095e-35 10.500000000000002 2.5000000000000004
decision_type=2 2 2 2 2 2 2 2 2 2 2 2 2 2
left_child=4 2 9 8 5 6 -1 11 -3 -2 -7 -6 -9 -5
right_child=1 3 -4 13 7 10 -8 12 -10 -11 -12 -13 -14 -15
leaf_value=0.0048155199761168018 -0.0074404457546801694 0.0014991640621587854 0.01781327323133949 0.049278651492198171 0.052158717239690178 0.042561328089822048 0.055075682026608279 0.020255644481283443 0.03802192765686821 -0.023401900035674036 -0.0037853622597255536 0.027474082706167191 -0.0088754030768711245 0.019615877370419803
leaf_weight=127287.14114715159 31839.42403511703 85409.578590124846 9184.4907528758049 5667.4107003211975 9668.3920825123787 10347.141453266144 4067.332630738616 4645.6786842346191 6134.330684274435 136895.58264875412 1748.7250599861145 11526.030816972256 5330.9975280761719 3772.0657339096069
leaf_count=969364 278155 695362 4643 5599 9028 9398 6710 404 5303 1379372 101 2454 92 531
internal_value=-0.000934626 -0.00918726 -0.0184179 0.00707598 0.0122464 0.00885835 0.0063718 0.0278381 0.00394654 -0.0203901 0.0358609 0.0387346 0.00468958 0.0374252
internal_weight=453524 278903 177919 100983 174621 143450 131354 31171.1 91543.9 168735 12095.9 21194.4 9976.68 9439.48
internal_count=3366516 2368965 1662170 706795 997551 985573 976074 11978 700665 1657527 9499 11482 496 6130
is_linear=0
shrinkage=0.05


Tree=22
num_leaves=15
num_cat=0
split_feature=11 11 0 7 1 8 2 9 0 11 6 0 0 10
split_gain=18723.5 16260.1 4940.31 3470.53 3334.7 3608.92 4059.75 2898.03 2797.98 2636.44 1407.82 1052.31 854.22 684.2
threshold=6.5000000000000009 18.500000000000004 1.0000000180025095e-35 1.0000000180025095e-35 1.0000000180025095e-35 1.0000000180025095e-35 1.0000000180025095e-35 1.0000000180025095e-35 2.5000000000000004 8.5000000000000018 7.5000000000000009 14.500000000000002 14.500000000000002 1.0000000180025095e-35
decision_type=2 2 2 2 2 2 2 2 2 2 2 2 2 2
left_child=4 2 9 7 5 6 -1 -3 10 -2 -6 -7 -10 -5
right_child=1 3 -4 13 8 11 -8 -9 12 -11 -12 -13 -14 -15
leaf_value=0.0043429094648605258 -0.0073105826045657815 0.001501678942914408 0.017060395351347679 0.048336977128027106 0.053898605658533966 0.039072142639709311 0.05208248794411683 0.037659189021891248 0.025273040397407021 -0.023368102830354558 0.011758975842542348 0.00039477956667159018 0.0045483734477206727 0.021914844913367648
leaf_weight=126584.66977764666 31603.404235750437 85986.284692183137 9349.5625425577164 4902.5341424047947 9675.7348117232323 11460.623884528875 4615.6794679015875 5923.4942792057991 9864.8154709339142 133729.15451239049 2492.6040990352631 2077.3829288482666 10024.631191253662 4897.9432878494263
leaf_count=969295 278155 695298 4643 5056 9184 9617 6533 5367 2001 1379372 297 128 496 1074
internal_value=-0.00091692 -0.00904518 -0.0182991 0.00684797 0.0117903 0.00855857 0.00602241 0.00383199 0.0263814 -0.0202987 0.0452666 0.0331372 0.0148274 0.0351321
internal_weight=453189 276392 174682 101710 176796 144738 131200 91909.8 32057.8 165333 12168.3 13538 19889.4 9800.48
internal_count=3366516 2368965 1662170 706795 997551 985573 975828 700665 11978 1657527 9481 9745 2497 6130
is_linear=0
shrinkage=0.05


Tree=23
num_leaves=15
num_cat=0
split_feature=11 11 1 6 8 7 2 5 0 0 8 0 0 0
split_gain=17798.2 18384.2 3843.64 3922.33 4051.05 3148.22 3033.78 2702.75 2654.13 1399.07 1229.76 1210.34 813.271 644.305
threshold=7.5000000000000009 18.500000000000004 1.0000000180025095e-35 1.0000000180025095e-35 1.0000000180025095e-35 1.0000000180025095e-35 1.0000000180025095e-35 1.0000000180025095e-35 2.5000000000000004 1.0000000180025095e-35 3.5000000000000004 14.500000000000002 14.500000000000002 2.5000000000000004
decision_type=2 2 2 2 2 2 2 2 2 2 2 2 2 2
left_child=2 6 3 4 -1 7 9 -3 10 -2 -4 -5 -10 -7
right_child=1 5 8 11 -6 13 -8 -9 12 -11 -12 -13 -14 -15
leaf_value=0.002679381507146846 -0.022506797011815332 0.0015829621138832195 0.051402921403186912 0.039430812792111712 0.03834394739573227 0.043160716796323814 0.029925288882879125 0.037969510959948008 0.023639152934608519 0.012924957738052079 0.018653059750196217 -0.0019905917566986737 0.0045018846987726789 0.017353058631468649
leaf_weight=141899.01918071508 144781.30989335477 86844.248191088438 10002.992589563131 11270.605696737766 8435.5374566316605 6177.3806376159191 2887.4310485720634 5422.0801685452461 11296.015452623367 2840.7418376803398 4017.72445333004 2090.7518916130066 10916.721676826477 3974.4135591983795
leaf_count=1105227 1513688 695513 10659 10371 9097 5599 5194 5152 2329 1767 709 120 560 531
internal_value=-0.000899414 -0.00971229 0.0102496 0.00698796 0.00468058 0.00662903 -0.0208322 0.00372124 0.0249852 -0.021825 0.0420182 0.0329493 0.0142339 0.0330571
internal_weight=452857 252928 199929 163696 150335 102418 150509 92266.3 36233.5 147622 14020.7 13361.4 22212.7 10151.8
internal_count=3366516 2227444 1139072 1124815 1114324 706795 1520649 700665 14257 1515455 11368 10491 2889 6130
is_linear=0
shrinkage=0.05


Tree=24
num_leaves=15
num_cat=0
split_feature=11 11 11 7 1 9 3 8 0 1 0 0 4 10
split_gain=16939.4 15340.2 4733.01 2862.98 2735.95 3141.61 3409.59 2578.35 2204.39 1787.1 1401.01 1164.44 907.416 781.274
threshold=6.5000000000000009 18.500000000000004 8.5000000000000018 1.0000000180025095e-35 1.0000000180025095e-35 1.0000000180025095e-35 1.0000000180025095e-35 1.0000000180025095e-35 14.500000000000002 1.0000000180025095e-35 1.0000000180025095e-35 2.5000000000000004 1.0000000180025095e-35 10.500000000000002
decision_type=2 2 2 2 2 2 2 2 2 2 2 2 2 2
left_child=4 2 9 7 5 6 -1 -3 12 -2 -4 -7 -6 -10
right_child=1 3 10 -5 8 11 -8 -9 13 -11 -12 -13 -14 -15
leaf_value=0.0041407552329159724 -0.0069944253210753428 0.0013074162757110536 -0.02329992716187293 0.031170350717488072 0.042647742205098399 0.041812144062868234 0.048031706760663873 0.033786620359341921 0.018953563315118955 0.024336772697050035 0.0185190446674681 0.012212983690504465 0.023009357606940707 -0.0088781925502403845
leaf_weight=128412.05979967117 33541.091543823481 86036.169379457831 127767.58489707112 10493.821967363358 11031.164985895157 8692.043075799942 4582.700342476368 6577.5684735774994 4783.8390159606934 5265.830059453845 2034.6814025640488 5378.9930619001389 12601.742360234261 5331.9296569824219
leaf_count=968901 277640 695362 1379372 6130 9028 9210 6708 5303 404 4052 1106 754 2454 92
internal_value=-0.000882189 -0.00877358 -0.0180639 0.00641869 0.0109765 0.00803018 0.00565314 0.00361414 0.0238156 -0.002743 -0.0226444 0.0304972 0.032176 0.0042837
internal_weight=452531 271717 168609 103108 180814 147066 132995 92613.7 33748.7 38806.9 129802 14071 23632.9 10115.8
internal_count=3366516 2368965 1662170 706795 997551 985573 975609 700665 11978 281692 1380478 9964 11482 496
is_linear=0
shrinkage=0.05


Tree=25
num_leaves=15
num_cat=0
split_feature=11 11 1 6 2 2 5 8 0 0 0 6 0 10
split_gain=16130.7 17454.8 3184.47 3384.74 3574.87 2892.55 2649.04 2478.44 2143.51 1353.7 1031.7 1000.66 793.828 681.796
threshold=7.5000000000000009 18.500000000000004 1.0000000180025095e-35 1.0000000180025095e-35 1.0000000180025095e-35 1.0000000180025095e-35 1.0000000180025095e-35 1.0000000180025095e-35 2.5000000000000004 1.0000000180025095e-35 14.500000000000002 7.5000000000000009 14.500000000000002 10.500000000000002
decision_type=2 2 2 2 2 2 2 2 2 2 2 2 2 2
left_child=2 5 3 4 -1 9 7 -3 11 -2 -5 -4 -8 -10
right_child=1 6 8 10 -6 -7 12 -9 13 -11 -12 -13 -14 -15
leaf_value=0.0028653764432128334 -0.022402221364399486 0.0012503279235651778 0.043227691779199939 0.035701423537530995 0.043092987220874679 0.027962970509968151 0.035933880688613661 0.033008425101164626 0.018730624896227673 0.012081865720243406 -0.0022106261554136115 0.0096321758618526723 -0.0002852870102336406 7.8620531265539403e-05
leaf_weight=146111.29260525852 138543.0624576211 86456.486345544457 12405.05068308115 11965.005122125149 5739.6506508141756 2994.7585692107677 8885.3200860619545 6613.334636837244 15866.660789966583 2905.6276019215584 2111.0907578468323 2698.6683375835419 1823.2578010559082 7088.1166248321533
leaf_count=1106778 1513688 695208 11052 10371 7546 5194 6247 5257 2592 1767 120 316 83 297
internal_value=-0.000865039 -0.00942571 0.00955209 0.00656013 0.0043859 -0.0206643 0.00621669 0.00350699 0.0225964 -0.0216939 0.0300155 0.037225 0.0297672 0.0129711
internal_weight=452207 248222 203986 165927 151851 144443 103778 93069.8 38058.5 141449 14076.1 15103.7 10708.6 22954.8
internal_count=3366516 2227444 1139072 1124815 1114324 1520649 706795 700465 14257 1515455 10491 11368 6330 2889
is_linear=0
shrinkage=0.05


Tree=26
num_leaves=15
num_cat=0
split_feature=11 11 1 10 4 2 7 6 0 0 0 4 10 10
split_gain=15351.8 17005.1 2909.45 3142.92 3885.49 2791.79 2465.02 2353.47 1935.56 1629.57 1329.89 788.325 684.641 533.991
threshold=7.5000000000000009 18.500000000000004 1.0000000180025095e-35 1.0000000180025095e-35 1.0000000180025095e-35 1.0000000180025095e-35 1.0000000180025095e-35 1.0000000180025095e-35 14.500000000000002 14.500000000000002 1.0000000180025095e-35 1.0000000180025095e-35 10.500000000000002 1.0000000180025095e-35
decision_type=2 2 2 2 2 2 2 2 2 2 2 2 2 2
left_child=2 5 3 4 -1 10 7 -3 11 -5 -2 -4 -10 -8
right_child=1 6 8 9 -6 -7 13 -9 12 -11 -12 -13 -14 -15
leaf_value=0.002101587277127114 -0.022347237971295786 0.0014670929559994494 0.037114054981423568 0.034335464967997879 0.037226734545592811 0.026507191348792026 0.039191235103478668 0.036322342658794804 0.01598435484462828 -0.0051803927352613863 0.011638593201343514 0.020271781470837302 -0.0088177998177676169 0.017205649977318445
leaf_weight=141794.62018101662 135473.88836601377 88259.367044150829 13724.643701910973 13674.532109722495 8336.0191132128239 3079.6827402114868 5602.8927927315235 5124.1498131453991 5719.9042959213257 3224.1035480499268 2940.9459386467934 14070.626883089542 5417.9924468994141 5446.6625557541847
leaf_count=1105046 1513688 695614 10979 10755 8871 5194 5056 5051 466 143 1767 2718 94 1074
internal_value=-0.00084821 -0.00928201 0.00922209 0.00635299 0.00405191 -0.0205775 0.00602207 0.00337967 0.0215309 0.0267962 -0.0216251 0.0285881 0.00391943 0.0283539
internal_weight=451890 245928 205962 167029 150131 141495 104433 93383.5 38933.2 16898.6 138415 27795.3 11137.9 11049.6
internal_count=3366516 2227444 1139072 1124815 1113917 1520649 706795 700665 14257 10898 1515455 13697 560 6130
is_linear=0
shrinkage=0.05


Tree=27
num_leaves=15
num_cat=0
split_feature=11 11 11 5 9 5 3 8 0 0 1 0 4 0
split_gain=14644.4 14063.6 4633.97 2284.33 2271.02 2191.91 2969.32 2495.95 1745.97 1645.13 1478.19 1313.83 1002.84 691.562
threshold=6.5000000000000009 18.500000000000004 8.5000000000000018 1.0000000180025095e-35 1.0000000180025095e-35 1.0000000180025095e-35 1.0000000180025095e-35 1.0000000180025095e-35 14.500000000000002 1.0000000180025095e-35 1.0000000180025095e-35 1.0000000180025095e-35 1.0000000180025095e-35 14.500000000000002
decision_type=2 2 2 2 2 2 2 2 2 2 2 2 2 2
left_child=5 2 10 4 -3 6 7 -1 12 -8 -2 -4 -7 -5
right_child=1 3 11 13 -6 8 9 -9 -10 -11 -12 -13 -14 -15
leaf_value=0.0036176127940008296 -0.0066581018619737116 0.0011318061369425454 -0.02319313863751106 0.032633083945408148 0.03143400958543207 0.040840439986506633 0.059944402234257767 0.0288091424163547 0.002456376795387496 0.018694653916618034 0.021035092812592276 0.016286975906198615 0.02009598677827313 -0.00074881635442117787
leaf_weight=132144.55667297542 32920.292538270354 87161.271130204201 119428.41271547228 9395.7175171077251 6655.3182470798492 9848.5290571153164 3661.5143556296825 10622.984973877668 8715.2064609527588 7112.181227684021 5644.9062282443047 2145.1377277970314 14263.692934930325 1858.354024887085
leaf_count=968528 277640 695124 1379372 6247 5341 9056 6656 8575 422 1544 4052 1106 2770 83
internal_value=-0.000831643 -0.00837962 -0.0177061 0.00583486 0.00328143 0.00990941 0.00740214 0.00549205 0.0216365 0.0327137 -0.00260456 -0.0224965 0.028569 0.0271208
internal_weight=451578 265209 160139 105071 93816.6 186369 153541 142768 32827.4 10773.7 38565.2 121574 24112.2 11254.1
internal_count=3366516 2368965 1662170 706795 700465 997551 985303 977103 12248 8200 281692 1380478 11826 6330
is_linear=0
shrinkage=0.05


Tree=28
num_leaves=15
num_cat=0
split_feature=11 11 2 1 9 6 7 11 0 0 0 8 10 0
split_gain=13928 16142.9 2672.32 2482.73 2801.68 3167.5 2131.64 2201.77 1665.65 1289.21 997.957 862.34 540.514 470.498
threshold=7.5000000000000009 18.500000000000004 1.0000000180025095e-35 1.0000000180025095e-35 1.0000000180025095e-35 1.0000000180025095e-35 1.0000000180025095e-35 20.500000000000004 2.5000000000000004 1.0000000180025095e-35 2.5000000000000004 1.5000000000000002 10.500000000000002 2.5000000000000004
decision_type=2 2 2 2 2 2 2 2 2 2 2 2 2 2
left_child=3 2 9 4 5 -1 7 -3 11 -2 -6 -5 -10 -8
right_child=1 6 -4 8 10 -7 13 -9 12 -11 -12 -13 -14 -15
leaf_value=0.0021498614411390856 -0.022236281287239631 -0.0069839681961877762 0.02490077081427829 0.040645526543687853 0.035316074646283092 0.034110297925632464 0.033810041333433342 0.0089274716916955942 0.016217000805891928 0.010915329971943942 0.009601250320568808 0.016922470554539999 -0.00018124295599813837 0.013070424649972281
leaf_weight=144871.25671588629 129676.87375685573 34093.015166610479 3179.1651895940304 10460.514378547668 10147.087065339088 8190.593446880579 7162.4312183260918 60013.205129876733 16838.316046476364 3000.4536470770836 6006.2998288869858 6044.0600854754448 7162.8464622497559 4423.5190646648407
leaf_count=1105092 1513688 278421 5194 10143 10042 8881 5599 422244 2592 1767 800 1225 297 531
internal_value=-0.000815241 -0.00900016 -0.0204011 0.00861183 0.00595017 0.00386012 0.00565454 0.00316304 0.0197311 -0.0214866 0.0257546 0.031958 0.0113232 0.0258916
internal_weight=451270 241549 135856 209721 169215 153062 105692 94106.2 40505.7 132677 16153.4 16504.6 24001.2 11586
internal_count=3366516 2227444 1520649 1139072 1124815 1113973 706795 700665 14257 1515455 10842 11368 2889 6130
is_linear=0
shrinkage=0.05


Tree=29
num_leaves=15
num_cat=0
split_feature=11 11 11 5 11 2 5 6 0 2 0 4 4 0
split_gain=13284.3 13264.3 4567.2 2013.02 2096.7 1890.13 2323.59 2479.08 2048.93 1312.66 1262.08 1036.38 632.043 601.45
threshold=6.5000000000000009 18.500000000000004 8.5000000000000018 1.0000000180025095e-35 20.500000000000004 1.0000000180025095e-35 1.0000000180025095e-35 1.0000000180025095e-35 14.500000000000002 1.0000000180025095e-35 1.0000000180025095e-35 1.0000000180025095e-35 1.0000000180025095e-35 14.500000000000002
decision_type=2 2 2 2 2 2 2 2 2 2 2 2 2 2
left_child=5 2 9 4 -3 6 7 -1 11 -2 -4 -7 -8 -5
right_child=1 3 10 13 -6 8 12 -9 -10 -11 -12 -13 -14 -15
leaf_value=0.0032754098297278289 -0.0059809217039485073 -0.0069470293674368773 -0.023117579744085879 0.02995633485358571 0.0085979086909928441 0.041679153514433354 0.034332313970374118 0.03064898232716818 0.00076439325243298373 0.022083556021019284 0.014987876686303251 0.019602855458218636 0.014979280855244657 -0.00094719708466002377
leaf_weight=133207.37742584944 33636.908316224813 33703.839110761881 114156.52499337494 9854.7793573141098 60865.15164116025 9186.8069134652615 8388.8903407156467 8818.7717192173004 9197.5907964706421 4755.6295996010303 2215.1263294816017 12618.123812317848 8486.8711141943932 1873.7908000946045
leaf_count=968454 277965 278357 1379372 6247 422108 8439 8123 8119 416 3727 1106 2203 1797 83
internal_value=-0.000799082 -0.00811828 -0.0174587 0.00548093 0.00305778 0.00926262 0.00705928 0.00497511 0.0205558 -0.00250461 -0.0223922 0.028904 0.0245996 0.0250191
internal_weight=450966 261062 154764 106298 94569 189904 158902 142026 31002.5 38392.5 116372 21804.9 16875.8 11728.6
internal_count=3366516 2368965 1662170 706795 700465 997551 986493 976573 11058 281692 1380478 10642 9920 6330
is_linear=0
shrinkage=0.05


Tree=30
num_leaves=15
num_cat=0
split_feature=11 11 2 1 7 8 0 4 0 0 4 6 10 10
split_gain=12645.6 15322.2 2543.7 2130.08 2510.3 2819.05 1948.71 2509.8 1432.87 1256.49 973.324 752.309 716.228 480.096
threshold=7.5000000000000009 18.500000000000004 1.0000000180025095e-35 1.0000000180025095e-35 1.0000000180025095e-35 1.0000000180025095e-35 1.0000000180025095e-35 1.0000000180025095e-35 2.5000000000000004 1.0000000180025095e-35 1.0000000180025095e-35 6.5000000000000009 10.500000000000002 10.500000000000002
decision_type=2 2 2 2 2 2 2 2 2 2 2 2 2 2
left_child=3 2 9 4 5 -1 7 -3 11 -2 -6 -5 -8 -10
right_child=1 6 -4 8 10 -7 12 -9 13 -11 -12 -13 -14 -15
leaf_value=0.0019382502453450764 -0.0221209072673779 4.6115360779386483e-05 0.023155613021078568 0.034063542493787312 0.036972903062357634 0.029843192902414779 0.025280416836443553 0.031927243178732065 0.014891205141444845 0.010386379119887382 0.011933757782864048 0.0071316177210053594 -0.0038721245910184839 -0.00043300090148293535
leaf_weight=146102.46083553135 124152.70930314064 83476.111572891474 3294.7879950404167 14192.734826266766 7947.9412073045969 9648.3680808991194 14273.688678979874 6666.1958579719067 17400.347820281982 3045.5214543938637 7585.0672079324722 3172.6282489299774 2471.7112401723862 7236.7636361122131
leaf_count=1105466 1513688 695618 5194 11005 8728 9012 5773 5295 2592 1767 1609 363 109 297
internal_value=-0.000783131 -0.00872223 -0.0202191 0.00805283 0.00557845 0.00366689 0.00531358 0.00240379 0.0181432 -0.0213426 0.0247458 0.0291431 0.0209773 0.01039
internal_weight=450667 237381 130493 213286 171284 155751 106888 90142.3 42002.5 127198 15533 17365.4 16745.4 24637.1
internal_count=3366516 2227444 1520649 1139072 1124815 1114478 706795 700913 14257 1515455 10337 11368 5882 2889
is_linear=0
shrinkage=0.05


Tree=31
num_leaves=15
num_cat=0
split_feature=11 11 11 0 4 2 5 3 0 0 1 8 10 10
split_gain=12059.7 12506.9 4498.44 1799.3 2304.08 1631.78 2025.8 2257.57 1775.41 1214.58 1189.3 951.501 652.509 564.237
threshold=6.5000000000000009 18.500000000000004 8.5000000000000018 1.0000000180025095e-35 1.0000000180025095e-35 1.0000000180025095e-35 1.0000000180025095e-35 1.0000000180025095e-35 14.500000000000002 1.0000000180025095e-35 1.0000000180025095e-35 1.0000000180025095e-35 10.500000000000002 1.0000000180025095e-35
decision_type=2 2 2 2 2 2 2 2 2 2 2 2 2 2
left_child=5 2 10 4 -3 6 7 -1 11 -4 -2 -7 -5 -8
right_child=1 3 9 12 -6 8 13 -9 -10 -11 -12 -13 -14 -15
leaf_value=0.0034322117942402032 -0.0062322472634246274 4.496792091056973e-05 -0.023038878075233898 0.024029501783839783 0.030143786157706548 0.037978128150228302 0.031668838332773647 0.036772412143616137 0.00052170592402277292 0.013815345752538509 0.01792117614415056 0.017419013566117188 -0.0037908188781977945 0.013748831979619387
leaf_weight=138290.7195494473 32166.447055079043 83479.960215613246 109138.35786984861 14639.133274078369 6882.4631472527981 10036.238826036453 8720.6467059850693 5270.9603558182716 9285.6403007507324 2282.3363592624664 6056.0778362751007 12812.356274604797 2462.1589728593826 8850.8771752715111
leaf_count=970239 277640 695618 1379372 5773 5295 8477 8245 6334 416 1106 4052 2165 109 1675
internal_value=-0.000767506 -0.00786123 -0.0172065 0.00515202 0.00233745 0.00866939 0.0066177 0.00465632 0.0189574 -0.022284 -0.00240532 0.0264496 0.0200241 0.0226424
internal_weight=450374 257107 149643 107464 90362.4 193267 161133 143562 32134.2 111421 38222.5 22848.6 17101.3 17571.5
internal_count=3366516 2368965 1662170 706795 700913 997551 986493 976573 11058 1380478 281692 10642 5882 9920
is_linear=0
shrinkage=0.05


Tree=32
num_leaves=15
num_cat=0
split_feature=11 11 3 2 5 8 0 7 11 0 4 0 10 10
split_gain=11485.5 14538.9 2471.28 1839.53 2172.47 2537.88 1705.22 1701.31 1924.03 1364.18 878.807 522.908 497.811 416.482
threshold=7.5000000000000009 18.500000000000004 1.0000000180025095e-35 1.0000000180025095e-35 1.0000000180025095e-35 1.0000000180025095e-35 14.500000000000002 1.0000000180025095e-35 20.500000000000004 1.0000000180025095e-35 1.0000000180025095e-35 2.5000000000000004 10.500000000000002 1.0000000180025095e-35
decision_type=2 2 2 2 2 2 2 2 2 2 2 2 2 2
left_child=3 2 9 4 5 -1 10 8 -3 -2 -5 -6 -8 -9
right_child=1 7 -4 6 11 -7 12 13 -10 -11 -12 -13 -14 -15
leaf_value=0.0018849883830310476 -0.021971175323821618 -0.0068502447476539267 0.026564584288617604 0.035058258319235917 0.028329890018563033 0.026258881993458882 0.011831783384197058 0.03128568457091787 0.0079839901167489073 0.01042988817101992 0.01645356590942906 0.01131992072389305 -0.010269393197540264 0.012986460927587743
leaf_weight=150447.77593031526 119257.95017472655 33839.441302403808 2782.4341088756919 11448.127441585064 11336.711366400123 11495.817170664668 5002.5846290588379 6392.2359482347965 61738.768528774381 3339.5583671927452 14245.631542652845 7511.9257481098175 5192.3531608581543 6054.3594792485237
leaf_count=1106154 1512639 278421 6149 9894 9858 9282 390 5056 422244 1861 2416 991 87 1074
internal_value=-0.000752072 -0.00844785 -0.0200311 0.00753768 0.00548509 0.00361521 0.0178778 0.00499629 0.00273193 -0.0210886 0.0247431 0.0215507 0.000575499 0.0223844
internal_weight=450086 233405 125380 216681 180792 161944 35888.7 108025 95578.2 122598 25693.8 18848.6 10194.9 12446.6
internal_count=3366516 2227444 1520649 1139072 1126285 1115436 12787 706795 700665 1514500 12310 10849 477 6130
is_linear=0
shrinkage=0.05


Tree=33
num_leaves=15
num_cat=0
split_feature=11 11 11 0 4 2 0 3 0 0 1 8 0 10
split_gain=10953.2 11788.7 4429.66 1608.94 2062.65 1376.86 1706.7 2385.52 1473.78 1168.54 1064.52 804.013 697.968 586.727
threshold=6.5000000000000009 18.500000000000004 8.5000000000000018 1.0000000180025095e-35 1.0000000180025095e-35 1.0000000180025095e-35 1.0000000180025095e-35 1.0000000180025095e-35 15.500000000000002 1.0000000180025095e-35 1.0000000180025095e-35 1.0000000180025095e-35 14.500000000000002 10.500000000000002
decision_type=2 2 2 2 2 2 2 2 2 2 2 2 2 2
left_child=5 2 10 4 -3 6 7 -1 11 -4 -2 -7 -8 -5
right_child=1 3 9 13 -6 8 12 -9 -10 -11 -12 -13 -14 -15
leaf_value=0.0025676624706843501 -0.0060111718985520696 -3.8279757591600304e-05 -0.02295694343758567 0.022353679208445526 0.027892367734195331 0.033758593671649288 0.021031308526941499 0.042213341141095005 -0.00030374375949342907 0.012690010830663945 0.016551712066496433 0.015573122287851963 0.0037113881588802435 -0.0039019592301696745
leaf_weight=128007.05453844368 31788.557191595435 83760.281733989716 104362.44704025984 15159.079406201839 7176.3710636198521 10915.230785995722 23491.856118679047 3910.1999962329865 8703.1788263320923 2350.7916309833527 6256.4979372918606 13714.536070764065 7731.0773973464966 2475.2350279092789
leaf_count=969211 277640 695618 1379372 5773 5295 8494 10829 5968 373 1106 4052 2191 485 109
internal_value=-0.000736908 -0.0076082 -0.0169492 0.00484625 0.0021659 0.00812282 0.00623083 0.00374281 0.0173827 -0.0221717 -0.00230071 0.0236324 0.0167427 0.0186683
internal_weight=449802 253329 144758 108571 90936.7 196473 163140 131917 33332.9 106713 38045.1 24629.8 31222.9 17634.3
internal_count=3366516 2368965 1662170 706795 700913 997551 986493 975179 11058 1380478 281692 10685 11314 5882
is_linear=0
shrinkage=0.05


Tree=34
num_leaves=15
num_cat=0
split_feature=11 11 2 1 10 4 11 5 0 0 0 1 8 10
split_gain=10435.8 13791.9 2380.71 1600.84 2061.97 2889.9 1554.95 1300.81 1181.11 1141.66 1133.5 965.206 672.05 371.135
threshold=7.5000000000000009 18.500000000000004 1.0000000180025095e-35 1.0000000180025095e-35 1.0000000180025095e-35 1.0000000180025095e-35 20.500000000000004 1.0000000180025095e-35 1.0000000180025095e-35 14.500000000000002 2.5000000000000004 1.0000000180025095e-35 1.5000000000000002 10.500000000000002
decision_type=2 2 2 2 2 2 2 2 2 2 2 2 2 2
left_child=3 2 8 4 5 -1 7 -3 -2 -6 12 -8 -5 -12
right_child=1 6 -4 10 9 -7 11 -9 -10 -11 13 -13 -14 -15
leaf_value=0.0012629811627902423 -0.021877516532436879 -0.00684621639033793 0.021185581321096672 0.031901094860072698 0.02590532686566023 0.029752882619584076 0.0071896819800107356 0.021855499257843247 0.0091128246990616942 -0.0060858635056025012 0.012476656655489899 0.027166465727415302 0.012252829057412158 -0.0008029875826011222
leaf_weight=146351.90609165281 113915.5180766508 33514.895201548934 3435.8476043045521 12072.900616914034 15946.713394597173 9477.4577416181564 64441.532358646393 4474.6932324767113 3159.7936155796051 3379.8560600280762 18526.549392700195 6672.6631869077682 6805.1712066531181 7348.2044298648834
leaf_count=1105046 1513688 278357 5194 10143 10755 8871 423453 1627 1767 143 2592 3358 1225 297
internal_value=-0.000721971 -0.00817747 -0.0198372 0.0070626 0.00490624 0.00299572 0.00470133 -0.00346552 -0.0210411 0.0203107 0.0155023 0.00906411 0.0248183 0.00870535
internal_weight=449524 229615 120511 219909 175156 155829 109104 37989.6 117075 19326.6 44752.8 71114.2 18878.1 25874.8
internal_count=3366516 2227444 1520649 1139072 1124815 1113917 706795 279984 1515455 10898 14257 426811 11368 2889
is_linear=0
shrinkage=0.05


Tree=35
num_leaves=15
num_cat=0
split_feature=11 11 11 6 8 5 3 10 0 0 0 2 4 8
split_gain=9954.04 11107.8 4357.72 1467.65 1930.52 1198.98 1865.36 1689.56 1127.85 1023.21 982.47 960.761 662.17 586.993
threshold=6.5000000000000009 18.500000000000004 8.5000000000000018 1.0000000180025095e-35 1.0000000180025095e-35 1.0000000180025095e-35 1.0000000180025095e-35 1.0000000180025095e-35 1.0000000180025095e-35 1.0000000180025095e-35 14.500000000000002 1.0000000180025095e-35 1.0000000180025095e-35 1.0000000180025095e-35
decision_type=2 2 2 2 2 2 2 2 2 2 2 2 2 2
left_child=5 2 11 4 -3 6 7 -1 -4 -8 12 -2 -7 -5
right_child=1 3 8 13 -6 10 9 -9 -10 -11 -12 -13 -14 -15
leaf_value=0.0025475315380497454 -0.0053960886262066216 0.0004547009950728936 -0.02287165094620329 0.033025414160077586 0.026669049174180379 0.02916553152752123 0.04309268267889324 0.021465298577983447 0.011722352541844037 0.013488626291565182 0.0013328432152312176 0.017645289283585493 0.013743077598074733 0.011035136196666635
leaf_weight=136272.33334842324 32624.620864197612 89722.87153455615 99815.414143763483 5480.9741006493568 7619.6669037342072 11978.006025165319 4569.9514010548592 12921.603564620018 2413.0259062051773 8078.4716591835022 9089.4815292358398 5252.556555390358 16612.93958067894 6799.2212825417519
leaf_count=968339 277965 695281 1379372 5060 5300 9056 6656 8764 1106 1544 422 3727 2770 1154
internal_value=-0.000707345 -0.00735988 -0.0166875 0.00456154 0.00250668 0.00761916 0.00574895 0.00418599 -0.0220551 0.0241848 0.015652 -0.00220086 0.0202042 0.02085
internal_weight=449251 249728 140106 109623 97342.5 199523 161842 149194 102228 12648.4 37680.4 37877.2 28590.9 12280.2
internal_count=3366516 2368965 1662170 706795 700581 997551 985303 977103 1380478 8200 12248 281692 11826 6214
is_linear=0
shrinkage=0.05


Tree=36
num_leaves=15
num_cat=0
split_feature=11 11 3 11 0 2 9 0 0 7 8 1 10 4
split_gain=9486.39 13079.3 2300.23 1451.23 1404.55 2496.83 2361.38 1418.58 1283.7 1209.89 958.039 837.98 758.601 400.485
threshold=7.5000000000000009 18.500000000000004 1.0000000180025095e-35 20.500000000000004 1.0000000180025095e-35 1.0000000180025095e-35 1.0000000180025095e-35 14.500000000000002 1.0000000180025095e-35 1.0000000180025095e-35 1.0000000180025095e-35 1.0000000180025095e-35 10.500000000000002 2.5000000000000004
decision_type=2 2 2 2 2 2 2 2 2 2 2 2 2 2
left_child=4 2 8 9 5 6 -1 13 -2 -3 -7 -5 -9 -6
right_child=1 3 -4 11 7 10 -8 12 -10 -11 -12 -13 -14 -15
leaf_value=0.00079772035696957892 -0.021716648309990524 -0.0067164483856598208 0.024206029235653043 0.0068335948662771448 0.020872533300029736 0.041941597371278616 0.026153899742907695 0.0096452581136364027 0.0092267559097917937 0.021099350503614864 0.011639057024156428 0.025098965607595794 -0.010831238855013931 0.010487527248466973
leaf_weight=139353.10408043861 109505.94021304697 33589.476514905691 2916.2667894810438 65166.253261685371 31301.831539869308 5559.3111425638199 9829.7153702974319 11256.138195991516 3457.5383902788162 4424.2570164501667 4913.8537008166313 6948.9744528532028 7561.780387878418 13197.687779784203
leaf_count=1104005 1512639 278421 6149 423453 14170 7888 9299 887 1861 1563 1074 3358 125 1624
internal_value=-0.000692892 -0.00791178 -0.0196377 0.00442644 0.00662426 0.00412518 0.00246845 0.0129257 -0.0207695 -0.00347909 0.0277241 0.00859363 0.001417 0.0177925
internal_weight=448982 226009 115880 110129 222973 159656 149183 63317.4 112963 38013.7 10473.2 72115.2 18817.9 44499.5
internal_count=3366516 2227444 1520649 706795 1139072 1122266 1113304 16806 1514500 279984 8962 426811 1012 15794
is_linear=0
shrinkage=0.05


Tree=37
num_leaves=15
num_cat=0
split_feature=11 11 11 11 5 0 5 3 7 0 1 0 1 4
split_gain=9054.31 10463.5 4282.25 1366.93 1143.18 1088.05 1055.91 1642.75 1576.69 870.008 867.654 836.692 764.46 575.96
threshold=6.5000000000000009 18.500000000000004 8.5000000000000018 20.500000000000004 1.0000000180025095e-35 1.0000000180025095e-35 1.0000000180025095e-35 1.0000000180025095e-35 1.0000000180025095e-35 1.0000000180025095e-35 1.0000000180025095e-35 14.500000000000002 1.0000000180025095e-35 1.0000000180025095e-35
decision_type=2 2 2 2 2 2 2 2 2 2 2 2 2 2
left_child=6 2 10 4 -3 -4 7 8 -1 -9 -2 13 -5 -8
right_child=1 3 5 12 -6 -7 11 9 -10 -11 -12 -13 -14 -15
leaf_value=0.0025160411178013877 -0.0056029689080342978 -0.0066710485174516611 -0.022782934153361051 0.0066179621762974469 0.019696724796040233 0.010786075712476329 0.026801361324038809 0.039177182428139799 0.022558267009414892 0.012514556872522184 0.014345250801456159 0.001318653554553221 0.023861414335908562 0.012685899614932238
leaf_weight=140018.54372817278 31113.637703329325 33191.58639036119 95487.949627377093 65613.098528131843 4691.641901999712 2476.4609206914902 12526.479815632105 4849.5114485174417 10552.35366615653 8289.1890310049057 6608.8882796168327 9094.4140520095825 7125.5937316715717 17081.092488408089
leaf_count=968922 277640 278357 1379372 423453 1627 1106 9056 6656 8181 1544 4052 422 3358 2770
internal_value=-0.000678817 -0.00711736 -0.0164224 0.00429607 -0.00340554 -0.0219343 0.00715606 0.00540018 0.00392065 0.0223558 -0.00210809 0.0145834 0.00830716 0.0186579
internal_weight=448720 246309 135687 110622 37883.2 97964.4 202412 163710 150571 13138.7 37722.5 38702 72738.7 29607.6
internal_count=3366516 2368965 1662170 706795 279984 1380478 997551 985303 977103 8200 281692 12248 426811 11826
is_linear=0
shrinkage=0.05


Tree=38
num_leaves=15
num_cat=0
split_feature=11 11 2 11 0 2 9 0 10 7 8 10 1 4
split_gain=8624.04 12398.3 2218.8 1287.97 1251.75 2180.05 2101.54 1260.88 1147.1 1103.18 838.414 716.825 698.641 361.681
threshold=7.5000000000000009 18.500000000000004 1.0000000180025095e-35 20.500000000000004 1.0000000180025095e-35 1.0000000180025095e-35 1.0000000180025095e-35 14.500000000000002 1.0000000180025095e-35 1.0000000180025095e-35 1.0000000180025095e-35 10.500000000000002 1.0000000180025095e-35 2.5000000000000004
decision_type=2 2 2 2 2 2 2 2 2 2 2 2 2 2
left_child=4 2 8 9 5 6 -1 13 -2 -3 -7 -9 -5 -6
right_child=1 3 -4 12 7 10 -8 11 -10 -11 -12 -13 -14 -15
leaf_value=0.0006880450109832476 -0.021111880918361706 -0.006501253621407653 0.019261172143623995 0.006410532130753036 0.01944798754428476 0.038222790352844108 0.024165234114080156 0.0091289824107810332 0.046798336589896322 0.019724534914515642 0.010489384044386419 -0.010750254215283981 0.022713337604564812 0.0097024558469492803
leaf_weight=139952.05602583289 107252.86550667882 33195.088980779052 3585.8115544915199 66048.76333758235 32308.915149748325 5887.1990237683058 10228.699279040098 11427.26810503006 625.45720760524273 4560.7781952619553 5073.8067134022713 7518.2837219238281 7297.6652280390263 13497.734447002411
leaf_count=1104005 1514558 278421 5194 423453 14170 7888 9299 887 897 1563 1074 125 3358 1624
internal_value=-0.000664812 -0.00765012 -0.019432 0.00417014 0.0062176 0.00385821 0.00228706 0.0120892 -0.0207182 -0.00333327 0.0253851 0.00124018 0.00803259 0.0165763
internal_weight=448460 222566 111464 111102 225894 161142 150181 64752.2 107878 37755.9 10961 18945.6 73346.4 45806.6
internal_count=3366516 2227444 1520649 706795 1139072 1122266 1113304 16806 1515455 279984 8962 1012 426811 15794
is_linear=0
shrinkage=0.05


Tree=39
num_leaves=15
num_cat=0
split_feature=11 11 11 11 0 5 0 2 4 0 1 4 10 1
split_gain=8239.51 9852.39 4207.38 1213.98 1071.49 1043.84 940.979 1710.62 1716.68 1092.94 778.698 755.784 717.857 639.563
threshold=6.5000000000000009 18.500000000000004 8.5000000000000018 20.500000000000004 1.0000000180025095e-35 1.0000000180025095e-35 1.0000000180025095e-35 1.0000000180025095e-35 1.0000000180025095e-35 14.500000000000002 1.0000000180025095e-35 1.0000000180025095e-35 10.500000000000002 1.0000000180025095e-35
decision_type=2 2 2 2 2 2 2 2 2 2 2 2 2 2
left_child=6 2 10 5 -4 -3 7 8 -1 -8 -2 -9 -11 -5
right_child=1 3 4 13 -6 -7 9 11 -10 12 -12 -13 -14 -15
leaf_value=0.0014560279749906086 -0.0053902967986197842 -0.0064567182676022634 -0.022691922503087658 0.0062109089624806128 0.010516242421883381 0.01844605501433939 0.016361257018318399 0.036680011953057257 0.022894172039572211 0.010060313700274387 0.01332137487825674 0.009682557207331792 -0.010565158529533849 0.02164565759340123
leaf_weight=125071.84218882024 30773.238029144704 32804.377959132195 91421.908949695528 66473.531978696585 2495.3666291236877 4827.2317583560944 42230.588784694672 5556.885329246521 10091.47768753767 10111.901941299438 6786.2557323873043 4859.2044115066528 7238.4484481811523 7465.3163453936577
leaf_count=967037 277640 278357 1379372 423453 1106 1627 13681 6774 8142 779 4052 1016 122 3358
internal_value=-0.000651182 -0.00687967 -0.0161532 0.00404845 -0.0218096 -0.00326229 0.00672752 0.00456122 0.00305663 0.0120206 -0.00200947 0.0240854 0.00145551 0.0077693
internal_weight=448208 243047 131477 111570 93917.3 37631.6 205160 145579 135163 59580.9 37559.5 10416.1 17350.4 73938.8
internal_count=3366516 2368965 1662170 706795 1380478 279984 997551 982969 975179 14582 281692 7790 901 426811
is_linear=0
shrinkage=0.05


Tree=40
num_leaves=15
num_cat=0
split_feature=11 11 11 6 8 0 5 3 8 2 0 0 8 8
split_gain=7842.97 9551.87 4166.23 1158.27 1620.53 1054.73 884.285 1393.08 1422.88 747.022 730.894 662.007 528.106 520.554
threshold=6.5000000000000009 18.500000000000004 8.5000000000000018 1.0000000180025095e-35 1.0000000180025095e-35 1.0000000180025095e-35 1.0000000180025095e-35 1.0000000180025095e-35 1.0000000180025095e-35 1.0000000180025095e-35 2.5000000000000004 14.500000000000002 1.0000000180025095e-35 1.0000000180025095e-35
decision_type=2 2 2 2 2 2 2 2 2 2 2 2 2 2
left_child=6 2 9 4 -3 -4 7 8 -1 -2 -9 13 -5 -8
right_child=1 3 5 12 -6 -7 11 10 -10 -11 -12 -13 -14 -15
leaf_value=0.0020678998809436455 -0.0049299068265508967 0.00016323968751769563 -0.022642866246967139 0.028999037992466861 0.023472599672426792 0.010146488332940601 0.024062226348243343 0.031160687316316122 0.019441051397268108 0.014834747480769317 0.0081179024149762059 0.0013141057170253222 0.0088394722629785288 0.010994069714933741
leaf_weight=139758.22408390045 31860.32334972918 90769.213869675994 89370.733122430742 5890.9529199898243 8123.909925699234 2521.7469559907913 13439.966344445944 7187.0037811547518 12870.926718562841 5624.7460816800594 6602.9955213069916 9095.9962282180786 7242.6238074302673 17598.864046156406
leaf_count=968528 277965 695281 1379372 5060 5300 1106 9146 7402 8575 3727 798 422 1154 2680
internal_value=-0.000637724 -0.0067575 -0.0160124 0.00393084 0.00207807 -0.021743 0.0065146 0.004908 0.00353294 -0.00196416 0.0201272 0.0131764 0.0178819 0.0166526
internal_weight=447958 241404 129378 112027 98893.1 91892.5 206554 166419 152629 37485.1 13790 40134.8 13133.6 31038.8
internal_count=3366516 2368965 1662170 706795 700581 1380478 997551 985303 977103 281692 8200 12248 6214 11826
is_linear=0
shrinkage=0.05


Tree=41
num_leaves=15
num_cat=0
split_feature=11 11 3 0 11 5 3 10 7 0 0 1 4 10
split_gain=7482.18 11435.2 2131.21 1223.99 1136.17 1050.73 1467.78 1549.11 973.947 833.664 668.089 559.066 554.897 379.293
threshold=7.5000000000000009 18.500000000000004 1.0000000180025095e-35 1.0000000180025095e-35 20.500000000000004 1.0000000180025095e-35 1.0000000180025095e-35 1.0000000180025095e-35 1.0000000180025095e-35 1.0000000180025095e-35 14.500000000000002 1.0000000180025095e-35 1.0000000180025095e-35 10.500000000000002
decision_type=2 2 2 2 2 2 2 2 2 2 2 2 2 2
left_child=5 2 3 -2 8 6 7 -1 -3 -8 12 -6 -7 -12
right_child=1 4 -4 -5 11 10 9 -9 -10 -11 13 -13 -14 -15
leaf_value=0.001248385999789413 -0.021375274395718791 -0.0063279065876743635 0.022086136846541694 0.008635853792865484 0.0059156524326542358 0.023503407669942161 0.033876286962205959 0.018130733164262398 0.017874233789551736 0.0099656392986490067 0.010648155905686131 0.020125646706382044 0.010432382772972608 -0.0092609752566288808
leaf_weight=156741.49749714136 98682.93108266592 32884.072050482035 3048.0395199656487 3518.5890489816666 67111.903205186129 14381.575790628791 5727.7376151531935 14877.793878227472 4758.392297565937 10027.330330133438 5004.5914931297302 7717.7328175902367 18647.73875617981 4583.0339813232422
leaf_count=1106632 1512639 278421 6149 1861 423453 10015 7527 9659 1563 1859 370 3358 2930 80
internal_value=-0.000624471 -0.00726785 -0.0191133 -0.0203421 0.00381695 0.0056645 0.00405276 0.00271193 -0.00326851 0.0186583 0.0127509 0.00738123 0.0161237 0.00113128
internal_weight=447713 217722 105250 102202 112472 229991 187374 171619 37642.5 15755.1 42616.9 74829.6 33029.3 9587.63
internal_count=3366516 2227444 1520649 1514500 706795 1139072 1125677 1116291 279984 9386 13395 426811 12945 450
is_linear=0
shrinkage=0.05


Tree=42
num_leaves=15
num_cat=0
split_feature=11 11 11 11 10 5 0 2 6 0 1 10 4 12
split_gain=7134.82 8984.81 4091.16 1071.93 1045.65 922.341 805.937 1423.49 1542.05 937.189 677.489 661.446 655.245 526.068
threshold=6.5000000000000009 18.500000000000004 8.5000000000000018 20.500000000000004 1.0000000180025095e-35 1.0000000180025095e-35 1.0000000180025095e-35 1.0000000180025095e-35 1.0000000180025095e-35 14.500000000000002 1.0000000180025095e-35 10.500000000000002 1.0000000180025095e-35 4.5000000000000009
decision_type=2 2 2 2 2 2 2 2 2 2 2 2 2 2
left_child=6 2 10 5 -4 -3 7 8 -1 -8 -2 -11 -9 -5
right_child=1 3 4 13 -6 -7 9 12 -10 11 -12 -13 -14 -15
leaf_value=0.001286815644204909 -0.0050955948219887932 -0.0062817028598316175 -0.021971467660773666 0.0097113815197708894 0.060716780156054632 0.016734468595532712 0.014852903035268187 0.032685611791099765 0.022199653166164349 0.0092719949232171889 0.012163615039281183 -0.010471141796872677 0.0082215549207760568 0.00034861347006274074
leaf_weight=127268.33254960179 30313.672577813268 32494.83467335999 87742.393220849335 54713.79867836833 384.00372342765331 5026.0161989927292 43835.810464143753 5942.8102668225765 9470.7685261964798 10345.658741950989 6998.6440210044384 7191.0513114929199 5074.0041908025742 20670.923213094473
leaf_count=967013 277640 278357 1380036 302372 442 1627 13681 6774 8166 779 4052 122 1016 124439
internal_value=-0.000611476 -0.00652549 -0.0157356 0.00370697 -0.0216112 -0.00319863 0.00612874 0.00412829 0.00273527 0.0109449 -0.0018583 0.00117618 0.0214182 0.00714406
internal_weight=447473 238344 125439 112906 88126.4 37520.9 209128 147756 136739 61372.5 37312.3 17536.7 11016.8 75384.7
internal_count=3366516 2368965 1662170 706795 1380478 279984 997551 982969 975179 14582 281692 901 7790 426811
is_linear=0
shrinkage=0.05


Tree=43
num_leaves=15
num_cat=0
split_feature=11 11 2 0 0 9 0 1 9 0 10 10 10 4
split_gain=6805.01 10827.6 2065.32 1093.78 1031.97 1584.45 935.685 1598.08 1761.79 944.275 639.418 597.371 520.722 328.62
threshold=7.5000000000000009 18.500000000000004 1.0000000180025095e-35 1.0000000180025095e-35 1.0000000180025095e-35 1.0000000180025095e-35 1.0000000180025095e-35 1.0000000180025095e-35 1.0000000180025095e-35 14.500000000000002 1.0000000180025095e-35 10.500000000000002 8.5000000000000018 2.5000000000000004
decision_type=2 2 2 2 2 2 2 2 2 2 2 2 2 2
left_child=6 2 3 -2 5 -3 7 8 -1 13 -9 -11 -6 -8
right_child=1 4 -4 -5 12 -7 9 10 -10 11 -12 -13 -14 -15
leaf_value=0.00029583056907370528 -0.021266685194473361 -0.00048944800846728511 0.017674028225754493 0.0082834611167954108 0.017468955511656201 0.023722930102365297 0.016587031972935911 0.028825979375298977 0.021339293882942749 0.0077776781345946415 0.0070784408407988334 -0.010373087895954558 -0.0049082281169749945 0.0075909718353806103
leaf_weight=139897.96846304089 94383.833576116711 86233.188276417553 3719.7117553055286 3238.9359675645828 16683.916917026043 7331.2853963971138 34540.750813961029 7930.2592544853687 10707.503334134817 11900.839531421661 5890.4265829324722 7322.1290817260742 3079.6589052677155 14376.822671413422
leaf_count=1103885 1513688 695503 5194 1767 5741 5410 14170 8049 9230 887 1102 125 141 1624
internal_value=-0.000598725 -0.00701825 -0.018893 -0.0202863 0.00360059 0.00140772 0.00532681 0.00328518 0.00179194 0.0102534 0.0195571 0.000863957 0.013982 0.0139431
internal_weight=447237 214671 101342 97622.8 113328 93564.5 232567 164426 150605 68140.5 13820.7 19223 19763.6 48917.6
internal_count=3366516 2227444 1520649 1515455 706795 700913 1139072 1122266 1113115 16806 9151 1012 5882 15794
is_linear=0
shrinkage=0.05


Tree=44
num_leaves=15
num_cat=0
split_feature=11 11 11 0 11 7 0 1 10 0 10 2 10 2
split_gain=6498.9 8449.81 4008.14 1014.49 1000.56 864.695 697.884 1263.68 1310.54 802.685 744.336 611.394 600.566 490.75
threshold=6.5000000000000009 18.500000000000004 8.5000000000000018 1.0000000180025095e-35 20.500000000000004 1.0000000180025095e-35 1.0000000180025095e-35 1.5000000000000002 1.0000000180025095e-35 14.500000000000002 1.0000000180025095e-35 1.0000000180025095e-35 10.500000000000002 1.0000000180025095e-35
decision_type=2 2 2 2 2 2 2 2 2 2 2 2 2 2
left_child=6 2 11 -4 5 -3 7 8 -1 -8 -9 -2 -11 -6
right_child=1 4 3 -5 13 -7 9 10 -10 12 -12 -13 -14 -15
leaf_value=0.0012934860835584041 -0.0045599558593725524 -0.0061458696890810717 -0.022445237236810162 0.009431335264434711 0.0058208024956703866 0.016303510505860014 0.013730837889219073 0.038443547674136117 0.018033688812893866 0.0086955079365080828 0.0077177784967973955 0.012988929927713581 -0.010168717072091167 0.023449198651156695
leaf_weight=128122.03532235324 31278.815947204828 32563.672824203968 81962.095389798284 2574.3857070207596 72060.199859008193 4940.0993998348713 45111.394017577171 4022.2646926641464 12865.422154039145 10523.561161994934 3865.1744109392166 5899.2767855525017 7042.710765838623 4176.8106078207493
leaf_count=970392 277965 278421 1379372 1106 425076 1563 13681 3134 8816 779 627 3727 122 1735
internal_value=-0.000586294 -0.00630091 -0.0154573 -0.0214745 0.00349743 -0.00318878 0.005774 0.00391064 0.00282107 0.0102 0.0233866 -0.00177537 0.00113242 0.00678661
internal_weight=447008 235455 121715 84536.5 113741 37503.8 211553 148875 140987 62677.7 7887.44 37178.1 17566.3 76237
internal_count=3366516 2368965 1662170 1380478 706795 279984 997551 982969 979208 14582 3761 281692 901 426811
is_linear=0
shrinkage=0.05


Tree=45
num_leaves=15
num_cat=0
split_feature=11 11 3 0 11 5 6 7 8 10 8 0 12 6
split_gain=6190.5 10247.3 2004.07 1170 944.784 845.648 1222.47 1574.14 832.855 581.38 537.775 621.844 483.506 257.094
threshold=7.5000000000000009 18.500000000000004 1.0000000180025095e-35 1.0000000180025095e-35 20.500000000000004 1.0000000180025095e-35 1.0000000180025095e-35 1.0000000180025095e-35 1.0000000180025095e-35 1.0000000180025095e-35 1.0000000180025095e-35 2.5000000000000004 4.5000000000000009 8.5000000000000018
decision_type=2 2 2 2 2 2 2 2 2 2 2 2 2 2
left_child=5 2 3 -2 8 6 7 -1 -3 -8 11 -7 -6 -12
right_child=1 4 -4 -5 12 10 9 -9 -10 -11 13 -13 -14 -15
leaf_value=0.00099988893332784642 -0.021079360706998146 -0.0061224370849274614 0.020564490621435387 0.0080621797142477938 0.0089992526285412253 0.025889771662729561 0.024175547357097447 0.020825022174517014 0.015431012774524289 0.0066690831041085925 0.0096590511144076744 0.0075155430509040852 8.3143422068846114e-05 -0.001465378193869725
leaf_weight=160938.29604985565 90895.642495449632 32178.089034557343 3150.2130198925734 3579.9582679271698 55865.587254084647 10326.49735558033 9688.844328135252 10676.981886059046 5207.3659298419952 9289.3759875893593 18572.956506192684 8310.4527332782745 20891.195412442088 7209.844811797142
leaf_count=1106973 1512639 278341 6149 1861 302372 9332 8686 8499 1643 1519 2660 968 124439 435
internal_value=-0.000573998 -0.00677413 -0.018667 -0.0199751 0.0033978 0.00501288 0.00356494 0.0022333 -0.00312029 0.0156066 0.0112256 0.0176965 0.00657252 0.00654824
internal_weight=446781 211768 97625.8 94475.6 114142 235013 190593 171615 37385.5 18978.2 44419.8 18637 76756.8 25782.8
internal_count=3366516 2227444 1520649 1514500 706795 1139072 1125677 1115472 279984 10205 13395 10300 426811 3095
is_linear=0
shrinkage=0.05


Tree=46
num_leaves=15
num_cat=0
split_feature=11 11 11 0 6 8 0 2 4 0 8 10 1 4
split_gain=5916.84 7940.62 3928.19 980.637 916.15 1337.15 623.174 1163.13 1303.11 736.843 582.498 565.827 554.884 501.568
threshold=6.5000000000000009 18.500000000000004 8.5000000000000018 1.0000000180025095e-35 1.0000000180025095e-35 1.0000000180025095e-35 1.0000000180025095e-35 1.0000000180025095e-35 1.0000000180025095e-35 14.500000000000002 1.0000000180025095e-35 10.500000000000002 1.0000000180025095e-35 1.0000000180025095e-35
decision_type=2 2 2 2 2 2 2 2 2 2 2 2 2 2
left_child=6 2 12 -4 5 -3 7 8 -1 -8 -9 -11 -2 -6
right_child=1 4 3 -5 13 -7 9 10 -10 11 -12 -13 -14 -15
leaf_value=0.00097687046413910033 -0.0047096704058247202 -0.00013796626309876492 -0.022339861936155662 0.0086922465052871097 0.026074242087281482 0.020396534515291359 0.012911381724812723 0.029260417414507696 0.018904808658231995 0.0081515871755740033 0.0068609461220398588 -0.010118210498051667 0.010683019620914726 0.006974189163872567
leaf_weight=127394.12515501678 29732.208430163562 91876.495511926711 78492.710772164166 2631.1462557315826 6089.9536399245262 8676.4634864032269 46090.889763474464 6240.5616778731346 11012.008673846722 10697.115874290466 5425.9657040834427 7018.5313720703125 7290.4348756372929 7890.652293920517
leaf_count=967037 277640 695281 1379372 1106 5030 5300 13681 6827 8142 779 963 122 4052 1184
internal_value=-0.000561937 -0.00607992 -0.0151743 -0.0213334 0.00330135 0.0016339 0.00544109 0.00368126 0.00240327 0.00958022 0.0188427 0.000913514 -0.00167857 0.0152942
internal_weight=446559 232680 118147 81123.9 114534 100553 213879 150073 138406 63806.5 11666.5 17715.6 37022.6 13980.6
internal_count=3366516 2368965 1662170 1380478 706795 700581 997551 982969 975179 14582 7790 901 281692 6214
is_linear=0
shrinkage=0.05


Tree=47
num_leaves=15
num_cat=0
split_feature=11 11 11 10 11 5 0 3 10 10 0 10 2 12
split_gain=5634.7 7690.46 3882.82 973.178 886.495 771.533 581.398 1107.39 1330.76 951.703 684.378 538.695 532.325 449.815
threshold=6.5000000000000009 18.500000000000004 8.5000000000000018 1.0000000180025095e-35 20.500000000000004 1.0000000180025095e-35 1.0000000180025095e-35 1.0000000180025095e-35 1.0000000180025095e-35 1.0000000180025095e-35 14.500000000000002 10.500000000000002 1.0000000180025095e-35 4.5000000000000009
decision_type=2 2 2 2 2 2 2 2 2 2 2 2 2 2
left_child=6 2 12 -4 5 -3 7 8 -1 -9 -8 -12 -2 -6
right_child=1 4 3 -5 13 -7 10 9 -10 -11 11 -13 -14 -15
leaf_value=0.00093568997990251348 -0.0043015904612785467 -0.0060385961702257244 -0.021655436709047751 0.055837538691267001 0.0085750689038292891 0.014545163870296621 0.012427230061773639 0.035633366639193739 0.018318514341521052 0.0049275372510043051 0.0078838335747999262 -0.0099686053593518991 0.011888303251029325 3.2043577040803937e-07
leaf_weight=128471.02269235253 30885.134978227317 32074.428632721305 79005.524245616049 407.23071059584618 56574.994095347822 5305.4737450182438 46689.845246434212 4818.6787833124399 12042.334580153227 5297.9482430815697 10784.670751571655 6947.8744926452637 6076.110425055027 20960.881957888603
leaf_count=966935 277965 278357 1380036 442 302372 1627 13681 6591 8574 869 779 122 3727 124439
internal_value=-0.000550133 -0.00596721 -0.0150272 -0.0212581 0.00320779 -0.00311706 0.00527596 0.00357577 0.00242544 0.0195531 0.00925128 0.000888983 -0.00164011 0.00625699
internal_weight=446342 231290 116374 79412.8 114916 37379.9 215052 150630 140513 10116.6 64422.4 17732.5 36961.2 77535.9
internal_count=3366516 2368965 1662170 1380478 706795 279984 997551 982969 975509 7460 14582 901 281692 426811
is_linear=0
shrinkage=0.05


Tree=48
num_leaves=15
num_cat=0
split_feature=11 11 3 0 0 4 5 3 8 0 10 8 0 0
split_gain=5372.88 9425.65 1918.93 1139.54 852.31 1353.2 713.501 1068.03 1252.26 643.906 481.153 476.665 544.014 244.973
threshold=7.5000000000000009 18.500000000000004 1.0000000180025095e-35 1.0000000180025095e-35 1.0000000180025095e-35 1.0000000180025095e-35 1.0000000180025095e-35 1.0000000180025095e-35 1.0000000180025095e-35 1.0000000180025095e-35 10.500000000000002 1.0000000180025095e-35 2.5000000000000004 2.5000000000000004
decision_type=2 2 2 2 2 2 2 2 2 2 2 2 2 2
left_child=6 2 3 -2 5 -3 7 8 -1 -9 -6 12 -8 -4
right_child=1 4 13 -5 10 -7 11 9 -10 -11 -12 -13 -14 -15
leaf_value=0.00080025478693179037 -0.020845883476274849 -0.00075498274961410686 0.034385485501809233 0.0078644981009899206 0.015382057297516441 0.020282820661454051 0.023606991407258433 0.027721261892045268 0.015937597326604561 0.0076817780459496748 -0.006714852213106322 0.0058276016529522088 0.0067139932386438318 0.0067274779006870865
leaf_weight=160668.24147025496 85567.994552478194 86253.869268961251 1499.6263334900141 3601.6043398976326 17787.278727412224 8386.8877454102039 10813.180828213692 6398.6037416309118 14932.471173539758 10731.738045930862 2859.601374745369 26388.867631614208 8521.6307158470154 1717.5409959554672
leaf_count=1106803 1512639 695618 5881 1861 5773 5295 9332 7527 9488 1859 109 3095 968 268
internal_value=-0.000538541 -0.00641823 -0.0183175 -0.0196863 0.00311736 0.00110935 0.00458219 0.00325002 0.00208748 0.015167 0.0123216 0.0101974 0.0161616 0.0196198
internal_weight=446129 207674 92386.8 89169.6 115288 94640.8 238455 192731 175601 17130.3 20646.9 45723.7 19334.8 3217.17
internal_count=3366516 2227444 1520649 1514500 706795 700913 1139072 1125677 1116291 9386 5882 13395 10300 6149
is_linear=0
shrinkage=0.05


Tree=49
num_leaves=15
num_cat=0
split_feature=11 11 11 10 3 11 7 0 1 9 10 0 10 12
split_gain=5129.53 7219.49 3825.07 1155.29 852.537 829.076 725.597 527.374 1007.68 1072.33 637.269 632.539 510.625 421.625
threshold=6.5000000000000009 18.500000000000004 9.5000000000000018 1.0000000180025095e-35 1.0000000180025095e-35 20.500000000000004 1.0000000180025095e-35 1.0000000180025095e-35 1.5000000000000002 1.0000000180025095e-35 1.0000000180025095e-35 14.500000000000002 10.500000000000002 3.5000000000000004
decision_type=2 2 2 2 2 2 2 2 2 2 2 2 2 2
left_child=7 2 4 -4 -2 6 -3 8 9 -1 -10 -9 -13 -7
right_child=1 5 3 -5 -6 13 -8 11 10 -11 -12 12 -14 -15
leaf_value=0.0010251812471719945 -0.0061514243079330982 -0.0059037400460938208 -0.022695584858001095 0.10423004908585549 0.014767804014706674 0.0091372997194898147 0.014221937255741404 0.011740381239591197 0.033400527236683956 0.016294468601268659 0.0059383575451210993 0.0074323999809694343 -0.0099192401156085602 0.0017253128518751777
leaf_weight=130727.99757394195 40451.67815573141 32147.06265617907 66879.709903083742 179.76230497658253 5537.0259504467249 44665.982891410589 5203.4249425530434 47566.77080821991 4370.6149231791496 12607.075099021196 4088.7136906385422 10935.579389572144 6924.8709983825684 33634.501804418862
leaf_count=970378 415555 278421 1241773 238 4604 239686 1563 13681 3134 8830 627 779 122 187125
internal_value=-0.00052719 -0.00575355 -0.0147389 -0.0223553 -0.00363276 0.00302956 -0.00309996 0.00497532 0.00335787 0.0023682 0.020127 0.00872787 0.000704805 0.00595343
internal_weight=445921 228699 113048 67059.5 45988.7 115651 37350.5 217222 151794 143335 8459.33 65427.2 17860.5 78300.5
internal_count=3366516 2368965 1662170 1242011 420159 706795 279984 997551 982969 979208 3761 14582 901 426811
is_linear=0
shrinkage=0.05


Tree=50
num_leaves=15
num_cat=0
split_feature=11 11 2 0 11 5 5 6 7 10 8 0 1 6
split_gain=4897.22 8913.38 1867.08 1019.81 783.815 688.197 634.139 992.656 1318.44 511.565 435.247 490.818 410.165 233.483
threshold=7.5000000000000009 18.500000000000004 1.0000000180025095e-35 1.0000000180025095e-35 20.500000000000004 1.0000000180025095e-35 1.0000000180025095e-35 1.0000000180025095e-35 1.0000000180025095e-35 1.0000000180025095e-35 1.0000000180025095e-35 2.5000000000000004 1.0000000180025095e-35 8.5000000000000018
decision_type=2 2 2 2 2 2 2 2 2 2 2 2 2 2
left_child=6 2 3 -2 5 -3 7 8 -1 -9 11 -8 -6 -12
right_child=1 4 -4 -5 12 -7 10 9 -10 -11 13 -13 -14 -15
leaf_value=0.00070949457256074596 -0.020725771134695162 -0.0058545143836673348 0.015780874651367589 0.0075899162383239894 0.004518751334149018 0.013343227388551041 0.022112092262142904 0.021403225915393245 0.01838630197035301 0.0053847308654630917 0.0082981639887874364 0.0062433255505524726 0.016170340748516178 -0.0021340223791461864
leaf_weight=162768.28090932965 81942.379453741014 31763.261463433504 3893.1163615137339 3308.2266473770142 70306.285111889243 5472.5271007716656 11157.538434445858 10269.833783298731 11279.500219464302 9684.253575026989 19335.940515875816 8650.7109427452087 8462.276456952095 7422.2603062391281
leaf_count=1106973 1513688 278357 5194 1767 423453 1627 9332 8686 8499 1519 2660 968 3358 435
internal_value=-0.000516047 -0.00619151 -0.0180806 -0.019627 0.00294469 -0.00303303 0.00432378 0.00306608 0.00185507 0.013629 0.00956352 0.0151818 0.00577051 0.00540446
internal_weight=445716 205148 89143.7 85250.6 116004 37235.8 240568 194002 174048 19954.1 46566.5 19808.2 78768.6 26758.2
internal_count=3366516 2227444 1520649 1515455 706795 279984 1139072 1125677 1115472 10205 13395 10300 426811 3095
is_linear=0
shrinkage=0.05


Tree=51
num_leaves=15
num_cat=0
split_feature=11 11 11 10 2 6 8 11 0 0 2 0 0 10
split_gain=4672.03 6774.3 3768.31 1039.29 778.602 755.28 1149 488.966 477.218 380.655 359 279.387 502.994 242.569
threshold=6.5000000000000009 18.500000000000004 9.5000000000000018 1.0000000180025095e-35 1.0000000180025095e-35 1.0000000180025095e-35 1.0000000180025095e-35 1.5000000000000002 2.5000000000000004 1.0000000180025095e-35 1.0000000180025095e-35 15.500000000000002 1.0000000180025095e-35 10.500000000000002
decision_type=2 2 2 2 2 2 2 2 2 2 2 2 2 2
left_child=7 2 4 -4 -2 6 -3 9 -7 10 -1 12 -9 -13
right_child=1 5 3 -5 -6 8 -8 11 -10 -11 -12 13 -14 -15
leaf_value=-0.0031118954523210781 -0.0063017582704352803 -0.00033214605694027028 -0.022602330976941594 0.091922058113510147 0.011544936024490738 0.020797008900646063 0.018286010616985971 0.0049842585857386105 0.0023450906674687771 0.0076910533974233648 0.015509045702476597 0.0048088713785319299 0.011598489089889839 -0.0087074424105070807
leaf_weight=37969.60755777359 38340.292157184333 92604.76644244045 64079.145906113088 198.71295031905174 7270.2627409696579 8835.9176267683506 9101.1826567947865 112096.78000989556 5806.9453861713409 14091.190416812897 2777.7563764154911 8026.8204669952393 38655.965217828751 5660.0300674438477
leaf_count=277226 414922 695281 1241773 238 5237 5662 5300 703415 552 3702 2328 536 10243 101
internal_value=-0.000505076 -0.00554597 -0.0144487 -0.0222483 -0.00345702 0.00286247 0.0013339 0.00469579 0.0134795 0.000607219 -0.0018425 0.00605928 0.00668028 -0.000780635
internal_weight=445515 226237 109888 64277.9 45610.6 116349 101706 219278 14642.9 54838.6 40747.4 164440 150753 13686.9
internal_count=3366516 2368965 1662170 1242011 420159 706795 700581 997551 6214 283256 279554 714295 713658 637
is_linear=0
shrinkage=0.05


Tree=52
num_leaves=15
num_cat=0
split_feature=11 11 2 0 11 7 5 6 10 9 4 0 12 8
split_gain=4463.17 8423.67 1788.07 1004.56 738.057 645.134 574.13 907.633 1240.08 480.606 417.086 534.809 394.163 176.416
threshold=7.5000000000000009 18.500000000000004 1.0000000180025095e-35 1.0000000180025095e-35 20.500000000000004 1.0000000180025095e-35 1.0000000180025095e-35 1.0000000180025095e-35 1.0000000180025095e-35 1.0000000180025095e-35 1.0000000180025095e-35 2.5000000000000004 4.5000000000000009 3.5000000000000004
decision_type=2 2 2 2 2 2 2 2 2 2 2 2 2 2
left_child=6 2 3 -2 5 -3 7 8 -1 -9 11 -8 -6 -12
right_child=1 4 -4 -5 12 -7 10 9 -10 -11 13 -13 -14 -15
leaf_value=0.00044382031811852858 -0.02055981632182129 -0.0057299963157709279 0.014889116366363904 0.0075478976003024133 0.0076314460801492432 0.013002582051860105 0.02187390377739799 0.02021246222084044 0.015590139174199241 0.0048285051871782263 0.0087228328299424878 0.0053447281871346107 -0.00032592661188380679 0.00068252365313111732
leaf_weight=160162.47497981042 78757.243494097143 31854.622658938169 3980.5247426480055 3312.5200226902962 58219.61176802963 5371.1360949575901 11044.218416541815 10649.014300495386 14759.000306785107 9702.3476799726486 14875.373831927776 8787.3685429096222 21239.962446376681 12602.017143011093
leaf_count=1106144 1513688 278421 5194 1767 302372 1563 9203 8652 9328 1553 2358 987 124439 847
internal_value=-0.000494265 -0.00596973 -0.017838 -0.0194253 0.0027826 -0.00302716 0.00408181 0.00288452 0.00172179 0.0128783 0.00902372 0.0145498 0.0055044 0.00503529
internal_weight=445317 202736 86050.3 82069.8 116685 37225.8 242582 195273 174921 20351.4 47309 19831.6 79459.6 27477.4
internal_count=3366516 2227444 1520649 1515455 706795 279984 1139072 1125677 1115472 10205 13395 10190 426811 3205
is_linear=0
shrinkage=0.05


Tree=53
num_leaves=15
num_cat=0
split_feature=11 11 11 10 0 9 3 11 10 0 2 0 1 10
split_gain=4255.72 6352.27 3709.27 946.054 719.267 1197.87 718.595 453.618 444.173 351.667 329.698 264.955 457.796 231.195
threshold=6.5000000000000009 18.500000000000004 9.5000000000000018 1.0000000180025095e-35 1.0000000180025095e-35 1.0000000180025095e-35 1.0000000180025095e-35 1.5000000000000002 8.5000000000000018 1.0000000180025095e-35 1.0000000180025095e-35 15.500000000000002 2.5000000000000004 10.500000000000002
decision_type=2 2 2 2 2 2 2 2 2 2 2 2 2 2
left_child=7 2 6 -4 5 -3 -2 9 -6 10 -1 12 -9 -13
right_child=1 4 3 -5 8 -7 -8 11 -10 -11 -12 13 -14 -15
leaf_value=-0.003094205386948577 -0.0056925529146562735 -0.00084945829740177474 -0.022505625197367353 0.082073238308969537 0.014038660812467744 0.019283707178940193 0.013205979836184252 0.0053456667396094733 -0.0060072282075846577 0.0072532702357397186 0.01455297743931417 0.0045014533532138157 0.013907446149453176 -0.0086739016377874716
leaf_weight=37938.702393084764 39481.704307407141 87527.81069509685 61412.265662826598 217.02017483115196 18156.358516097069 8069.0549902319908 5764.3903744518757 134750.92594072223 3259.4771194458008 14283.472143411636 2845.190929889679 8110.9503364562988 17658.959056615829 5648.2789497375488
leaf_count=277226 415555 695503 1241773 238 5741 5410 4604 710233 141 3702 2328 536 3425 101
internal_value=-0.00048372 -0.00534364 -0.0141561 -0.0221374 0.00270535 0.000849924 -0.00328486 0.00443444 0.0109877 0.000501527 -0.00186309 0.00573779 0.00633768 -0.00090714
internal_weight=445125 223888 106875 61629.3 117013 95596.9 45246.1 221236 21415.8 55067.4 40783.9 166169 152410 13759.2
internal_count=3366516 2368965 1662170 1242011 706795 700913 420159 997551 5882 283256 279554 714295 713658 637
is_linear=0
shrinkage=0.05


Tree=54
num_leaves=15
num_cat=0
split_feature=11 11 11 4 3 11 4 0 3 9 10 0 10 12
split_gain=4068.12 7956.51 1767.36 913.198 751.25 691.724 602.592 527.642 1026.92 1220.23 909.863 598.512 428.035 370.625
threshold=7.5000000000000009 18.500000000000004 9.5000000000000018 30.500000000000004 1.0000000180025095e-35 20.500000000000004 1.0000000180025095e-35 1.0000000180025095e-35 1.0000000180025095e-35 1.0000000180025095e-35 1.0000000180025095e-35 14.500000000000002 10.500000000000002 3.5000000000000004
decision_type=2 2 2 2 2 2 2 2 2 2 2 2 2 2
left_child=7 2 4 -4 -2 6 -3 8 9 -1 -10 -9 -13 -7
right_child=1 5 3 -5 -6 13 -8 11 10 -11 -12 12 -14 -15
leaf_value=-1.771902806440592e-05 -0.0091371149859748885 -0.005690204386390855 -0.022160447078492657 0.43265378290851342 0.018487556723795647 0.0081774614636406992 0.012083422765972015 0.010092401838659164 0.030947671567467083 0.016151433483058756 0.0028778618939825202 0.005407879780411423 -0.0098994525344428212 0.0013023409873134289
leaf_weight=146028.78967404366 20019.563545376062 31571.559676393867 60270.126541234553 11.038660556077955 2806.0692105218768 45964.874094709754 5617.30968272686 54311.553822100163 5694.1097546666861 12681.579798847437 5855.8940216302872 12833.552939891815 7089.841136932373 34178.917101472616
leaf_count=1104421 275429 278409 1242007 4 3209 239686 1575 15794 7460 9433 952 887 125 187125
